256 50
255 -0.594335 -0.166584 -0.259339 0.781231 -0.342970 0.419900 -0.506402 0.304545 -0.077080 -0.779290 -0.404674 0.365013 0.345840 0.410646 -0.424448 0.226560 -0.419285 -0.065327 -0.094623 -0.115084 -0.152380 -0.864142 -0.116169 0.222148 -0.406823 -0.246208 0.226952 0.106432 -0.039913 -0.489517 -0.147743 0.437403 0.718751 0.434168 0.032869 0.209596 0.210195 0.659463 0.405537 -0.648314 0.202656 -0.147959 0.460607 0.534048 -0.207504 0.126207 -0.199159 -0.108556 0.093402 -0.226004
0 0.202977 -0.772665 0.473196 0.187350 -0.385226 -0.304971 -0.997108 -0.258727 0.163245 -0.198909 -0.195684 0.336175 0.421355 0.303654 -0.048291 0.002004 -0.931132 0.391252 0.111306 -0.397228 -0.617843 0.054902 0.268395 -0.629285 0.447811 0.272367 -0.046629 -0.190598 0.068157 -0.781024 -0.205127 -0.529388 0.264705 0.373499 -0.372491 -0.573212 -0.354414 0.821583 -0.197986 0.353136 0.181677 0.333152 -0.266314 -0.077923 0.078772 -0.230859 -0.301906 -0.103532 -0.037724 0.113946
138 -0.241232 0.322689 -0.421344 0.054038 0.056937 -0.262760 -0.454628 -0.691120 -0.120832 0.357475 0.409604 -0.366342 0.532084 0.512444 0.091106 -0.477072 0.098339 -0.137035 -0.238295 -0.174237 -0.188322 -0.298508 -0.098025 -0.034788 0.123306 -0.502722 0.110629 0.535152 0.218768 -0.091933 -0.175063 -0.060493 0.439372 0.305371 -0.115230 -0.540568 -0.003077 0.388253 0.101714 0.087966 0.446049 -0.695571 0.057396 0.046790 0.342714 -0.702602 0.182010 0.599171 -0.361079 -0.292579
171 -0.270013 -0.033311 0.417046 0.515911 -0.061558 0.173511 -0.780066 0.100144 0.215533 0.708368 -0.148193 0.098462 0.257248 0.344351 0.079733 -0.732144 -0.182895 -0.149007 -0.363446 0.332312 -0.372210 -0.567833 0.642687 0.018249 0.104049 -0.466931 -0.129002 0.170164 -0.113266 0.156246 -0.285258 -0.203237 0.098867 0.350639 0.186281 0.024766 0.047904 -0.480748 -0.038485 -0.283525 0.093910 -0.105016 -0.127118 0.675839 0.177768 -0.145579 -0.309622 0.512772 -0.304029 -0.630596
181 -0.236751 0.172600 0.132645 0.456114 0.413845 -0.380607 -0.128662 -0.169907 -0.271549 0.682779 -0.053730 0.188744 -0.590123 0.642448 0.203405 0.229310 -0.007683 0.280244 0.295912 -0.222198 -0.241018 -0.666890 0.406213 -0.353528 -0.390748 0.175174 0.601221 -0.347385 0.852863 0.302018 0.155162 0.363583 -0.070301 -0.077151 -0.067402 -0.418605 -0.052360 -0.657021 -0.165686 -0.861854 0.080350 0.216048 -0.195416 0.456365 0.341565 -0.310770 -0.218298 -0.122987 -0.244150 0.130057
173 -0.047381 0.258247 -0.038665 0.243192 0.414206 -0.282967 -0.418715 0.293941 -0.355620 -0.033608 -0.025593 0.271596 -0.340009 0.592203 0.026774 -0.283994 -0.308990 -0.317640 0.174689 0.217187 -0.095352 -0.022316 0.861133 -0.059637 -0.278291 -0.613761 0.323017 0.301748 0.241070 0.632350 0.494535 -0.148342 0.090296 0.344202 0.021825 -0.443042 -0.388101 -0.677667 0.375453 -0.229129 -0.512639 0.110894 -0.170089 0.705158 0.153479 -0.926237 -0.303720 0.758047 0.178988 -0.434404
170 -0.073923 0.072895 -0.093931 0.728130 -0.211612 -0.090968 -0.559821 -0.540273 0.162950 0.469261 -0.054909 0.020263 0.307044 0.496322 0.552756 -0.367605 -0.124602 -0.436579 -0.101525 0.181272 -0.181329 -0.246197 0.331369 -0.072838 0.109731 -0.352581 0.005528 0.667109 0.043714 0.064884 -0.167339 0.022873 0.512672 0.289304 0.465837 0.180338 -0.630684 -0.120353 -0.274824 -0.208773 0.074437 -0.096680 -0.011229 0.376584 0.106276 -0.485350 -0.153957 0.302038 -0.577183 -0.477884
162 -0.129430 -0.435101 -0.157707 -0.010185 -0.231178 0.135376 -0.279511 -0.502471 0.305462 0.506594 0.564610 -0.096961 -0.076030 0.524050 0.250074 -0.102775 -0.216233 -0.785539 0.654016 0.260053 -0.608880 0.101169 -0.080636 0.783989 -0.207501 -0.420349 0.211844 0.509491 0.314781 0.168107 -0.577870 0.062008 0.394015 0.308844 -0.022156 -0.346631 -0.469463 0.045711 -0.095109 0.202203 -0.053745 -0.532731 -0.191439 0.138714 0.167223 -0.071125 -0.550564 0.222042 -0.416780 -0.224724
182 -0.645925 0.147026 0.614864 -0.043189 0.022371 -0.232657 -0.057933 -0.447719 0.167989 0.532872 0.335567 -0.414697 0.169980 0.807530 0.480468 0.051332 -0.282907 0.205923 0.426452 0.086347 0.300740 -0.303070 0.116455 -0.235846 -0.234190 -0.278484 0.192357 -0.451606 0.437073 0.238554 0.143730 0.284850 -0.047053 -0.005681 -0.101160 -0.158783 0.102870 0.036193 -0.032925 -0.182264 -0.522069 -0.392544 0.441042 0.733268 0.502704 -0.488304 -0.199738 0.227833 -0.423199 0.099291
93 -0.132955 -0.380135 -0.391382 0.136417 0.153459 0.205750 0.185667 -0.010475 -0.255975 -0.062929 0.117584 0.392808 -0.576443 0.279258 -0.208846 0.385612 -0.240649 -0.473255 0.512142 -0.466894 -0.262088 -0.448292 0.210791 -0.983743 -0.039870 0.111195 -0.141571 -0.174035 0.124368 -0.063580 0.073601 0.054981 -0.227866 0.526890 -0.262453 -0.261058 -0.370227 -0.709845 0.273941 -0.355572 0.172955 -0.767066 -0.308070 0.466042 -0.221320 -0.486245 0.402635 0.268465 -0.349058 0.321582
117 -0.325783 -0.852001 -0.261758 0.214577 0.354906 -0.658656 0.023216 -0.255169 -0.445687 -0.048594 -0.180583 0.795627 -0.186511 0.294774 -0.208539 0.157690 -0.498429 0.065488 0.214040 -0.934448 -0.121817 0.017412 0.262224 -0.406255 -0.164625 -0.144397 0.357702 -0.018528 0.280898 0.152539 -0.083690 -0.153849 -0.137878 0.269099 0.361546 0.139866 -0.075087 -0.896454 -0.312155 -0.766475 -0.277815 -0.149345 -0.035566 -0.272008 -0.047940 0.380498 0.352581 -0.187458 -0.486325 0.114372
133 -0.104858 -0.059451 -0.642581 0.432111 0.933927 -0.004483 -0.345529 -0.123295 0.013995 0.725415 0.212079 -0.008724 -0.036759 -0.297116 -0.070015 0.422893 -0.086552 0.597286 -0.040562 -0.202040 -0.581276 -0.382653 0.540612 -0.116003 -0.754009 -0.531101 0.223623 -0.578394 0.408349 0.238508 0.059868 -0.051157 0.308028 0.458922 0.031628 -0.117561 -0.115624 0.034231 0.066250 0.097706 0.245877 -0.552890 -0.152898 0.108810 0.032637 -0.255868 0.604512 0.845787 -0.278039 0.137441
161 0.401531 0.018152 -0.387794 0.421853 0.341988 0.065812 0.672104 -0.252980 0.397022 0.494433 0.010925 0.066103 0.114266 0.936287 0.165056 0.387738 -0.330344 0.296300 0.580997 0.339092 -0.949015 -0.098514 -0.013308 0.037757 -0.276003 -0.791000 0.310219 0.039696 0.124967 0.283916 0.092458 -0.156605 -0.002347 0.598288 0.228662 -0.451627 -0.253130 0.118678 -0.402428 -0.153862 -0.135738 -0.147649 -0.204276 -0.375354 0.417199 -0.605094 -0.080272 0.509668 -0.171252 -0.560210
42 -0.290056 0.457641 -0.062681 0.196181 -0.014985 -0.304238 -0.737114 -0.704302 0.044574 0.097462 -0.209743 0.375117 -0.122191 0.389353 0.515246 -0.666803 -0.595152 -0.057914 -0.177145 -0.187853 0.145328 -0.448561 0.483772 0.092815 0.298730 -0.229407 0.237842 0.685526 -0.333438 -0.082250 -0.425625 0.167873 0.572988 0.236496 0.378128 0.027579 -0.456115 0.247765 -0.299844 0.089080 -0.347458 -0.021259 0.324746 -0.296185 0.504001 -0.381879 0.046310 0.908275 -0.545809 -0.316626
21 -0.368973 -0.454143 -0.588048 0.609545 0.348940 0.025854 -0.210066 0.550387 -0.074740 0.428189 0.424561 0.354947 -0.203679 0.259074 -0.273735 -0.039332 -0.511298 0.687745 0.695055 -0.297988 -0.001299 -0.090873 -0.105138 0.271902 -0.341927 -0.013042 -0.346128 -0.643245 0.185837 -0.116503 0.147972 -0.360030 0.042416 0.359052 0.017274 -0.319255 -0.710589 -0.274691 -0.501405 0.118616 -0.166618 -0.114916 -0.245498 0.353370 0.225149 -0.248952 0.800545 0.103608 -0.015946 0.036705
187 -0.221839 0.243749 -0.095287 0.699749 -0.244911 0.305792 -0.640247 0.460516 0.175976 -0.283561 0.281838 -0.553641 0.268197 0.246074 0.178270 -0.287222 -0.452318 0.119202 -0.212214 0.222725 0.592658 -0.621039 0.570105 -0.617937 0.039654 -0.626235 0.684572 -0.121888 0.398010 0.081812 -0.169588 -0.179433 -0.283796 0.301724 -0.363278 -0.337342 0.263979 0.099539 0.061981 -0.150006 -0.032970 0.090410 -0.123939 0.165022 0.163431 -0.329144 -0.201595 -0.198204 -0.521851 -0.324606
85 -0.291538 -0.463706 -0.655013 0.860808 0.168946 -0.442636 -0.243534 -0.188112 -0.595758 0.487616 0.008751 0.242907 -0.410590 0.070862 -0.008674 0.150716 -0.387165 0.364660 0.490014 -0.354283 0.173660 -0.470402 -0.268328 -0.196411 -0.036292 0.163629 0.360907 -0.465027 -0.160575 -0.286258 -0.057872 -0.336228 -0.215278 0.273886 0.188268 -0.060524 -0.404283 -0.259171 -0.042974 -0.156675 -0.357016 -0.557326 -0.283522 0.278552 0.068658 -0.164857 0.313852 -0.107795 -0.164349 0.391284
109 0.048861 -0.257015 0.428036 0.545467 -0.024018 -0.143290 -0.233383 -0.375937 -0.418920 -0.239469 0.623637 0.086747 -0.822955 0.333172 -0.053879 0.304788 -0.230343 0.009698 0.291217 -0.301796 0.116560 -0.080703 0.431595 -0.424473 0.247290 -0.079134 0.465899 -0.029475 0.068232 0.733741 -0.129382 -0.107375 0.032814 0.332403 0.022254 -0.470367 0.166348 -0.506346 0.439487 -0.186556 -0.590395 -0.588735 -0.355324 0.270013 -0.198898 -0.002138 0.485470 0.057125 0.231930 -0.729670
87 -0.475109 -0.455632 -0.543778 0.396010 0.214905 -0.428224 -0.111522 0.593653 -0.716413 0.152484 -0.094763 0.309979 -0.203816 -0.221681 0.002031 0.193561 -0.323530 -0.015844 -0.162434 -0.004109 0.176415 -0.798401 -0.148781 -0.514929 -0.035046 0.095933 0.285622 -0.139188 -0.161200 -0.188814 -0.240356 0.137537 -0.181461 0.511452 0.670360 -0.448331 -0.453962 0.151808 0.158743 -0.550794 -0.051638 -0.811540 -0.771560 0.221501 -0.036389 -0.360414 0.766718 -0.293067 -0.069910 0.243787
186 -0.287453 0.091023 -0.100608 0.405653 -0.410299 0.185352 -0.331674 -0.105962 0.155509 0.155446 -0.186171 -0.517081 0.303920 0.244827 -0.072958 0.288303 0.212278 -0.395612 0.165902 0.055667 0.159298 -0.448581 0.517702 -0.285125 -0.393093 -0.401458 0.667166 0.275105 0.282256 0.206845 -0.520048 0.214997 -0.227208 -0.285745 0.174325 -0.361709 -0.539788 0.230888 0.055820 -0.553291 -0.389828 -0.279610 -0.138210 -0.422576 0.065625 -0.393112 -0.318995 -0.200718 -1.152807 -0.366996
214 -0.661318 -0.766887 -0.263222 0.710391 -0.080788 -0.836116 0.091864 -0.345763 -0.207460 -0.297317 -0.257885 0.018115 0.410438 -0.016386 0.722785 -0.075028 0.009494 -0.423678 0.615324 -0.575451 -0.412812 0.345361 0.370242 -0.120932 -0.478163 0.094301 0.311288 -0.471957 0.046091 0.232050 0.508925 -0.216507 -0.246071 0.067303 -0.215864 -0.435133 0.225964 -0.335169 -0.126953 -0.075288 0.273345 -0.652168 0.282617 0.559328 0.001848 0.349320 -0.318570 -0.119066 -0.539413 -0.204555
174 -0.120816 0.492550 -0.158127 0.196983 0.004548 -0.199794 -0.342971 0.379339 0.246146 -0.130510 -0.187541 -0.386792 0.305426 0.468049 -0.025864 -0.470251 -0.603627 -0.294589 -0.147652 -0.021960 -0.156703 -0.286992 0.244156 -0.058533 0.263397 -0.788896 0.247550 0.032091 0.122837 0.530686 0.198162 -0.320115 0.207337 -0.191742 0.042781 -0.671059 -0.487995 -0.076224 0.168029 0.026003 -0.222563 0.143953 0.322982 0.449383 -0.446292 -0.455817 -0.497142 0.416588 -1.156842 -0.257356
191 -0.702599 0.215719 -0.194398 0.595998 -0.288902 0.401934 -0.166289 0.101584 0.030599 -0.502096 -0.265810 -0.296889 0.585288 0.375258 -0.043637 -0.173764 -0.304019 0.249355 -0.180382 -0.563253 -0.240575 -1.036000 -0.285914 -0.148614 -0.414216 -0.025793 0.305993 -0.125411 0.635234 0.056516 -0.776251 0.589924 0.723202 0.005695 0.403703 0.011204 0.062947 0.626046 0.459299 -0.132633 0.114464 0.151448 0.111850 0.878534 0.192711 -0.313766 -0.226350 -0.307668 0.106822 -0.308095
139 0.234453 -0.300031 -0.785979 -0.131857 0.113890 -0.066405 -0.592218 -0.051426 -0.163933 0.057477 0.731170 -0.309142 0.085497 0.454742 -0.230464 -0.512565 -0.381804 -0.169536 -0.538415 -0.258804 -0.035764 -0.481975 0.019253 0.519425 -0.246562 -0.559773 0.038287 0.016596 0.652820 0.486487 -0.446416 -0.225906 0.251263 0.321069 -0.607097 -0.161895 0.401262 0.068163 -0.266896 -0.200845 0.075814 -0.640767 0.056537 0.035000 0.778036 -0.044439 -0.583829 0.149316 0.054665 -0.549156
218 -0.203299 -0.655698 0.072338 -0.059862 0.360153 -0.371711 -0.376460 -0.684713 -0.202228 -0.061822 0.009012 0.167943 0.672643 0.606968 0.382121 -0.027997 0.600788 -0.085751 0.369599 0.275557 0.162711 -0.433514 -0.218260 -0.150307 0.134977 -0.439746 0.619825 0.172737 0.190229 0.396981 0.087790 0.458389 -0.257334 0.615839 0.361904 -0.585023 -0.591555 -0.038652 -0.182595 0.329383 -0.172296 -0.058096 0.422965 0.299972 -0.222379 0.467115 -0.172159 0.208997 -0.917560 -0.120376
213 -0.375773 -0.923636 -0.440658 0.972399 0.408279 -0.813104 0.389692 -0.150197 -0.608215 0.407172 0.023389 0.190990 -0.418816 0.287876 0.077892 -0.061939 -0.129675 0.284897 0.631782 -0.238430 -0.151423 -0.044302 0.284822 -0.062176 0.291559 0.066321 0.501247 -0.498646 -0.020105 -0.162985 0.178338 -0.290606 -0.007801 0.020560 -0.184308 -0.043648 0.115145 -0.099977 0.202724 -0.124127 -0.170536 -0.210997 -0.099479 0.792655 0.022907 0.347727 -0.326989 -0.017063 -0.375700 0.016531
104 0.604241 -0.561369 0.308548 0.366930 -0.091371 -0.262489 -0.063628 -0.686700 -0.108001 0.352583 -0.120730 -0.281569 0.594291 0.433002 -0.259342 0.599873 -0.191719 -0.029517 0.387898 -0.069012 0.223837 0.003486 -0.220151 0.480499 -0.013031 -0.083339 0.049733 0.557783 0.229452 0.224949 -0.069406 -0.040429 0.244706 -0.157556 -0.061515 -0.681313 -0.411631 -0.097600 -0.425629 0.149839 -0.434455 -0.828803 -0.686187 0.678205 0.261307 0.202444 -0.039948 0.427355 -0.596544 -0.200533
134 -0.084961 0.334583 -0.167523 -0.557676 -0.281992 -0.222303 -0.794868 -0.241002 0.017207 0.136031 0.037364 -0.298706 0.061658 -0.131626 0.432133 0.289328 -0.020439 0.235452 0.256534 0.001449 -0.540904 0.162331 0.441506 -0.130213 -0.577448 -0.705452 0.337604 -0.295833 0.365390 0.736337 -0.144020 -0.044119 0.363276 0.196752 -0.085161 -0.295683 -0.490406 0.032943 -0.126876 -0.198144 0.374848 -0.768298 0.580385 0.263254 0.342082 -0.215735 0.492877 0.427114 -0.220329 -0.340990
97 0.819951 -0.211865 -0.233718 0.466373 0.163673 -0.233595 0.351224 -0.025341 -0.071741 -0.156681 0.112079 0.242693 -0.317074 0.379270 0.079816 0.057928 -0.147426 0.294223 0.379002 -0.317853 -0.480113 -0.397514 0.167949 -0.651943 -0.423505 -0.097256 0.181954 0.210050 0.256017 0.273944 0.704034 0.032237 -0.147600 0.180715 0.440583 -0.707691 0.117911 0.302111 -0.619712 -0.234221 -0.171638 -0.874422 0.246754 0.177726 0.072254 0.164541 0.620739 0.283345 -0.265367 -0.260613
106 0.209261 -0.023105 0.112064 0.718365 -0.457889 -0.262230 -0.664000 -0.539204 -0.394636 0.239756 -0.177471 -0.004618 0.234677 0.581446 0.309826 0.358968 -0.060788 -0.728321 0.124495 -0.355845 -0.026779 -0.109249 0.159421 -0.073010 0.251094 -0.144477 -0.135549 0.686240 0.168063 0.370344 -0.011808 -0.104909 0.281125 -0.103603 0.361305 -0.387815 -0.259776 -0.421132 -0.334461 0.081598 -0.088922 -0.754815 -0.449459 0.185003 -0.265545 -0.036461 0.188703 0.463032 -0.590356 -0.362088
215 -0.606320 -0.669451 -0.132130 0.585898 0.247358 -0.721972 0.567813 0.527677 -0.819324 -0.045044 -0.017802 0.188831 -0.274265 -0.166133 -0.045875 -0.059887 -0.128076 -0.156913 -0.072547 0.061411 -0.296559 -0.447133 0.454632 -0.322312 0.326813 0.108463 0.473617 -0.134897 0.047873 0.180408 -0.122042 0.263966 -0.027013 0.167185 0.081252 -0.151358 -0.049058 0.195584 0.414952 -0.769127 0.321807 -0.452357 -0.294024 0.766960 0.099846 0.105117 0.005467 -0.168490 -0.306842 -0.105420
221 -0.480141 -0.511939 0.011345 -0.113594 0.391568 -0.308257 0.200265 0.164649 -0.460816 -0.068763 0.193717 0.117914 -0.123775 0.935314 -0.272777 0.420243 0.068751 -0.298371 0.109006 -0.562758 -0.467320 -0.199655 0.673315 -0.891060 0.216957 -0.269684 0.527707 -0.137998 0.169860 -0.343656 0.028487 0.456790 0.066178 0.440510 -0.321548 -0.109815 0.160665 -0.134328 0.140813 0.141560 0.019930 -0.251219 -0.116890 0.547194 -0.054790 0.272195 0.082627 -0.179267 -0.058571 -0.009680
119 -0.638595 -1.102747 -0.009380 -0.290825 0.254354 -0.012580 0.443414 0.182951 -0.338522 -0.423769 -0.016305 0.494999 -0.266111 0.606899 0.071303 0.444451 -0.782358 0.044633 -0.380568 -0.314120 0.092464 -0.351813 0.410330 -0.679426 0.175848 -0.302891 -0.136971 0.212604 -0.362042 0.169918 -0.187044 -0.278985 -0.130508 0.604962 0.502871 -0.194604 -0.393349 -0.226783 0.309079 -0.239127 0.233856 -0.200931 -0.072892 0.097827 -0.070951 0.123655 0.143838 -0.073823 -0.458649 0.309425
40 -0.008657 -0.322333 0.050632 -0.162093 0.203248 -0.116612 0.176736 -0.682014 0.405040 -0.004517 0.199749 0.362415 0.128784 -0.199760 -0.021634 -0.241458 -0.551978 0.597054 0.185715 0.105566 -0.035037 -0.396160 0.148326 0.466057 0.311529 -0.022690 0.232572 0.586669 -0.030682 0.101717 -0.314171 -0.185399 0.422443 0.122618 -0.109109 -0.180862 -0.835482 0.660143 -0.348354 -0.034245 -0.334972 -0.316137 -0.084984 0.019549 0.697895 -0.481723 -0.046977 0.575846 -0.697845 -0.154251
34 -0.003923 0.054724 -0.096069 -0.159139 -0.103405 0.190145 -0.552150 -0.763581 0.127935 0.221131 0.243128 -0.148330 -0.243035 0.207137 -0.093297 -0.302211 -0.595916 -0.770518 -0.078407 -0.169181 -0.170323 -0.146279 0.209992 0.363542 -0.565238 0.358439 0.334121 0.624487 -0.011901 -0.129348 -0.518246 -0.196223 0.293638 0.302189 -0.173429 -0.057132 -0.299067 0.896493 -0.136775 -0.220513 0.350537 -0.455747 0.304751 0.357541 0.785954 -0.288981 0.174658 0.365882 0.042949 0.029339
183 -0.535698 -0.455081 0.556495 0.057116 0.073098 0.378348 0.325555 0.166926 -0.397243 0.038252 0.027371 -0.322379 -0.430364 1.111900 0.420462 -0.001164 -0.180814 0.190708 -0.389522 -0.071659 -0.128688 -0.503103 0.560368 -0.568615 -0.201167 -0.007740 0.432292 -0.208701 0.309667 0.510024 -0.121820 0.111066 0.230351 0.096426 0.108576 -0.317949 -0.124232 -0.059590 0.237954 -0.312964 0.525133 0.181762 -0.111565 0.833870 0.350575 -0.125266 -0.277698 -0.094495 -0.291515 0.273693
88 0.356264 -0.275708 0.290574 0.039440 -0.136931 -0.684014 0.053369 -0.088141 0.247263 0.035797 -0.221257 0.163167 -0.266765 -0.181982 0.010859 0.076077 -0.443259 -0.529360 0.261286 -0.459122 -0.500741 -0.154253 -0.108034 0.322069 -0.371600 -0.036706 0.528047 -0.235809 0.764613 -0.534248 0.343696 -0.097335 0.115586 0.371803 -0.396026 -0.438799 -0.356819 -0.300588 0.185032 0.145240 -0.919507 -1.233674 -0.326224 0.353067 0.538454 0.242969 0.395195 -0.224376 -0.372511 0.118147
223 -0.458911 -0.796008 0.154789 0.045720 0.075730 -0.111937 0.152017 0.150019 -0.578701 -0.121330 0.041369 0.465776 -0.124465 0.371575 0.096693 0.596924 -0.253278 0.013598 -0.192100 -0.006210 -0.403772 -0.798624 0.283909 -0.178305 0.697349 -0.307096 0.050033 -0.268704 0.000077 -0.046602 0.195289 0.544222 0.521461 0.544714 0.112003 -0.056334 -0.052735 0.347709 0.668646 -0.461638 -0.416449 0.100712 0.616121 0.447504 -0.072979 0.447367 0.100719 -0.704436 -0.222120 -0.307276
86 -0.459541 -0.443005 -0.516063 0.531815 -0.245666 -0.231762 -0.492505 -0.698510 -0.214772 0.005226 -0.244669 -0.052961 0.526551 0.164414 0.588716 0.074017 -0.114438 -0.245154 0.421747 -0.706344 0.441984 -0.145739 -0.260832 -0.070958 -0.587656 0.111703 0.504692 -0.422006 -0.346653 0.102175 0.074128 -0.509758 -0.388043 0.541704 -0.118350 -0.378583 -0.249565 -0.479442 -0.108543 0.143863 -0.177470 -1.123483 -0.138968 0.201527 0.275325 -0.185108 0.304984 -0.328946 -0.171520 0.118299
219 -0.488197 -0.536835 0.191968 0.323413 0.041137 0.105928 -0.394956 -0.300601 0.063678 -0.594218 0.010722 0.067572 0.129573 0.459357 -0.188559 0.021857 0.418708 0.036034 -0.026411 0.067692 0.224922 -0.278339 0.068668 -0.230244 0.326547 -0.377344 0.279954 -0.402978 0.464324 0.297044 -0.204544 0.122243 -0.801127 0.637707 -0.242943 0.092190 0.098940 -0.054902 -0.300503 -0.375368 -0.389376 0.062913 0.670454 1.043741 0.220804 0.198164 0.146120 0.342781 -0.609755 -0.142825
136 0.092855 -0.126896 -0.198129 -0.297510 0.108297 -0.478148 -0.362449 -0.356143 0.142628 0.271871 0.567962 0.058457 0.463723 0.140256 -0.325125 -0.046496 -0.525432 0.290387 -0.025738 -0.312045 -0.985967 -0.152835 -0.202830 0.712953 -0.204795 -0.365275 0.169218 0.393706 0.334626 0.017092 0.257469 -0.001140 0.328452 0.142242 0.121205 -0.140202 0.033560 0.891528 -0.274368 -0.112715 0.137588 -0.502145 0.008712 0.130737 0.157191 -0.328459 0.066793 -0.126463 -0.542774 -0.285781
29 -0.213603 -0.695193 0.432876 0.061894 0.599677 -0.087926 0.054645 0.323004 -0.458415 -0.620559 0.588704 -0.103892 0.144274 0.621670 -0.449779 0.115743 -0.263674 -0.236988 0.425062 -0.597318 -0.607318 -0.004911 0.574643 -0.670428 -0.420131 0.000249 -0.358818 -0.157583 0.455671 0.127245 -0.255497 -0.137553 -0.115488 0.062301 0.175086 -0.190762 -0.766488 -0.546354 0.242601 0.014964 0.025209 -0.176842 0.126871 -0.350989 0.093773 -0.260854 0.485031 0.676742 0.068101 0.189079
45 -0.375522 -0.115363 0.511542 0.089649 0.864290 0.166197 -0.208193 -0.210584 -0.846844 0.218706 0.300230 -0.046286 -0.413569 0.304489 -0.011459 -0.114844 -0.434137 0.186528 0.419110 -0.127832 -0.162517 -0.083689 0.472066 -0.110696 -0.266257 -0.529984 0.695916 0.807799 -0.270645 0.027200 -0.605020 -0.220883 -0.449454 0.180491 -0.658950 -0.212858 0.255215 -0.126942 0.125674 -0.146710 -0.183037 0.161212 0.165278 0.239287 0.823703 -0.336267 0.170084 0.123104 0.087007 -0.615002
107 -0.195070 -0.319357 0.160847 0.535666 -0.366176 0.002756 -0.633994 0.097646 -0.028762 0.344955 -0.399476 -0.135116 0.179001 0.494181 -0.091722 0.147793 -0.144995 -0.429223 -0.412068 -0.040460 -0.229435 -0.383779 0.129375 -0.149605 0.069493 -0.237963 -0.224346 0.059773 0.067510 0.607627 -0.384491 -0.015841 -0.153375 0.033556 -0.052522 -0.461698 0.240379 -0.709411 -0.331783 0.222130 -0.089560 -0.523928 -0.378556 0.182725 -0.160416 0.492872 0.419177 0.686953 -0.530278 -0.834278
168 0.422595 -0.373681 0.147675 0.405754 -0.126764 -0.183692 -0.014235 -0.467260 0.295172 0.407790 -0.003840 0.060473 0.536138 0.052019 -0.126854 0.146429 -0.122688 0.220626 0.298487 0.437286 -0.312664 -0.061510 0.107931 0.306643 -0.109727 -0.205074 0.032962 0.780868 0.125109 0.034592 0.087079 -0.291889 0.496799 0.139500 0.183686 0.025799 -1.027768 0.146309 -0.273670 -0.496669 -0.009812 -0.365795 -0.356854 0.557392 0.360629 -0.470579 -0.342673 0.131817 -0.774749 -0.343313
8 0.294395 0.006354 0.200233 -0.276967 0.200333 -0.474321 -0.027252 -0.423635 -0.092177 0.472963 -0.171143 0.319514 -0.338629 -0.190348 -0.143523 -0.095634 -1.012633 -0.114323 0.231176 -0.364273 -0.819357 -0.224373 0.114730 0.213587 0.261419 -0.069346 -0.280975 0.360812 0.370331 -0.401805 0.069837 -0.269097 0.203555 0.291625 -0.295333 -0.410823 -0.685166 1.301751 -0.105300 0.200413 0.077163 0.069181 0.596768 0.511389 0.287639 0.042776 0.027096 0.129151 -0.118063 -0.201135
252 0.116517 -0.201498 0.238506 0.800761 -0.647575 0.291304 -0.289123 0.389771 -0.326329 -0.467137 -0.596370 0.601852 0.165352 0.485063 -0.507723 0.776881 -0.499949 0.352418 0.389249 0.350424 0.078440 -0.322977 -0.160435 0.642264 0.541807 -0.499217 0.770085 -0.243697 0.357796 -0.400337 -0.420753 -0.285462 0.754317 0.813863 0.171182 0.422407 0.138582 0.866376 0.686225 -0.530197 0.378118 -0.248448 -0.077393 0.353023 0.221361 0.245325 -0.161158 0.287329 0.110033 0.060152
237 -0.804565 -0.047105 0.285140 0.620786 0.441238 0.353414 -0.184321 0.158396 -0.161637 -0.522000 0.011982 -0.507758 -0.562329 0.152710 0.178898 -0.221070 -0.504424 -0.380794 0.551962 0.237346 -0.009994 0.022554 0.837441 -0.788510 -0.383450 -0.485176 0.658917 -0.023168 0.280839 0.028960 0.448756 -0.083383 -0.109706 0.551465 -0.141230 -0.302362 -0.115994 -0.146481 -0.324741 -0.155809 -0.348125 -0.070379 -0.374307 0.069226 0.458322 0.349529 -0.231529 -0.129367 0.639307 -0.292061
90 0.414246 -0.406901 -0.230312 0.281952 -0.359974 -0.342597 -0.393602 -0.268613 -0.612150 0.621639 -0.070909 -0.006491 0.600926 0.084225 0.739094 -0.241782 -0.443364 -0.580590 0.420915 -0.282500 -0.097036 -0.493318 -0.436418 -0.322667 -0.182928 -0.072646 0.291981 -0.050182 0.176083 -0.192673 0.088774 0.137679 0.324311 0.523764 0.121180 -0.065167 -0.795528 -0.402459 0.225488 0.477769 -0.675632 -0.512402 -0.057672 0.066200 -0.165177 0.420363 0.309169 -0.133661 -0.792024 -0.173350
253 -0.326220 -0.378943 0.008413 0.604685 -0.095073 0.298516 0.092283 0.274669 -0.402640 -0.827564 -0.323742 0.665425 -0.078692 0.856414 -0.450935 -0.543230 -0.150278 -0.024311 0.386711 -0.289013 -0.301664 -0.652294 -0.061851 -0.301141 -0.552142 -0.487341 0.554484 0.385196 -0.250458 -0.607256 -0.082741 0.196637 0.281129 0.295349 -0.093647 0.253920 0.189190 0.082272 -0.090414 -0.271882 -0.231968 -0.225019 -0.043933 0.494967 -0.524030 0.192289 -0.358697 -0.125838 0.458048 -0.513482
43 -0.624683 0.054379 0.056000 -0.183755 0.125746 0.273747 -0.599398 -0.108548 0.231381 0.496537 -0.256358 0.254402 -0.188231 0.168134 0.189600 -0.889414 -0.739321 0.132390 -0.575287 0.039841 -0.131242 -0.906108 0.422691 0.160091 0.275079 -0.454603 0.083760 0.285925 -0.261108 0.283979 -0.612242 -0.122567 -0.044871 0.239511 0.070077 -0.086964 0.088442 0.050191 -0.183000 0.037411 -0.261167 -0.226564 0.054088 -0.108218 0.649026 0.257226 -0.050262 0.806446 -0.243154 -0.544949
175 -0.335804 -0.214922 -0.228521 0.574104 0.015025 0.394319 -0.359872 -0.061279 0.151289 -0.016501 -0.398299 0.418654 0.304809 0.501877 0.096586 -0.283521 -0.227343 -0.448112 -0.296423 0.012213 0.354683 -0.580305 0.238959 0.276949 -0.148920 -0.801150 -0.002409 0.144350 0.616618 0.323059 -0.183990 -0.080057 1.105334 -0.039626 -0.205217 -0.322532 -0.130285 -0.283499 0.403963 0.356159 -0.260814 0.652152 -0.095862 1.113418 -0.141455 -0.843368 -0.070582 0.034300 -0.220146 -0.411343
130 -0.542274 -0.309102 0.023448 -0.306216 -0.265005 0.006700 -0.635021 -0.778245 0.333184 0.451112 0.111499 -0.142919 -0.225825 0.166529 0.041179 -0.185044 -0.428976 0.252265 0.032438 -0.712723 -0.044974 0.076701 -0.308275 0.125243 -0.018258 -0.312985 -0.188366 0.365545 0.692332 -0.172833 -0.378547 -0.012781 -0.027449 0.069803 -0.085123 -0.670913 -0.162873 0.464022 -0.016454 -0.273691 0.335264 -0.508501 0.252934 0.010150 0.088181 -0.463885 -0.621294 0.250298 -0.069573 -0.109782
91 0.323689 -0.425988 -0.226016 0.434479 -0.361484 0.240406 -0.284331 -0.026667 -0.645919 -0.209313 -0.023279 -0.176519 0.206336 0.069864 0.360922 0.056578 -0.465047 -0.521428 0.170723 -0.189632 -0.125407 -0.344884 -0.111541 -0.356300 -0.132035 -0.180737 -0.062474 -0.752584 0.320661 0.059674 -0.290187 -0.397165 -0.388634 0.713527 -0.470948 0.482837 0.056383 -0.473906 -0.315472 -0.131588 -0.736652 -0.336456 0.176814 0.546423 0.329341 0.403615 0.890702 0.087969 -0.596619 -0.297716
27 -0.310928 -0.073353 -0.011085 0.118824 -0.742701 0.861791 0.114779 0.000380 -0.188664 -0.056098 0.634707 -0.074575 0.312600 -0.315810 -0.590821 0.090824 -0.130031 0.091537 0.010234 -0.244687 -0.304813 0.018474 0.660981 -0.291412 0.100573 0.047053 -0.151954 -0.469945 0.455503 0.464653 -0.478343 -0.617797 0.219629 0.615258 -0.102749 -0.574788 0.118649 -0.591876 -0.345493 -0.286475 -0.380602 -0.070288 0.848390 0.383771 0.224708 -0.046448 0.637106 0.444162 -0.479949 -0.742698
251 -0.213068 -0.401267 0.083132 0.488405 0.533328 0.537831 -0.505683 0.250897 0.112901 -0.272487 0.105188 -0.326301 0.477620 0.457527 0.023047 0.219020 -0.522136 0.368961 -0.239844 -0.130481 0.528216 -0.525826 0.204647 -0.119730 0.317631 -0.662179 0.305999 -0.631887 0.276242 -0.609264 0.566964 0.231645 -0.162589 0.774420 -0.132409 0.219937 -0.215270 -0.062106 0.141588 -0.155590 0.263493 -0.215175 0.598708 0.077572 -0.158161 0.311849 -0.283060 -0.142788 0.174313 -1.139232
192 0.005417 -0.166272 0.916106 0.322515 -0.328115 -0.030273 -0.687846 -0.522226 -0.050799 -0.317983 -0.418484 0.675220 0.678666 -0.014330 -0.458759 0.213546 -1.109762 0.516443 -0.098121 0.107456 0.189911 -0.393403 0.493960 -0.580046 -0.288668 0.370142 -0.130069 -0.110307 0.098659 -0.108959 0.237017 -0.462291 0.109042 0.143103 -0.640245 -0.225821 -0.588025 0.843647 -0.139113 -0.107557 0.547765 0.203862 -0.331378 0.566597 -0.072248 0.195928 -0.205429 -0.162613 -0.176890 0.231726
127 -1.004239 -0.654738 -0.562558 0.384139 -0.125878 0.155910 -0.301546 -0.117753 -0.337895 -0.503200 -0.135834 0.401615 0.193712 0.551401 -0.354351 0.732298 -0.190158 -0.087149 -0.348787 0.051466 0.153755 -0.724332 0.018541 0.084408 0.256821 -0.028022 -0.594544 -0.132322 0.150878 -0.227479 0.290377 0.046191 0.200885 0.242298 0.317382 -0.311639 0.362698 -0.186925 0.577672 -0.780923 0.372110 -0.573078 0.445125 -0.160090 -0.106994 -0.226987 0.202466 -0.209864 0.209913 -0.207874
184 -0.275304 0.520767 -0.055962 -0.379284 -0.041711 0.045948 -0.492985 0.180390 0.375911 -0.378487 0.093309 -0.360831 0.382707 0.408497 0.116797 0.292963 -0.542424 0.001722 0.363699 0.172956 -0.269687 0.027660 0.374263 -0.121537 -0.542318 0.117878 0.742886 0.096631 0.287216 -0.090559 -0.107296 0.014155 -0.130485 0.012098 -0.028957 -0.843956 0.087281 0.697960 0.065439 -0.902068 -0.583895 -0.082885 -0.710649 0.364552 -0.188695 -0.189734 0.130977 0.255590 -0.842466 -0.234746
2 -0.236504 -0.201595 0.072422 0.158321 -0.373427 -0.470367 -0.801277 -0.256094 0.287676 0.427878 0.090530 0.026348 -0.094667 0.024250 -0.109187 -0.218650 -0.854426 -0.141361 0.130362 -0.785600 -0.056122 0.001602 0.121742 -0.238870 0.516255 0.096267 -0.042593 0.579682 -0.012816 -0.339047 -0.284021 -0.121340 0.077920 0.492382 -0.346009 -1.232790 -0.357038 0.636949 0.049547 0.138810 0.516127 0.061542 0.008579 -0.277088 0.289398 -0.053397 -0.499167 0.016446 0.470853 -0.392010
81 0.001948 -0.673944 -1.022567 0.349260 0.127211 -0.197146 0.109427 -0.284770 -0.237519 0.322512 -0.410284 -0.062942 -0.263664 0.297538 -0.216361 -0.232009 -0.435141 0.001987 0.853495 0.274209 -0.303281 -0.497812 -0.135084 -0.468124 0.272923 -0.244774 0.483939 -0.624185 0.413014 0.325554 -0.060652 0.312850 -0.100974 -0.400553 -0.128408 -0.715252 0.230046 -0.322991 0.125251 0.088574 -0.262622 -0.601938 0.008755 -0.454998 0.121486 0.098666 0.728842 -0.071670 0.326367 -0.099758
69 0.078791 -0.456224 -0.664653 0.395474 0.495161 -0.087345 0.331202 -0.278010 -0.074987 0.111443 0.007596 0.021669 0.320873 0.135371 -0.475546 -0.162090 -0.368959 0.595295 -0.017728 0.178081 -0.091562 -0.724180 0.532516 -0.206069 -0.614752 0.470563 0.787623 -0.186216 0.103156 -0.298175 -0.160880 -0.387639 -0.218015 -0.072207 -0.407167 -0.481415 -0.189219 -0.730819 0.160988 0.129526 -0.361766 -0.580158 -0.025687 0.074788 -0.221651 0.195885 0.812672 0.159957 -0.034183 -0.031002
110 0.089720 0.048215 0.191324 0.674452 -0.183110 -0.366901 -0.468736 0.070412 0.405530 -0.229860 0.476655 -0.547734 -0.272477 0.428502 -0.139632 0.044263 -0.391858 0.080245 0.032917 -0.553436 0.383878 -0.403341 -0.146503 -0.007521 0.396797 -0.166033 0.286969 -0.432263 0.069265 0.750137 -0.471379 0.099494 -0.221383 0.057654 0.242274 -0.427732 0.065167 0.159552 0.317421 -0.235178 -0.590533 -0.251520 0.279374 0.250882 -0.879698 0.209639 0.370008 -0.095097 -1.590084 -0.542300
10 -0.018404 0.389987 -0.177085 -0.030693 -0.118280 0.077413 -0.404644 -0.515951 -0.289294 0.494126 -0.391980 -0.238156 0.010058 0.031107 -0.019357 -0.395591 -0.211632 -0.465837 0.193165 -0.035637 -0.144666 -0.432364 0.282890 -0.655845 0.493945 -0.166558 -0.279978 0.484383 0.096204 -0.905298 -0.253364 -0.000424 0.347778 0.383725 -0.503203 -0.659655 -0.811759 0.859933 0.181530 0.389755 0.170334 -0.214768 0.664111 0.184571 0.382896 -0.335199 -0.157074 0.850887 -0.140823 -0.250529
22 -0.504553 -0.196004 -0.214726 0.273241 -0.529724 0.219420 -0.363157 0.057296 0.283591 0.040191 0.108957 0.099722 0.614183 0.294281 0.083705 -0.294593 -0.487860 0.085034 0.490258 -0.845296 0.303401 0.031093 -0.015672 0.488363 -0.508209 0.093381 0.302877 -0.506744 -0.066759 0.451675 0.188932 -0.381904 -0.019558 0.201203 -0.194382 -0.721656 -0.527838 -0.729579 -0.374739 0.229358 -0.030142 -0.594747 0.113125 -0.031065 0.288906 -0.348134 0.532167 -0.002305 0.047239 -0.047856
160 -0.056318 -0.591509 -0.165668 -0.082616 -0.371187 -0.020916 -0.478554 -0.279532 0.326252 0.262962 0.492854 0.298221 0.639827 0.202543 0.095595 0.182821 -0.159414 0.497943 0.447339 0.391088 -0.742538 0.547192 0.756483 0.394996 0.142470 -0.599556 0.156800 0.026705 0.593469 -0.601355 -0.764909 0.049018 -0.152358 -0.012324 0.351849 -0.130231 -0.447733 0.497122 -0.117861 0.270412 -0.464438 -0.283844 -0.602696 0.014688 -0.337199 -0.694461 -0.396519 -0.250911 -0.521440 -0.773853
216 -0.577705 -0.283495 0.661513 -0.214419 0.183250 -0.704180 -0.063136 -0.790747 0.336648 -0.439493 -0.301199 0.191309 -0.182908 0.239538 -0.546065 0.267136 0.543174 0.150980 0.026979 -0.033500 -0.212429 -0.193176 0.003859 0.261046 -0.003267 -0.324171 0.566498 -0.118660 0.522878 0.036502 0.479959 0.153272 -0.338205 0.421550 -0.024169 -0.721089 -0.288247 0.485012 -0.288726 0.070686 -0.437044 -0.645065 0.080266 0.884227 0.290314 0.155596 0.195750 0.011392 -0.155019 0.096671
33 0.364703 -0.019374 -0.295695 -0.155231 0.274446 0.049617 0.372221 -0.507031 0.076175 -0.018669 -0.004510 0.383977 0.060852 0.473919 -0.022732 0.372850 -0.539420 0.101487 -0.187348 -0.212438 -0.734342 -0.258894 -0.009016 -0.178658 -0.754708 -0.122831 0.355844 0.242921 -0.010752 -0.000995 0.037797 -0.605785 0.060080 0.245035 0.016751 -0.144056 -0.219580 0.748732 -0.639972 -0.556032 0.025261 -0.132941 0.107661 -0.224136 0.827504 -0.668460 0.648626 0.451965 0.075472 -0.480318
32 0.129657 -0.381440 -0.026911 -0.124276 -0.094442 -0.107926 -0.681645 -0.657620 0.280744 -0.233087 0.187901 0.489700 0.324366 -0.215674 -0.269605 -0.040543 -0.463136 0.133117 -0.441927 -0.245352 -0.301585 -0.040177 0.764681 0.082277 -0.221690 0.249445 0.134198 0.347238 0.408607 -0.875393 -0.573289 -0.092580 -0.341708 -0.219737 0.106329 0.016066 -0.245449 1.060493 -0.262842 -0.199417 -0.182562 -0.460871 0.065363 0.244681 0.467721 -0.873337 0.322113 -0.175451 -0.076436 -0.231322
95 -0.312559 -0.690039 -0.436426 0.216974 0.046396 0.553107 -0.093928 0.065061 -0.353206 -0.032490 -0.276565 0.610292 -0.700102 -0.069441 0.132192 0.260332 -0.483754 -0.126698 0.182304 0.230711 -0.095650 -1.231332 -0.276263 -0.119959 0.228252 0.071781 -0.461872 -0.234448 -0.069788 0.000892 0.392046 0.077960 0.215412 0.621052 0.218655 -0.050811 -0.231916 -0.122004 0.758274 -0.767574 -0.464804 -0.631897 0.417325 0.405330 -0.221973 -0.177862 0.313700 -0.299439 -0.457934 0.369824
128 -0.058972 -0.653375 0.351777 -0.346462 -0.377709 0.431982 -0.784003 -0.560384 0.319606 -0.102092 -0.163253 -0.002576 0.085651 0.340550 -0.023696 0.028949 -0.502441 0.788139 0.096285 -0.434713 -0.482867 0.116413 -0.159253 -0.204197 -0.302710 -0.155744 -0.061769 -0.456475 0.669378 -0.661360 -0.322251 -0.282668 0.223949 -0.039793 0.098075 -0.165434 -0.195163 0.581834 -0.347725 0.099313 -0.006854 -0.138176 -0.007275 0.056238 -0.266833 -0.801322 -0.420531 0.160731 -0.681912 0.464748
11 0.315871 -0.384089 -0.355084 -0.328845 -0.188200 0.309873 -0.435653 0.080921 -0.291511 0.304750 0.048349 -0.258406 -0.762702 0.153131 -0.336776 -0.371332 -0.798078 -0.421176 -0.349256 -0.252064 0.142958 -0.467244 0.401831 -0.247347 0.181549 -0.191640 -0.314981 -0.182268 0.692713 -0.352593 -0.708253 -0.454912 -0.129596 0.305225 -0.913349 -0.381500 -0.376762 0.523615 -0.163552 -0.037848 -0.444720 0.017517 0.686139 0.305753 0.530910 0.192543 -0.817148 0.142854 0.358631 -0.451250
26 -0.103842 0.049889 0.223276 0.283890 -0.693213 0.248871 -0.165199 -0.286919 -0.529250 0.604078 0.341971 0.019353 0.712421 -0.155682 -0.185071 -0.260961 -0.296260 -0.336907 0.089684 -0.096202 -0.302940 -0.079872 0.361974 -0.091793 -0.260443 0.407327 0.192617 0.139067 0.334260 0.547289 -0.076814 0.135084 0.794403 0.389402 0.699498 -0.925888 -0.564161 -0.408165 -0.111603 0.424341 -0.394135 -0.152452 0.747175 -0.279097 0.213337 0.016093 0.199651 0.276256 -0.581978 -0.433322
235 -0.738252 -0.617368 0.148120 0.521294 0.054809 0.128556 -0.489489 0.441727 0.256744 0.568111 -0.051118 -0.392815 0.406694 0.309401 0.252270 -0.252345 -0.333992 -0.444955 -0.155648 0.292630 -0.342475 -0.168675 0.332911 -0.317755 0.086505 -0.387924 0.096152 0.260735 0.532892 0.323055 0.072419 0.060672 0.053925 -0.196655 -0.029481 -0.065924 0.126089 0.013298 0.161088 -0.647450 -0.010185 0.155170 0.108316 -0.104032 -0.021264 0.526084 -0.206438 0.539578 -0.078470 -0.888060
247 -0.727464 -1.022149 0.008094 -0.122305 0.267944 0.421993 -0.198257 0.627303 -0.511031 -0.333788 -0.250615 0.162418 0.140558 0.763479 -0.330821 -0.090493 -0.160426 -0.073805 -0.257716 -0.298226 0.074054 -0.184893 0.789013 -0.133960 -0.194880 -0.296948 0.467317 0.027864 -0.137359 -0.302069 -0.259052 0.277542 0.350014 0.032107 0.011875 0.147599 -0.351194 0.164126 0.219993 -0.124185 0.419622 -0.212469 0.029368 1.052238 -0.153259 0.470622 -0.139883 0.046708 0.150479 0.399970
209 0.027517 -0.610028 -0.272110 -0.243773 -0.032559 -0.209114 0.178185 -0.482876 0.146023 -0.333503 0.251053 0.326606 0.111403 0.350865 -0.269276 -0.614454 -0.232067 0.630238 0.627228 0.251761 0.110807 -0.675224 -0.085114 -1.053574 0.528654 -0.213541 0.896418 -0.115477 0.301440 0.059237 0.534572 -0.006604 0.819275 -0.186788 -0.537409 -0.703763 0.305461 -0.325918 -0.116705 0.031521 0.169447 -0.449091 -0.071742 0.473209 0.203493 0.966163 0.473031 0.372433 0.364604 -0.099413
232 -0.149158 -0.814209 -0.326014 0.179141 0.007445 -0.145007 0.078547 -0.182123 0.445502 0.450819 0.218847 -0.335852 0.868404 -0.066270 0.074561 0.335100 -0.299937 0.378381 0.663415 0.598606 0.026644 0.414144 -0.117970 -0.118688 -0.039399 -0.105490 0.313206 0.792970 0.781244 0.087819 0.096539 0.184759 0.479618 -0.335375 -0.192291 -0.039183 -0.679937 0.572732 0.219419 -1.065748 -0.407386 -0.167284 -0.113382 0.072778 0.087995 0.191044 -0.186661 0.322790 -0.682027 -0.445199
238 -0.763733 0.052611 -0.193112 0.615405 0.263254 0.319630 -0.296622 0.374771 0.529571 -0.310256 -0.158002 -1.160915 0.018856 0.336585 0.033850 -0.078396 -0.566359 -0.228567 0.352104 -0.042243 -0.039211 -0.232318 0.200919 -0.302657 0.228130 -0.504332 0.562303 -0.380171 0.150284 0.039420 0.317404 -0.205028 0.117988 0.379315 -0.206295 -0.299790 -0.318431 0.436455 -0.105864 -0.487268 -0.229912 0.234452 0.209267 -0.332610 -0.104517 0.390640 -0.328185 -0.092964 -0.872935 -0.134242
98 0.781895 -0.320905 -0.129756 -0.062333 -0.539555 0.520449 -0.398742 -0.263175 0.074266 0.057822 0.676026 -0.143379 -0.344347 0.231112 0.173614 -0.455765 -0.469548 -0.201102 0.247020 -0.532016 -0.035032 -0.312035 0.053580 0.226272 -0.461381 -0.055067 0.170607 0.558933 0.206141 0.205985 0.093795 0.272584 -0.191078 0.288271 0.060454 -0.794264 -0.301807 0.277293 0.141638 0.107251 -0.063070 -1.298035 0.186481 0.629915 -0.222088 0.575748 -0.059685 0.126924 -0.541389 0.309480
46 -0.103285 0.340944 -0.052283 -0.007803 0.424427 0.130708 -0.152626 0.141050 -0.285430 0.120501 -0.158749 -0.513011 0.031128 0.186371 0.089614 -0.359323 -0.881239 0.159312 -0.073604 -0.619039 -0.358056 -0.262082 0.343176 0.158205 0.032872 -0.277681 0.600162 0.375991 0.019831 0.075020 -0.391300 -0.214826 -0.371411 -0.186642 -0.564345 -0.313899 0.170259 0.352729 0.222568 -0.264394 -0.085936 0.263325 0.955994 -0.063940 0.483202 -0.060377 0.221815 -0.163720 -1.292101 -0.291141
234 -0.430632 -0.420399 -0.467386 0.746009 0.048674 -0.124353 -0.455108 -0.204989 0.247972 0.580002 0.137642 -0.325311 0.458013 0.317574 0.773037 0.094945 -0.312576 -0.692152 0.407340 0.114644 -0.020277 0.174262 0.177821 -0.392850 0.088245 -0.302904 0.292214 0.830893 0.600457 -0.020807 0.315283 0.334276 0.447075 -0.066448 0.381357 0.377049 -0.359849 0.378899 0.172445 -1.047719 0.065940 0.067778 0.212796 -0.383373 -0.129765 0.089701 -0.129468 0.352036 -0.227210 -0.543633
125 -0.673380 -0.732786 -0.049171 0.276463 0.040417 -0.097441 0.323865 -0.233225 -0.587044 -0.474930 0.054905 0.724117 -0.263930 0.872026 -0.480280 0.140319 0.111805 -0.254395 0.270654 -0.162539 -0.132940 -0.628526 0.076246 -0.214574 0.046641 -0.037257 -0.128447 0.315577 0.090082 -0.325118 0.186863 -0.203449 0.011157 0.039681 0.349017 -0.167823 0.298620 -0.383581 -0.180176 -0.496383 0.001658 -0.874502 -0.087257 0.052860 -0.224904 -0.186970 -0.071742 -0.202919 0.557282 -0.424521
239 -1.181835 -0.552680 0.064575 0.902801 0.127555 0.907412 -0.302323 -0.002186 0.624139 -0.457448 -0.523802 -0.404593 -0.160725 0.296414 -0.151872 0.082324 -0.081862 -0.235861 -0.000148 0.016363 0.270599 -0.471296 0.327867 -0.200276 -0.020861 -0.436415 0.202023 -0.010831 0.705596 -0.245960 -0.116251 -0.053948 0.921035 0.253972 -0.264320 -0.003600 0.137274 0.558043 -0.064344 -0.185101 -0.421718 0.311154 -0.095947 0.299662 0.010182 0.196598 0.093316 -0.401109 -0.003457 -0.148362
23 -0.703303 -0.443401 -0.528998 -0.009761 0.066828 0.238325 -0.011996 1.211893 -0.230066 0.087285 0.358025 0.384688 -0.031118 -0.008971 -0.414800 -0.190527 -0.470783 0.337207 0.121697 -0.264152 -0.262329 -0.612278 0.076226 -0.041305 -0.007004 0.109743 -0.156968 -0.324872 0.144665 0.284471 -0.067502 0.392502 -0.256671 0.273776 0.194158 -0.576989 -0.852464 -0.012220 -0.066675 -0.273234 0.096930 -0.259560 -0.501428 0.252633 0.394064 -0.384281 1.130642 -0.012436 0.118676 -0.184234
132 0.359677 -0.396169 -0.532213 -0.390101 -0.015822 0.228811 -1.036745 -0.160270 -0.327623 0.245539 0.175051 -0.378269 -0.197345 0.166867 -0.677293 0.725554 -0.723376 0.539659 0.353105 0.196379 -0.591608 0.011755 0.711935 0.230245 -0.561705 -0.744877 0.223308 -0.025915 0.160147 0.427397 0.592865 -0.231546 0.583064 -0.202865 0.346025 -0.145069 0.226390 0.290921 -0.177007 0.299327 0.162021 0.126041 -0.057504 -0.106999 0.396394 -0.415926 0.307271 0.128261 -0.523343 -0.015827
135 0.223999 -0.997362 -0.095617 -0.271813 0.679041 0.343689 -0.483477 0.296224 0.104836 0.099469 0.313482 0.108448 0.068955 -0.149630 0.151695 0.055692 -0.413733 -0.379334 0.144842 0.012685 -0.616251 -0.004808 0.326461 -0.257920 -0.103743 -0.894292 0.008152 -0.395390 0.137196 0.759067 -0.193449 0.274118 0.243197 0.293054 0.554461 -0.364087 0.042018 0.227447 -0.269651 -0.421851 0.781863 -0.389826 0.085008 0.319521 0.577118 -0.532976 0.480193 0.148153 -0.032351 0.505519
254 -0.286435 -0.125416 -0.443443 0.298984 -0.276874 0.149304 -0.116007 0.008957 -0.278955 -0.624902 -0.206386 -0.476015 0.362601 0.395930 0.323545 0.390226 -0.674545 0.049133 0.061799 -0.005250 -0.028153 -0.757256 0.256168 0.735106 -0.098974 -1.021941 -0.025213 0.007168 -0.528831 -0.631576 0.074462 0.212432 0.004860 0.315326 -0.314101 -0.234275 -0.408369 0.272097 0.037243 -0.713631 0.181982 -0.048504 0.522619 0.195653 -0.579734 0.495136 -0.097555 0.312535 0.029977 -0.295314
245 -0.375615 -0.667823 -0.306109 0.371149 0.525572 -0.342285 -0.895479 0.206651 -0.647627 0.167460 -0.335456 0.664849 0.216687 0.237717 -0.416762 -0.169381 0.101319 0.015243 0.641692 -0.609680 0.022253 -0.297975 0.452069 0.020228 -0.420520 -0.222635 0.805351 -0.178718 0.479702 -0.204569 -0.147888 0.347194 0.253657 -0.215867 -0.191608 0.483607 -0.210296 -0.501753 -0.143871 -0.657083 0.047967 -0.146252 -0.053108 0.515109 -0.221411 0.676604 -0.127092 -0.141938 0.382340 0.279903
212 0.143321 -0.957235 -0.085886 0.399150 -0.234781 -0.607178 0.620995 -0.257589 -0.658493 -0.037515 -0.715735 -0.038233 -0.711858 0.081213 -0.521781 -0.194827 -0.477357 -0.022326 0.690983 -0.196067 0.029150 0.108297 0.384976 0.072973 0.088658 -0.061105 0.856078 -0.331506 0.336070 -0.323469 0.185618 0.023968 0.221272 -0.388073 0.261536 0.003288 0.242496 -0.279704 0.233576 -0.200980 0.503348 -0.156830 -0.056073 0.592136 0.137727 0.180236 -0.273329 0.756768 -0.787817 -0.220304
1 0.339738 -0.704929 -0.299364 0.074650 -0.240996 -0.477313 -0.677285 0.153265 0.203108 -0.099194 -0.343426 0.726594 0.231305 0.521821 -0.267254 -0.313168 -0.450156 0.306151 -0.066813 -0.452810 -0.636021 -0.159742 0.195794 -1.053854 0.452125 0.110516 0.003260 -0.852814 -0.045125 -0.040449 0.201863 -0.805562 0.064782 0.004912 -0.238756 -0.309205 -0.241096 0.938268 -0.296029 -0.071567 -0.431590 0.062174 -0.221738 -0.182461 -0.356812 -0.480879 0.105043 0.777005 0.496631 -0.353072
63 -0.563283 -0.694394 -0.108258 0.627988 0.009426 0.675306 -0.568701 0.343953 -0.277837 -0.262760 -0.184930 0.051033 0.720096 -0.132150 -0.849896 -0.083360 -0.692594 -0.368717 -0.416576 -0.071386 -0.288514 -0.751501 0.210955 0.235750 0.013437 0.591849 0.044326 -0.179841 -0.159688 -0.637852 0.152351 0.832244 0.734226 0.846400 -0.306579 -0.424800 0.265696 0.274953 -0.448983 -0.331605 -0.310880 0.034444 0.931576 -0.005399 -0.010874 -0.347117 -0.396685 0.091778 -0.016151 0.290171
24 -0.398085 -0.014671 0.206093 0.117135 -0.244865 0.133975 0.112189 -0.106956 0.396801 -0.037640 0.031738 0.328774 -0.039711 -0.332362 -0.700753 0.046341 -0.103540 0.172095 0.010638 -0.076386 -0.634378 0.125529 0.490696 0.353627 -0.115327 0.330458 -0.114078 -0.035265 0.667064 0.052221 0.259206 -0.255061 0.682524 0.064856 0.058203 -1.209918 -0.268058 0.206675 -0.085936 0.172235 -0.507715 -1.048324 0.331268 0.209426 0.526719 -0.005077 0.344241 0.011174 -0.179221 -0.196492
84 0.202737 -0.589202 -0.261386 0.445222 -0.226488 -0.169430 -0.016016 -0.730299 -0.612505 0.303702 -0.656853 -0.337777 -0.953105 0.106406 -0.620125 0.159554 -0.802379 0.275043 0.820561 -0.334594 0.672104 -0.325206 0.006427 -0.136932 0.140447 0.103522 0.676811 -0.332290 0.227680 -0.469090 0.071060 0.036098 -0.297335 -0.120256 0.385902 0.030973 -0.165725 -0.152653 -0.004951 -0.058965 0.068799 -0.522536 -0.517348 0.006852 0.339667 -0.450783 0.204891 0.408975 -0.194722 0.336464
180 -0.063809 0.209492 0.523370 -0.064533 -0.325265 0.048843 0.163446 -0.836910 -0.162599 -0.379256 0.283636 -0.398157 -0.442394 0.516506 -0.224904 -0.091093 -0.438859 0.103949 0.466614 -0.035798 -0.733377 -0.816741 0.672546 -0.090335 0.408349 -0.192065 0.682888 -1.033080 0.463956 -0.008295 0.064615 0.472666 0.129347 -0.136371 0.037755 -0.369845 0.239728 -0.421646 -0.065144 0.009572 0.265078 0.160164 -0.426986 0.212256 0.267405 -0.535638 -0.136222 -0.136976 -0.341368 -0.177190
189 -0.511522 0.081478 0.184277 0.491916 0.132572 -0.035134 0.696648 -0.106415 -0.247828 -0.372002 -0.287263 0.034494 0.161054 0.939976 -0.281721 -0.738593 -0.197900 0.108507 0.267161 -0.645396 -0.357148 -0.816672 -0.196934 -0.538875 -0.453775 -0.295305 0.426543 0.236750 0.609320 0.065539 -0.681161 0.256593 0.147959 -0.068048 0.154924 -0.089230 0.066586 -0.053184 -0.049832 -0.009264 -0.223390 0.144608 -0.219115 0.840867 0.058741 -0.174462 -0.569416 -0.180904 0.462629 -0.641859
118 -0.928607 -0.436358 0.179653 -0.418568 -0.071343 -0.495880 0.202704 -0.280128 -0.050686 -0.264386 0.084775 0.439818 0.462276 0.548154 0.298657 -0.067682 -0.667308 -0.046108 0.324943 -0.364325 0.239642 0.081621 0.232509 -0.682692 0.062913 -0.658542 -0.162754 -0.085965 -0.147180 0.168082 0.150206 -0.034568 -0.112091 0.197828 0.045636 0.023482 0.006238 -0.547073 0.006095 0.135883 -0.912765 -0.937450 0.431771 0.020165 0.053476 0.293105 0.184659 0.209157 -0.605974 -0.158222
3 -0.112856 -0.922029 0.264571 0.657518 0.028163 -0.003611 -0.985999 0.480839 0.202947 -0.431931 -0.619703 -0.323175 -0.268681 -0.106849 -0.188119 0.088657 -0.870899 0.363248 -0.019054 -0.179429 -0.777958 -0.043690 -0.045977 -0.452802 0.707115 0.317050 -0.506285 0.179049 0.242816 -0.726157 -0.702003 0.141200 0.083847 0.110681 -0.497912 -0.224132 0.086564 0.689664 -0.819441 0.187262 0.118860 -0.292341 0.031711 -0.229532 0.243739 0.059754 0.148352 -0.052343 0.027442 -0.518086
225 -0.030298 -0.266622 -0.103364 0.046514 -0.093498 -0.167209 0.479880 -0.251318 0.029539 -0.204781 -0.451413 -0.507951 0.081666 0.412681 -0.386309 -0.339354 -0.352049 0.388586 0.137403 0.288766 -0.671993 0.109061 -0.490206 -0.572194 -0.883788 -0.841642 0.587496 -0.037729 0.201983 0.376859 0.627860 -0.356526 0.409520 0.610064 -0.115919 -0.417307 0.103291 0.587953 -0.009411 -0.960060 -0.143372 -0.009111 -0.082834 -0.263456 0.194039 -0.107777 0.487378 0.116818 -0.083471 -0.553624
154 0.162361 -0.034993 -0.227504 0.246327 -0.482680 -0.153333 -0.975614 -0.495498 -0.127024 1.115127 0.064888 -0.314199 0.558576 0.348386 0.497863 0.365699 -0.620933 -0.501917 0.029200 0.216631 -0.272947 -0.243692 -0.391036 -0.433777 0.156099 -0.377070 0.911146 0.430594 -0.771212 0.522346 0.276481 -0.185403 0.083216 0.234725 0.771474 -0.485535 -0.505268 -0.110228 -0.032074 0.154021 -0.399427 -0.551246 0.399592 0.491717 0.107251 -0.198027 -0.292036 -0.232771 -0.487062 -0.253873
172 -0.206964 -0.333396 0.339848 0.119837 -0.730316 -0.099446 -0.281969 0.667072 -0.111771 0.210146 0.161282 0.338607 0.362191 -0.015908 -0.039002 0.311194 -0.690225 -0.596347 -0.363743 0.459682 0.022406 -0.371891 -0.191409 0.447725 -0.163014 -0.667119 0.950402 0.074628 0.864217 0.101019 0.318006 -0.485395 -0.107169 -0.185707 0.302095 0.026514 -0.433128 0.264770 0.125581 0.453899 0.432565 0.017304 -0.153455 0.442037 -0.026039 -0.542604 -0.655814 0.964900 -0.464826 -0.406867
17 -0.019138 -0.796708 -0.314643 0.097322 0.124083 0.233051 -0.020386 0.198903 0.232207 0.201111 -0.044660 -0.209945 0.237063 0.290840 -0.796827 -0.063368 -0.394112 0.688124 0.689524 0.203393 -0.632491 -0.687230 0.037364 -0.093266 -0.145064 0.020473 0.168531 -0.497553 -0.323475 0.435338 0.087842 -0.721038 0.162327 -0.507550 0.132078 -0.912193 -0.064659 0.098698 -0.028054 0.427795 0.163080 -0.410267 0.145729 -0.134063 0.193278 0.157337 0.570455 0.348218 0.136931 -0.255334
31 -0.465823 -0.798024 0.427175 0.238462 0.535515 0.338094 -0.019664 0.028138 -0.533401 -0.703124 0.371949 0.182352 -0.153277 -0.011064 -0.211750 -0.214898 -0.778901 -0.020564 -0.122595 -0.179304 -0.466443 -0.868211 0.199911 0.429244 -0.019682 -0.014587 -0.651230 -0.295325 0.270202 0.003498 0.015049 0.018721 0.493265 -0.132018 0.837357 -0.172133 -0.792316 0.129241 0.526412 -0.367262 -0.404415 -0.078937 0.940271 -0.419455 0.049458 0.122506 0.462299 0.222399 0.278391 0.095206
129 0.178302 -0.794810 -0.240152 -0.512783 -0.128608 -0.010053 -0.368111 -0.267281 0.270577 0.390288 -0.212979 0.409735 0.078489 0.712717 -0.263425 -0.111629 -0.106429 0.481263 -0.163332 -0.463142 -0.802240 -0.190544 -0.284702 -0.291336 -0.132633 -0.181419 0.057052 -0.794357 0.680303 0.143692 -0.024712 -0.361132 0.274165 -0.452502 0.415027 -0.061796 -0.269642 0.615677 -0.333218 -0.563481 -0.344682 -0.235172 0.084643 -0.149561 -0.378309 -0.799762 -0.068890 0.811913 -0.023306 0.065793
240 -0.091712 -0.295424 0.199394 0.747031 -0.420967 0.381936 -0.388857 -0.244059 -0.120982 -0.105405 -0.325611 0.990482 0.229406 0.753742 0.331989 -0.122663 -0.622911 0.863694 0.759125 0.468414 0.046826 0.205864 0.886833 0.022575 -0.224239 0.170943 -0.140700 -0.253776 0.584303 -0.356509 -0.173620 0.231539 -0.120090 0.928334 0.168574 -0.267473 0.107534 1.133951 0.207320 -0.179503 0.541984 0.095225 0.591337 0.328562 -0.398085 0.234734 -0.350112 0.051180 0.348479 -0.087227
177 -0.103202 0.243671 0.017459 0.544228 0.352973 0.561508 -0.146481 -0.031126 0.409385 0.112260 0.282073 0.650206 0.392766 0.225403 0.277570 0.930636 -0.655641 -0.336727 0.448774 0.219413 -0.320266 -1.046079 0.421618 -0.185425 -0.105373 -0.013655 0.902631 -0.302205 0.651420 0.473754 0.120607 0.061911 -0.356846 -0.967375 -0.314918 -0.259805 -0.322015 0.074481 -0.318758 0.060340 -0.215315 -0.054454 0.031292 -0.271755 0.288609 -0.028982 -0.151509 0.205301 0.157978 -0.109077
178 -0.465976 0.453752 0.537928 0.030329 -0.320799 0.044381 -0.543381 -0.582685 0.687320 0.411644 0.937096 0.107750 0.358009 0.299888 -0.209027 0.511410 -0.583781 -0.368101 0.048716 0.129988 -0.134269 -0.788472 -0.158329 -0.128028 0.036572 -0.345472 0.315567 0.257686 0.850311 0.193584 -0.277691 0.248834 -0.426984 0.200557 -0.590033 0.097577 -0.626405 0.288714 0.007451 -0.303429 0.011718 0.205134 0.072248 0.007638 0.087471 -0.295038 0.121161 -0.164742 -0.188787 0.024256
20 0.079399 -0.593928 -0.202885 0.355639 -0.198808 0.423347 -0.015079 -0.080897 0.053501 0.128431 -0.082558 0.056687 -0.477948 0.067933 -0.643377 -0.153177 -1.152042 0.396800 0.707124 -0.408162 0.162125 -0.365711 0.116352 0.426793 -0.269248 0.116755 0.059303 -0.492919 0.330717 -0.018991 0.273592 0.201005 -0.282321 -0.406904 0.106258 -0.148551 -0.573627 -0.336932 -0.483112 0.233847 0.421641 0.100807 0.062091 0.255004 0.439127 -0.465328 0.743463 0.543366 -0.044148 0.006151
47 -0.558966 -0.590412 -0.100936 0.354542 0.635720 1.007830 -0.157293 -0.368677 -0.238996 0.031765 -0.022349 0.146705 0.003164 -0.041423 -0.053275 -0.157556 -0.600096 0.032023 -0.210081 -0.604273 0.012454 -0.595623 0.125653 0.404003 -0.311443 -0.630281 0.284032 0.621404 0.156102 -0.415469 -0.793439 0.131300 0.528299 -0.334533 -0.755079 -0.279674 0.707525 0.366959 0.109983 0.284279 0.084206 0.462022 0.588135 0.561410 0.646089 -0.368484 0.477616 -0.246705 -0.221187 -0.555279
236 -0.838642 -0.391828 0.447789 0.633578 -0.582389 0.496552 -0.356978 0.296279 0.489007 -0.234303 0.218699 -0.309760 -0.010698 -0.176700 -0.023873 0.553843 -0.670173 -0.151490 -0.011184 0.561639 0.456316 -0.324295 -0.260782 -0.382500 0.291954 -0.389933 1.088426 -0.465773 0.871827 -0.530928 0.353294 -0.420923 -0.238640 0.409142 0.000387 0.190335 -0.340689 0.718991 0.113922 0.091070 0.258042 -0.008452 -0.328381 -0.111336 0.360289 0.241735 -0.302679 0.763480 -0.030978 -0.131157
222 -0.757135 -0.500038 0.200393 -0.644797 0.430369 -0.885943 0.200015 0.091354 0.024729 0.067901 -0.167090 -0.372554 0.285714 1.031028 0.295442 0.367588 -0.399361 -0.368377 -0.039500 -0.095368 0.076576 -0.650288 0.544581 0.042000 0.512405 -0.881755 0.076124 -0.026457 -0.104724 -0.287619 -0.254597 -0.276640 -0.066114 0.332732 -0.236883 0.316970 -0.309349 0.295790 0.305853 -0.089323 0.173732 -0.053148 -0.211473 0.207561 -0.255837 0.230843 0.478487 -0.560978 -0.530098 -0.137639
197 -0.186259 -0.622265 -0.121804 1.644052 0.031994 0.324247 0.615853 -0.519879 -0.002776 0.308156 -0.150445 0.457749 0.230178 0.179357 -0.708676 -0.192821 -0.511704 0.345502 -0.235598 -0.170541 -0.373673 -0.406472 0.239604 -0.407265 -0.334960 -0.285270 0.537573 -0.320829 0.120090 0.243116 0.400982 0.145130 -0.384215 0.072530 -0.974612 0.617531 -0.694170 -0.048610 0.367619 0.508477 0.102991 -0.513142 0.097483 -0.374406 -0.002482 -0.050491 0.491214 -0.098208 0.469736 -0.037238
71 0.065477 -1.248016 -0.280512 -0.426555 0.531422 0.282443 0.661068 0.063872 0.060623 -0.187911 -0.059945 -0.046585 0.483809 0.202166 -0.088488 -0.235544 -0.436279 -0.247446 0.004100 0.964429 0.493422 -0.604717 0.560036 -0.718038 0.014373 -0.217009 0.377439 -0.256920 0.003197 0.038192 -0.623704 0.171148 -0.186588 -0.093738 0.496267 -0.879096 -0.401413 -0.291017 -0.145587 -0.172501 -0.209966 -0.503872 0.278965 0.252343 0.163999 -0.506057 0.736093 -0.189731 0.444499 0.099444
203 -0.397035 -0.502972 -0.400915 0.510555 0.013373 0.097335 0.064589 -0.041709 0.043675 -0.094239 0.075322 -0.008447 -0.046550 0.730886 -0.537850 -0.095631 -1.024972 -0.675756 -0.679577 0.037726 0.364704 0.229292 0.728330 0.266378 -0.036285 0.141884 -0.010507 -0.423535 0.040447 0.775632 -0.769165 0.000372 -0.412945 -0.033502 -0.978562 -0.064243 -0.199065 0.406283 0.092463 -0.530862 0.066784 0.013407 0.118239 0.132021 0.247087 0.210894 -0.375115 0.317400 -0.220606 -0.338854
5 -0.332120 -0.345843 0.246134 0.778574 0.602136 0.214555 -0.469225 0.200962 -0.111301 0.480410 -0.364888 0.739015 0.330786 -0.318364 -0.252127 -0.104425 -0.377947 0.507418 0.299703 -0.749351 -0.880201 -0.370353 -0.093514 -0.217275 -0.357754 -0.045014 0.348199 -0.000187 -0.218203 -0.643073 -0.089555 -0.854568 -0.216487 -0.027251 -0.327561 -0.411468 -0.207956 0.081957 0.409159 0.054608 -0.302504 -0.023499 -0.062071 -0.134359 -0.694842 -0.491340 1.039183 1.008382 0.070450 -0.085507
169 -0.076063 0.017434 -0.941506 0.909730 -0.090063 -0.545760 -0.121338 -0.528949 0.266134 0.533088 0.644478 0.028150 -0.333766 0.735993 0.145214 -0.476004 0.166765 -0.131225 -0.457309 0.531708 -0.349143 -0.104386 0.306902 -0.459620 -0.267372 -0.472663 0.329359 -0.123843 -0.033382 -0.200845 -0.037127 0.074351 0.802539 -0.016938 0.348500 0.165441 -1.325210 -0.228278 -0.983381 -0.284112 0.136466 -0.586456 0.014742 0.573189 -0.034232 -0.593904 -0.410309 -0.088280 -0.647242 -0.173036
244 -0.529820 0.031279 -0.139520 -0.236273 -0.186690 0.010035 -0.662934 -0.778227 -0.570853 -0.807800 -0.249658 0.494788 -0.025929 -0.109771 -0.939985 -0.232700 -0.111557 -0.158452 0.953849 -0.044447 -0.291022 -0.626947 0.932040 0.160955 0.364760 -0.426706 0.727375 -0.582367 -0.011671 -0.381848 -0.156059 0.534313 0.463145 -0.348439 0.115966 0.337293 0.025355 0.030556 -0.144138 0.188738 0.593704 -0.484326 -0.203292 0.636950 -0.309303 0.225259 -0.157406 0.076081 0.309975 -0.100761
200 -0.533517 0.212196 -0.004214 0.554489 -0.032284 -0.288983 0.102916 -0.834112 0.309087 0.129598 0.036157 0.475338 0.309114 0.344197 -0.499158 0.295705 -1.077167 -0.343752 -0.090183 -0.090432 -0.693125 0.483159 0.256959 0.714565 -0.096014 0.055883 0.123565 -0.232537 -0.351679 0.492971 -0.014847 0.130587 -0.113940 -0.100159 -0.334199 0.098661 -0.397583 1.473827 0.027401 -0.045065 0.331972 -0.188020 0.282031 0.439344 0.063469 0.069894 0.192316 0.090486 -0.507961 -0.011541
246 -0.944744 -0.367988 0.010204 -0.171156 -0.049250 -0.302487 -0.725720 -0.022976 -0.418879 -0.067677 0.025914 0.379404 0.619130 0.310897 0.109058 -0.001378 -0.125023 -0.132152 0.600185 0.050774 0.309647 -0.160949 0.127702 -0.207087 -0.508661 -0.544250 0.133262 -0.276506 -0.035061 -0.227444 0.109619 0.447116 0.180156 -0.315540 -0.169927 0.500271 -0.018030 0.246132 -0.001629 -0.038269 -0.360800 -0.952543 0.766327 0.790866 0.068230 0.557484 -0.195380 0.289104 0.183347 0.053503
44 -0.242262 -0.635250 0.433321 -0.098908 -0.185432 0.312420 -0.175103 0.144860 -0.474511 0.172022 0.523518 0.205044 -0.000703 -0.312234 -0.042893 0.076517 -0.814005 0.189798 -0.142608 0.129537 -0.037011 -0.468117 -0.244345 0.433402 0.230306 -0.129040 1.089612 0.184080 0.486985 -0.300778 -0.501659 -0.255790 -0.623123 -0.443414 -0.422112 -0.136823 0.021902 0.690365 0.072883 0.197923 0.323118 -0.058795 0.555891 -0.175481 0.732688 -0.292611 0.075818 0.388009 -0.491975 -0.436612
224 -0.444846 -0.849845 0.380956 -0.116969 -0.282776 -0.289174 -0.491099 -0.842559 -0.004326 -0.040708 -0.242775 -0.168954 0.305370 -0.301787 -0.763617 -0.861673 -0.385369 0.487999 0.086905 0.458000 -0.119043 0.611589 0.305298 -0.398066 -0.466135 -0.798392 0.046701 -0.276970 0.346569 -0.596559 0.003645 0.309823 -0.126353 0.671591 -0.063093 -0.138464 -0.304934 1.031209 0.426345 -0.794035 -0.441956 0.043631 -0.573810 0.138971 -0.474766 -0.448521 0.157442 -0.387122 -0.251179 -0.342857
243 -0.538588 -0.452349 0.073267 0.632941 0.230173 0.404794 -0.458848 -0.027362 -0.289074 -0.508611 -0.731724 0.083670 0.372782 0.587794 -0.229377 0.221850 -0.949594 0.562523 0.572184 0.725410 -0.315456 0.133514 0.150204 0.357011 0.439600 -0.005928 0.096054 -0.043929 0.450516 0.362427 -0.381964 0.306054 0.113188 0.585382 -0.382281 0.040967 0.171159 0.395552 0.494531 -0.175310 0.148131 -0.138343 0.657663 0.643246 -0.755496 0.287435 -0.138212 -0.116657 0.774618 -0.035709
176 -0.475973 -0.043318 0.626253 0.579592 -0.377358 0.142922 -0.460473 -0.187526 0.326277 -0.179646 0.443025 0.821708 0.261780 0.096943 0.517417 0.218361 -0.557807 -0.016934 0.504555 0.613374 -0.526074 -0.766243 0.276356 -0.359258 -0.712672 0.246165 -0.036886 -0.349113 0.857545 -0.144660 -0.107067 -0.013994 -0.659082 0.116723 -0.253037 -0.426838 -0.096192 0.902923 0.011042 0.080171 0.265543 0.373781 -0.177904 -0.100703 -0.103507 -0.565891 -0.523720 -0.231808 -0.476513 -0.344400
116 -0.306244 0.010333 -0.253276 -0.153603 -0.225982 -0.358717 0.348160 -0.915486 -0.116944 -1.119343 0.004312 0.555469 -0.486676 0.101808 -0.623015 0.000024 -0.929796 -0.084219 0.445504 -0.425151 -0.432309 -0.318410 0.770503 -0.434871 0.511007 -0.582886 0.219967 -0.154073 0.032155 -0.140806 0.162061 0.256181 0.106062 0.509844 0.230090 0.057042 0.258770 -0.584077 -0.089587 0.118164 0.477193 -0.281927 -0.359337 -0.097454 0.326835 -0.054408 0.250647 0.010022 -0.593266 -0.007233
226 -0.746923 -0.525557 0.198443 -0.501900 -0.210471 0.041780 -0.365549 -0.888942 0.211643 -0.018768 0.391700 -0.781092 -0.130720 0.100893 -0.462015 -0.680597 -0.234287 -0.418401 0.571625 0.459828 -0.378152 0.195868 -0.232469 -0.035238 -0.739443 -0.603191 0.111912 0.169888 0.100006 0.296386 0.341115 0.012503 0.463824 0.756730 -0.223040 -0.104671 -0.347704 0.752932 0.426259 -0.700459 0.133699 -0.312925 -0.182029 0.164044 -0.059596 0.110581 0.130700 0.021272 -0.231981 -0.078906
111 -0.160335 -0.528600 0.015458 0.684297 -0.130198 0.373986 -0.229582 -0.618620 0.169816 -0.404774 0.364929 -0.036111 -0.346927 0.281514 0.286370 0.416961 -0.189557 0.093871 -0.204726 -0.437926 0.533300 -0.408364 -0.148371 -0.077422 0.173374 -0.540269 -0.111087 -0.273123 0.594007 0.534202 -0.627020 0.183513 0.861653 0.306843 -0.010202 -0.501423 0.358222 -0.010533 0.486956 0.129648 -0.392960 -0.189187 -0.128429 0.569674 -0.470200 -0.026311 0.848618 -0.294421 -0.055491 -0.661734
64 0.436705 -0.759804 -0.323445 0.176632 -0.380191 -0.292532 -0.498423 -0.696053 0.510113 -0.458020 -0.739165 0.241389 0.097703 -0.230964 0.032797 -0.251268 -0.354203 0.158510 0.001702 0.104807 -0.629581 -0.375419 0.658728 0.092026 0.432349 0.766687 0.806769 -0.118655 0.526258 -0.858534 -0.143965 -0.621500 -0.046290 0.632353 -0.152466 -0.866899 -1.036224 -0.371776 0.265256 0.003589 0.782273 0.712517 0.179629 -0.144027 0.170234 0.150769 0.223480 -0.718770 -0.395706 0.283449
202 -0.700142 0.256005 -0.305616 0.754638 0.046583 0.339481 -0.081995 -0.879135 0.053688 -0.031909 0.051975 -0.072705 0.442648 0.616044 -0.281495 0.097116 -0.281088 -0.357864 0.211797 0.463028 0.155174 0.378095 0.533947 -0.209561 0.710211 0.161083 0.173492 0.043702 -0.732860 0.264320 -0.357641 0.354975 -0.331810 -0.057717 -0.590017 -0.372510 -0.592626 0.854093 0.329064 -0.009049 0.362532 -0.625703 0.423821 -0.147557 0.154196 -0.378652 -0.206240 0.955479 -0.690534 -0.081550
166 -0.802934 0.360417 -0.141621 0.687490 -0.221806 -0.261261 -0.569682 -0.349007 0.286542 0.372946 0.409770 -0.258584 0.033504 0.671479 0.207852 0.023101 0.334610 0.513227 0.093762 0.274813 -0.605741 -0.037794 0.130123 -0.072157 -0.290103 -0.444585 0.470600 0.741420 0.330118 -0.409765 -0.080068 -0.301886 0.132666 -0.225660 0.571297 -0.000017 -0.967369 -0.601807 0.008593 0.090807 -0.485839 -1.089622 0.693026 0.609969 0.041757 -0.055478 -0.221735 0.090875 -0.712971 -0.145393
241 0.273456 -0.032596 -0.566983 0.772999 0.212789 0.780554 -0.038528 0.134587 0.203427 -0.240734 -0.451218 0.867740 0.493948 0.992044 0.077343 0.574394 -0.689996 0.518810 0.627060 -0.154043 -0.230953 -0.191685 0.659352 -0.149173 0.430304 -0.024465 0.901499 -0.042009 0.306103 0.306178 -0.121614 0.153451 0.512655 -0.264023 -0.157204 0.063907 0.060459 0.390562 -0.141657 -0.140512 -0.059861 -0.186728 0.420813 0.072737 0.003418 0.653178 0.179912 0.081965 0.709630 0.332299
250 -0.256908 -0.128373 0.040455 0.094330 0.343732 0.523264 -0.435312 -0.450834 -0.097935 0.054745 -0.710874 -0.336260 0.391364 0.385655 -0.111355 0.375007 -0.087758 -0.536842 0.325233 -0.137927 0.216460 -0.275711 0.172935 0.417487 -0.183704 -0.600537 0.200330 -0.175656 0.130439 -0.434203 0.322487 0.568824 0.071668 0.144804 0.398919 0.301434 -1.117570 0.078033 0.210834 -0.900411 0.319485 -0.647968 0.456374 -0.362959 -0.235902 0.146991 -0.416421 -0.053953 -0.297154 -1.163835
16 -0.118700 -0.531904 -0.014743 0.050265 -0.546794 -0.229736 0.038774 0.412194 0.355683 0.407113 -0.294038 -0.146078 0.494154 -0.069113 -0.335732 0.035417 -1.196587 0.654703 0.627629 -0.002414 -0.480300 -0.460060 1.033778 0.121089 -0.355539 0.612089 -0.337176 -0.404753 -0.029728 -0.457218 -0.111919 -0.669563 0.581349 -0.552526 0.125686 -0.427855 -0.168069 0.050727 0.359063 0.118205 0.584772 -0.388544 0.359697 -0.173572 0.532707 -0.427042 -0.182606 -0.275157 -0.097394 -0.332101
59 -0.407988 -0.428900 0.367429 0.752527 0.299005 -0.394466 -0.562220 0.412908 -0.001440 0.068759 -0.105123 -0.450158 0.030450 -0.372931 -0.039965 -0.490443 -1.003717 0.125091 -0.282455 -0.068436 0.637446 -0.499793 0.800702 0.158587 0.170279 -0.460826 0.353775 -0.281697 0.239927 0.413464 0.202268 -0.208931 0.485537 0.616410 0.013880 0.041062 0.330221 0.195220 -1.406555 -0.389533 -0.127146 0.318741 0.706600 -0.237491 -0.182474 -0.012450 -0.052602 -0.595901 0.255644 -0.426569
15 0.039428 -1.163785 -0.080702 0.600650 0.551610 -0.210254 -0.946429 0.741406 0.004211 -1.116154 -0.087092 0.333075 -0.213392 0.038276 -0.345961 0.400108 -0.729277 -0.006794 -0.223716 -0.556487 0.115270 -0.273061 0.039130 0.242948 -0.009195 -0.121281 -0.101720 0.272537 0.244911 -0.571606 0.009332 0.386815 0.851690 -0.115551 -0.997660 -0.726335 -0.245435 0.436626 -0.023570 0.102231 0.020531 0.313263 0.769378 -0.216830 0.015309 -1.178240 -0.239158 -0.272862 -0.120376 -0.054581
72 0.317951 -0.325203 -0.278773 -0.230225 0.363323 -0.410638 -0.222339 -0.444133 1.004025 0.043206 0.414016 0.163179 -0.202542 0.156423 -0.266587 -0.605877 -0.786436 -0.324593 0.593211 -0.428641 -0.414642 -0.291889 0.162049 0.648090 0.072244 0.770565 0.722411 0.307030 0.293627 -0.258748 0.298912 -0.145859 -0.029793 0.413028 0.447081 0.272870 -0.083075 0.432460 0.452285 -0.036880 0.236949 -0.424024 0.656704 0.327515 0.009537 -0.012309 0.640095 -0.537578 -0.300213 -0.496692
7 -0.118378 -1.372094 0.925282 -0.138504 0.228069 0.763320 -0.424351 0.665086 0.094787 0.290110 -0.275492 0.537048 0.188744 -0.026251 -0.110727 -0.472310 -0.472083 -0.486419 0.328866 -0.452380 -0.684657 -0.070872 0.197861 -0.500393 0.521065 -0.638162 0.064070 -0.029601 -0.307655 -0.177027 -0.282356 -0.160967 -0.137904 -0.423266 0.261971 -0.793680 -0.210156 0.250001 -0.074731 -0.603525 0.123624 0.077013 0.240328 0.155014 -0.052255 -0.858914 0.762525 0.202120 0.338490 0.247070
220 -0.597421 -0.348884 -0.012655 -0.064044 -0.758061 -0.756521 0.176211 0.413076 -0.539130 0.038776 -0.118288 0.732239 0.341817 0.850604 -0.138402 0.589431 -0.526600 -0.171172 -0.441084 0.632883 -0.413559 -0.129988 0.486575 -0.242987 0.396160 -0.487833 0.506527 0.155088 0.671476 -0.065438 -0.340875 0.044887 0.076933 0.365031 -0.157162 -0.507597 0.421595 0.369501 -0.028467 0.299392 0.075900 0.005970 -0.003139 0.227094 -0.020255 0.680818 0.298756 -0.272102 -0.062997 0.793280
113 0.162989 -0.082370 -0.164019 0.290618 0.482820 0.175401 0.223166 0.172671 -0.303701 -0.049815 -0.367037 1.013943 0.207347 0.856716 -0.441387 0.583628 -0.599266 -0.476668 0.118811 -0.342698 -0.114225 -0.340624 0.290374 -0.560732 0.486788 0.398614 0.855150 -0.173237 0.301451 0.219111 0.119136 -0.487972 0.117361 -0.589267 0.087967 0.043209 0.005206 0.085667 -0.207384 0.189169 0.213274 -0.929624 0.245205 -0.319494 0.246651 0.575256 0.379506 -0.272791 -0.317165 -0.011000
199 -0.062623 -1.220201 0.481966 0.821715 -0.078834 0.382166 0.607337 0.096354 0.067605 -0.208839 0.072402 0.289173 0.450930 0.142941 -0.480413 -0.280193 -0.506435 -0.606857 -0.151924 0.259437 -0.295248 -0.295929 0.463079 -0.542424 0.256349 -0.476464 0.164717 -0.089309 -0.007546 0.720929 0.092460 0.467619 -0.091925 -0.182387 -0.463591 0.307336 -0.499708 0.504904 -0.070425 -0.146197 0.432514 -0.534594 0.258056 0.137855 0.257063 -0.238048 0.584943 -0.532878 0.473545 0.155522
92 -0.194562 -0.402312 -0.618131 0.353559 -0.603936 -0.179262 0.042941 0.558581 -0.369511 0.177550 -0.737259 0.762469 -0.331837 0.105639 -0.155676 0.254641 -0.742450 -0.149743 0.264265 0.807498 -0.035276 -0.255317 -0.059127 -0.090846 -0.074525 -0.191249 0.089550 0.384653 0.890944 0.086266 -0.373711 -0.320668 -0.158510 0.422640 -0.236295 -0.503999 0.297460 -0.171833 -0.147110 -0.309163 0.180724 -0.723695 0.122249 -0.050488 -0.052273 0.122117 0.257071 -0.038010 -0.592886 1.457722
190 -0.407302 0.086964 -0.203127 0.416967 -0.305036 -0.099623 0.332919 -0.190995 -0.084134 -0.186208 -0.054657 -1.176204 0.797878 0.236897 0.572360 0.201314 -0.611459 0.122959 -0.036628 -0.555561 -0.100456 -0.675999 0.243362 0.388099 -0.150487 -0.687533 0.193767 -0.158897 0.471835 0.041078 -0.551818 0.282442 -0.027305 0.109126 -0.002239 -0.345884 -0.471259 0.295477 0.068841 -0.265580 -0.209065 0.352537 -0.071868 0.594222 -0.240224 -0.081161 -0.013280 0.143654 0.098839 -0.477231
242 0.181609 0.069292 0.274772 0.244197 -0.399226 0.278117 -0.736460 -0.313765 0.123081 0.666708 0.360687 0.372717 0.267466 1.451993 -0.495032 0.386958 -0.516287 0.538347 0.214480 0.217763 0.394785 0.043782 0.222432 0.306835 0.228793 -0.236252 0.170928 0.452572 0.175806 0.011912 -0.126643 0.630299 -0.189849 0.856574 -0.282385 0.199930 -0.594757 0.433482 0.428308 -1.098349 0.143679 0.044738 0.643171 0.072279 -0.313523 0.393367 0.165784 0.263948 0.308911 0.347562
207 -0.268273 -0.982835 0.168197 0.544166 0.254211 0.324951 -0.561767 0.074517 -0.630610 -0.834146 -0.124090 0.295667 0.376368 0.711519 0.089435 -0.192070 -0.648166 0.004953 -0.120755 0.308443 0.241033 -0.682860 -0.269206 0.218193 0.117257 0.185080 -0.016976 -0.232706 0.004967 0.216416 -0.176446 0.897014 0.648218 0.020248 -1.162820 -0.149365 -0.269717 0.390185 -0.245847 -0.378168 0.211313 -0.117102 0.107831 -0.289897 -0.141223 -0.213617 -0.174441 -0.157134 -0.255471 0.020284
123 -0.607376 -0.662630 -0.427556 0.477412 0.581701 0.379751 -0.121330 0.013494 -0.399646 -0.185145 0.441366 -0.381453 0.671022 0.088288 -0.245682 -0.221632 -0.617925 -0.176901 -0.071322 -0.348831 0.428271 -0.424977 0.456435 -0.722544 0.870019 -0.506039 -0.295891 -0.046070 0.773556 -0.120342 0.510810 -0.750101 -0.381214 0.798591 0.330380 0.220591 0.225727 -0.091756 -0.034763 -0.027067 -0.192919 0.139306 0.255864 -0.019479 -0.055044 0.131860 0.148830 -0.248261 -0.342842 0.088050
188 0.025504 0.050644 0.492909 0.776766 -0.351022 0.181932 0.166966 0.179594 -0.101594 -0.281526 -0.347572 -0.004310 0.740518 0.412465 -0.232797 0.445943 -0.596750 0.343640 0.451686 -0.165971 -0.044350 -0.487956 -0.283592 0.079282 0.290456 -0.426495 0.774302 -0.508970 0.991386 0.334868 -1.082561 -0.012118 0.525854 0.448081 0.448744 0.223642 0.017706 0.736666 0.589164 0.120392 0.144685 0.185158 -0.416105 0.553188 0.840375 -0.209233 -0.223287 0.264716 0.253027 -0.003771
204 -0.295438 -0.229484 0.261597 0.297371 -0.655011 0.690505 -0.014032 -0.032726 -0.445227 -0.446326 -0.399534 0.537892 0.485873 0.701842 -0.019304 0.112983 -1.528177 0.149729 0.234141 0.716963 -0.103797 -0.305260 -0.190748 0.106309 0.137435 0.567180 0.372251 -0.005859 0.412728 0.488106 -0.193041 -0.251190 -0.027720 0.496242 -0.564883 0.087984 -0.110264 0.589022 -0.385967 -0.178372 0.815360 0.165969 0.185062 -0.152309 -0.667115 -0.135128 -0.029307 -0.032405 -0.021588 -0.219673
149 -0.285781 0.115089 -0.512783 1.087814 0.556763 -0.636240 -0.010095 -0.241602 -0.092207 0.359223 0.413027 0.020273 -0.318301 0.094055 -0.098792 -0.191764 -0.838079 0.511011 0.159920 0.103821 -0.787615 -0.304961 -0.889724 -0.394054 0.299627 0.043021 0.358219 -0.271295 0.131493 -0.160860 -0.477563 -0.474896 -0.156313 0.058462 0.291296 -0.040582 -0.707818 -0.826879 -0.222835 -0.633049 -0.402375 -0.889924 -0.055704 0.517357 0.005909 -0.229014 -0.311415 0.180955 0.026200 0.431793
48 -0.412002 -0.748165 0.643741 0.038325 -0.339071 0.000892 -0.072723 -0.244843 -0.418197 0.210697 -0.111817 0.778251 -0.040273 0.214798 0.139971 -0.114658 -0.809954 0.303669 0.127724 0.413037 -0.114304 -0.262695 0.829612 0.308585 -0.559965 0.737738 0.182947 -0.567562 0.466444 -0.498262 -0.118597 -0.114394 0.503094 0.556624 -0.683648 -0.788523 -0.071392 1.260466 -0.338993 0.318101 0.444568 0.158439 -0.174482 -0.304816 -0.672147 -0.257045 -0.122759 0.126320 0.044167 -0.580223
248 -0.213601 0.012837 -0.089207 -0.631796 0.778753 0.608687 -0.262941 -0.329467 0.234269 -0.473611 -0.103561 -0.036940 0.541848 0.336549 -0.009381 0.388102 -0.816946 0.065151 0.579660 -0.021007 0.059439 0.064500 -0.008509 0.507468 -0.100259 0.077346 0.347452 -0.273981 0.097870 -0.736966 0.344750 0.103692 0.567073 0.406554 0.157676 -0.486183 -0.361324 0.677562 0.195182 -0.804232 0.221964 -0.492759 -0.211447 0.499721 -0.379054 0.479706 -0.194449 0.105635 -0.044369 -1.149218
96 0.918762 -0.582187 0.157450 0.229387 -0.421484 0.005604 -0.401029 -0.247809 -0.238254 -0.134600 0.469883 0.219405 0.050592 -0.217645 0.062683 -0.032705 -0.524341 0.738248 -0.156812 -0.313080 -0.024083 0.261952 0.700927 -0.075548 0.163671 -0.257525 -0.079841 0.153330 0.595840 -0.514215 0.047233 0.453635 -0.615320 -0.086999 0.623323 -0.872649 -0.291894 0.652593 -0.074621 0.018734 -0.440488 -1.158612 0.031534 0.523528 -0.324873 -0.013697 0.017181 -0.366827 -0.199443 -0.147049
208 -0.137245 -0.480698 0.272045 -0.458921 -0.771018 -0.703661 0.088309 -0.132154 0.267889 -0.151715 0.289825 0.556830 0.318153 -0.136372 0.242039 -0.259771 -1.343244 0.415849 0.543570 0.076708 0.134558 -0.331101 0.880881 -0.821277 0.474631 0.387853 0.234890 0.139422 0.569800 -0.979055 0.427389 0.109449 0.951972 -0.047275 -0.360460 0.095825 0.175288 -0.433685 0.497073 -0.535203 0.712612 0.012908 0.011904 0.595378 0.220869 0.205362 -0.024795 0.167145 -0.045084 -0.140901
60 0.172430 -0.388004 0.671079 0.582288 -0.367010 0.097063 -0.285610 0.332488 -0.314393 0.020388 -0.290343 0.314616 0.611670 0.074822 -0.837354 0.535527 -0.729025 0.072979 0.229498 0.312055 -0.275391 -0.322191 0.218166 0.576328 0.497554 0.370143 0.591359 -0.354661 0.188575 -0.362442 -0.356771 0.393544 0.588786 1.192511 -0.259300 -0.422532 0.160797 0.409772 -0.119468 -0.308500 -0.197752 -0.081010 0.371067 -0.297553 0.745786 -0.402799 -0.407841 0.664734 -0.005745 0.349756
89 -0.317060 -0.394842 -0.282220 0.746449 -0.114064 -0.349709 -0.279406 -0.577554 -0.719496 0.348126 -0.026453 -0.169587 -0.751731 0.354388 0.954569 0.028340 -0.846464 -0.269255 0.036210 0.070837 -0.000979 -0.312987 -0.442187 -0.716153 -0.658345 -0.113755 0.133081 -0.147353 0.650584 -0.108210 0.519801 -0.401101 -0.072850 -0.417209 -0.006068 -0.146234 -0.532030 -0.573995 -0.321421 0.265293 -0.081475 -0.548172 0.010406 0.365615 -0.044627 0.475598 1.029074 -0.255961 -0.306809 -0.012470
82 -0.190951 -0.465459 -0.878163 0.546214 -0.829857 -1.042964 -0.204508 -0.543806 0.213765 0.416475 0.470908 -0.246313 -0.431451 0.253720 -0.209000 -0.148370 -0.263623 -0.568779 1.042477 -0.563043 -0.032386 -0.643315 0.394386 0.306005 0.086886 0.005696 0.246988 0.315612 0.408785 -0.150107 -0.504175 0.082052 -0.787775 0.293081 -0.113133 -0.006863 0.495947 0.104901 0.075403 -0.200833 -0.343079 -0.116500 0.123805 -0.064085 -0.076975 -0.205859 0.584616 0.229304 -0.118893 0.538217
195 -0.206131 -0.400489 0.578842 0.853950 0.207265 0.015024 -0.398057 0.168672 -0.114548 -0.441119 -0.930148 0.081096 0.089240 -0.292061 -0.548636 0.446206 -1.100435 0.461795 -0.259523 0.399860 0.064410 -0.575558 0.282623 -0.370748 -0.098020 0.317751 -0.762530 0.283546 0.465356 0.091998 -0.207075 0.171558 -0.136762 -0.014061 -0.840785 0.022610 -0.019031 0.591468 -0.660119 -0.650943 0.525140 -0.430584 -0.028196 0.475399 0.104760 0.531442 0.088395 -0.112000 -0.241673 -0.389257
70 0.128932 0.109444 -0.268449 -0.323467 -0.340757 -0.542014 0.071405 0.082346 0.246172 -0.267745 -0.405715 0.162078 0.229506 0.298734 0.040239 -0.208631 0.196030 0.493645 0.393387 0.384655 0.345483 -0.763895 0.450944 -0.168296 -0.441372 -0.030253 0.536873 -0.167796 0.190617 -0.110189 -0.527259 -0.263267 0.200146 -0.030642 -0.530372 -0.603632 -0.633324 -0.699009 -0.132612 0.178580 -0.192194 -1.090487 0.986157 0.131572 -0.027281 0.178604 0.884196 -0.029741 -0.029202 -0.570400
28 -0.493706 -0.431189 0.137161 0.124607 -0.197476 -0.301524 0.243119 0.224090 -0.378523 -0.412865 0.160382 0.281180 0.363337 0.299037 -0.544372 -0.211025 -0.743430 0.161331 0.120028 0.433508 -0.192884 -0.166247 0.315194 0.230320 0.066090 -0.177776 -0.113261 0.345807 0.994067 0.118416 -0.862863 -0.130994 -0.018867 -0.199065 0.056217 -0.832904 -0.485336 0.093440 -0.067470 0.356505 0.060087 -0.221108 0.606816 -0.677173 0.034601 0.303968 0.464963 0.535531 -0.051679 1.119826
18 -0.348176 -0.301511 -0.189456 0.208781 -0.839091 -0.344010 -0.186854 0.091242 0.199582 0.232184 0.781567 -0.527416 0.083259 0.402781 -0.984857 -0.270945 -0.131287 0.143599 0.803342 -0.198874 -0.133662 -0.863227 0.765322 0.628302 -0.191535 0.339699 0.030048 0.468562 -0.407790 0.203820 -0.394040 -0.887157 -0.011968 -0.014858 0.282187 -0.327319 -0.088276 0.521953 -0.075826 -0.013250 0.487143 -0.101467 0.475912 0.073894 0.265739 0.017263 0.242293 0.228308 -0.139441 0.318894
194 -0.463263 0.267663 0.515385 0.225592 -0.275342 -0.230380 -0.532192 -0.665877 -0.011433 0.125702 -0.080924 0.363438 0.282103 -0.032413 -0.584828 0.294361 -1.034379 0.258889 -0.033835 -0.326172 0.542868 -0.112132 0.152984 -0.222420 -0.031093 -0.137611 -0.281485 0.678960 -0.005803 0.535813 0.083374 -0.066912 -0.065329 0.432849 -0.645136 -0.842474 -0.502098 0.689133 -0.129918 -0.343699 0.930124 -0.255621 -0.073227 0.194221 0.179185 0.306571 -0.481589 0.034005 0.307484 -0.075279
75 -0.081368 -0.870598 -0.570087 -0.178625 0.233097 -0.146565 -0.478670 0.011420 0.831325 -0.088502 0.490778 -0.209999 -0.488157 0.465915 -0.453732 -0.320883 -0.454280 -0.618194 0.257056 -0.027403 0.551634 -0.588916 0.345046 -0.085587 -0.109594 0.501265 0.298740 -0.157361 0.366251 0.332949 -0.370712 -0.385486 -0.634933 0.397527 -0.051375 0.332305 0.306173 -0.032559 0.335852 -0.233270 -0.225787 -0.135971 0.618709 0.225508 0.335653 -0.164886 -0.073993 -0.166557 -0.165594 -0.821971
105 0.031824 -0.352392 -0.603632 0.851013 -0.137288 -0.671587 -0.411240 -0.551747 0.191617 -0.064800 0.493349 0.074984 -0.364678 0.991063 -0.078738 0.415365 0.189364 -0.528959 -0.212581 -0.093181 -0.298017 -0.034269 0.179473 -0.835344 0.061167 -0.205021 0.030700 -0.166678 -0.111868 -0.095022 0.081923 -0.221412 0.548469 -0.461217 0.479209 -0.272506 -0.707832 -0.610682 -0.949249 0.284526 -0.436485 -1.167532 -0.274658 0.442154 -0.312985 0.186524 0.315824 0.200255 -0.562644 -0.384546
122 -0.902695 -0.515412 -0.321965 -0.035480 0.172213 0.326346 0.368667 -0.869486 -0.578537 0.612305 -0.384932 -0.287344 0.740874 0.253793 -0.387892 0.287583 -0.060116 -1.098525 0.207835 -0.296752 -0.095619 -0.381299 0.391192 -0.057195 0.551091 -0.482389 -0.281617 0.374692 0.683850 -0.031906 -0.003453 -0.509444 -0.158520 0.413128 0.673117 0.072493 -0.706290 -0.145579 -0.078518 -0.266458 -0.442333 0.030162 -0.110774 -0.268741 0.108717 0.002695 -0.070478 -0.219557 -0.834199 0.001890
196 0.052532 -0.490221 0.097621 1.005825 -1.059148 0.342729 -0.147820 -0.407397 -0.373172 0.130616 -0.230386 0.437785 0.057292 0.274695 -1.196291 -0.116937 -0.640871 0.381863 0.615110 0.486349 -0.328277 -0.624931 0.691078 -0.235150 -0.114927 -0.405889 0.291522 0.168466 0.179696 0.483057 0.860246 -0.199127 0.235166 -0.356695 -0.387059 0.636614 -0.390227 0.502160 0.103230 0.653449 0.251762 0.043612 0.125855 -0.628810 0.336465 -0.160663 0.059273 -0.805885 0.149129 -0.284738
4 -0.131455 -0.567169 0.343651 0.021905 -0.357104 0.304730 -0.939705 -0.133631 -0.373432 0.027248 -0.427903 0.373832 -0.267671 0.265557 -0.900750 0.110530 -0.550749 0.385735 0.956375 -0.078299 -0.443474 -0.237245 0.352580 -0.132549 0.032365 -0.097340 -0.032094 0.398809 0.022353 -0.472112 0.245276 -0.596324 0.131571 -0.636453 0.042532 -0.570900 0.151354 0.629945 -0.186719 0.384366 -0.245450 0.462749 0.066023 -0.250003 -0.025471 -0.529703 0.616721 0.400349 -0.131545 -0.315433
12 0.070416 -0.410980 0.094917 0.329198 -0.539597 0.191273 -0.025185 0.353278 0.173687 -0.843092 -0.617752 0.378527 -0.084467 -0.133574 -0.417580 0.511528 -1.280679 0.029600 0.069946 -0.092257 -0.066067 0.408321 -0.048123 -0.110218 0.365428 0.113035 0.344620 0.446522 0.730037 -0.303147 -0.505733 -0.203757 -0.058272 0.193983 -0.517036 -0.487001 -0.333252 0.432916 -0.480236 0.017487 0.001643 0.030408 0.956161 -0.108915 -0.363078 -1.040622 -0.036499 0.120019 0.242003 -0.353149
68 0.420996 -0.611564 -0.578808 -0.037101 -0.248206 -0.121724 -0.046551 -0.455001 -0.203016 -0.186023 -0.044503 -0.242983 -0.155423 0.427618 -0.776253 -0.065931 -0.620089 0.351136 0.793918 0.650914 0.171068 -0.839867 0.822786 -0.152917 -0.030358 0.223172 0.437692 0.326307 0.298944 -0.380679 0.098685 -0.373494 0.193151 -0.445855 0.351344 -0.421801 0.122696 -0.233551 -0.298568 0.361381 -0.005221 -0.067363 0.186312 -0.239469 0.173992 0.032797 0.657543 -0.271223 0.041195 -0.010813
51 -0.491255 -0.766862 0.447972 0.375795 0.121517 0.015336 -0.446846 0.275811 -0.508762 -0.077213 -0.510111 -0.483161 0.025233 0.044200 -0.486149 0.323321 -1.050268 0.096221 -0.130892 0.634797 -0.261101 -0.163063 0.131944 0.430112 0.253354 0.528713 0.470497 -0.082579 0.425856 0.078769 -0.709309 0.299818 0.604714 0.146323 -1.076733 -0.246052 -0.195441 0.488099 -0.322397 0.421088 -0.138552 -0.167573 0.293833 -0.015811 -1.129470 -0.377154 -0.056436 -0.035324 0.369316 -0.414099
80 0.049490 -0.455097 -0.790070 0.043027 -0.782382 -0.697821 0.100743 -0.272183 0.076518 0.658089 -0.650027 0.184277 -0.087261 -0.040288 0.263070 -0.128785 -1.503524 0.106731 0.700889 -0.110558 -0.165668 0.133393 0.812098 -0.334313 0.048503 0.407403 0.219750 -0.523764 0.536251 -0.915559 -0.406014 0.381788 0.278864 -0.031762 0.078924 -0.089930 0.210067 -0.413314 0.824520 -0.092883 -0.010732 -0.495444 0.159647 -0.341435 0.095757 -0.437368 0.230438 -0.535254 -0.010961 0.131507
165 -0.646240 0.330087 -0.331050 1.422549 0.613594 -0.022696 -0.243220 -0.021847 0.184953 0.442341 0.582646 0.286269 -0.589039 -0.163312 0.355668 -0.097067 -0.274208 0.323088 0.205797 0.551249 -0.726180 0.314122 0.002979 -0.099470 0.139905 -0.895645 0.964429 0.254454 -0.200769 -0.669173 -0.194407 -0.060764 0.170169 -0.002852 0.087266 -0.148919 -0.747104 -0.884239 -0.594047 0.014376 0.099478 -0.744802 0.093258 0.596608 -0.329736 -0.621106 0.433968 0.107503 -0.735681 0.049036
126 -0.833105 -0.580762 -0.572735 0.106576 -0.546249 -0.204128 -0.044787 -0.194919 -0.294420 -0.659559 -0.020971 -0.494548 0.429826 0.379963 0.248203 1.050399 -0.036225 -0.025782 -0.002815 -0.178552 0.088797 -0.675239 0.420924 0.331038 0.525230 -0.870738 -0.739283 0.136708 -0.021269 -0.455517 0.244750 -0.415370 -0.338292 0.101734 0.004148 -0.431054 -0.055721 0.020036 -0.047485 -0.921389 0.045094 -0.740259 0.383478 -0.125941 -0.499824 0.121665 0.159364 -0.077354 0.072637 -0.106478
210 -0.072280 -0.681229 -0.065059 -0.038447 -0.883522 -0.683019 -0.096297 -0.432896 0.447884 -0.382472 1.037049 -0.160752 -0.035452 0.343040 0.033434 -0.162999 -0.125490 -0.064105 0.582016 -0.195862 -0.158101 -0.770315 0.509919 0.063138 0.502367 0.110745 0.454299 0.900037 0.329687 -0.262816 0.274866 0.048259 0.047046 0.351402 -0.496292 0.265267 0.190013 -0.084954 0.095192 -0.418799 0.381395 0.124617 0.154561 0.644949 -0.210454 0.331525 0.435471 0.733671 -0.177213 0.276869
6 -0.170218 0.240955 0.885681 -0.219124 -0.741346 -0.286512 -0.687216 0.251312 -0.218602 -0.092522 -0.505432 0.542108 0.110009 0.034910 0.353833 -0.288793 0.009654 0.137824 0.820455 -0.554434 -0.634132 -0.059900 0.314846 -0.198720 -0.084982 -0.205243 0.410770 0.044228 -0.143972 0.004374 -0.377140 -0.725735 0.173206 -0.197612 -0.329060 -0.576494 -0.554291 -0.044952 0.003101 -0.181673 0.066586 -0.311431 0.793900 -0.085801 0.000591 -0.260246 0.954298 0.467403 0.023452 -0.600371
198 -0.035913 -0.060401 0.506354 0.550333 -0.975293 -0.236384 0.157416 -0.032336 -0.129282 -0.162345 -0.364379 0.252311 0.305571 0.322011 -0.134336 -0.074448 0.005930 0.128549 0.224991 0.237521 -0.485672 -0.034898 0.373147 -0.303796 -0.209943 -0.475509 0.398203 -0.091736 -0.043555 0.806868 -0.002671 0.145875 0.162991 0.031972 -0.862364 0.280428 -0.914957 0.010574 0.058986 0.246832 0.177117 -1.006853 1.000532 -0.505733 0.399958 0.047862 0.289889 -0.536523 0.030509 -0.576984
114 0.039156 0.199109 0.323132 -0.329841 0.295312 -0.132124 -0.233365 0.059329 0.056401 0.544028 0.289289 0.662862 0.156506 1.217687 -1.572298 -0.246801 -0.645232 -0.527898 -0.098241 -0.106031 0.610187 0.192381 -0.227971 -0.114141 0.277622 -0.102913 0.340151 0.363454 0.776822 0.052344 -0.410492 -0.066314 -0.200233 0.357464 -0.033972 -0.080819 -0.457242 -0.274071 0.350836 -0.018069 0.396129 -0.917696 0.282969 -0.549276 -0.107713 0.339879 0.299789 -0.216253 -0.879159 -0.043912
19 -0.304278 -0.698582 0.421003 0.314155 -0.032134 -0.566085 -0.863583 0.729142 -0.448968 -0.400718 -0.020542 -1.118020 0.515423 0.755798 -0.745819 0.487819 -0.735384 0.862335 0.125830 0.404496 -0.597937 -0.228868 0.289704 0.474431 -0.199359 0.806490 0.048762 0.034938 -0.177230 0.185799 -0.215048 0.197946 -0.044340 -0.201138 0.736085 -0.424036 -0.260082 0.032658 -0.202413 0.755690 0.337430 0.354168 0.453864 0.129807 0.661682 -0.684546 0.475015 0.101695 0.071767 -0.524988
211 -0.382489 -0.612154 0.255890 0.422960 0.172831 -0.744218 -0.025902 -0.479922 -0.381975 -1.031298 0.016118 -0.223517 0.388811 0.387834 -0.093149 0.032564 -0.764399 0.262987 -0.102878 0.633646 0.246273 -0.056475 0.337622 -0.497092 0.406117 0.547545 0.201128 0.401739 0.554746 -0.471541 0.391072 0.597257 0.463362 0.322922 -0.000520 0.151466 0.387558 -0.189109 -0.263988 -0.004254 0.493641 0.195792 0.179158 1.009626 0.046072 0.033621 0.764995 0.652312 0.081621 -0.291576
74 -0.019012 -0.222417 -0.245894 -0.009561 0.269704 -0.107724 -0.461866 -0.596790 0.717048 0.264091 0.173276 -0.376671 0.278703 0.686999 -0.210426 -0.660993 0.046839 -0.499188 0.781391 -0.024101 0.436924 -0.523399 0.303476 -0.285808 0.569842 0.801358 0.590397 0.524225 -0.057856 -0.077553 0.071467 -0.320740 0.003095 0.261696 0.437804 0.062748 -0.153181 0.094952 0.693222 0.449544 0.276520 -0.774837 0.493262 0.037385 0.076324 -0.737838 0.343408 0.358526 -0.329765 -0.525679
101 -0.281344 0.137727 -0.639580 0.776026 0.082269 -0.009682 0.100229 -0.216161 -0.326283 0.751101 0.246697 0.325793 -0.808786 0.321867 -0.175884 -0.128960 -0.488316 -0.301132 -0.019783 -0.295174 -0.368637 0.387570 0.154328 -0.245301 0.092971 -0.439178 1.069487 -0.352990 0.451857 0.085378 -0.119191 -0.273423 -0.334275 0.139589 0.732124 -0.264478 -0.191172 -0.479295 -0.585482 -0.087928 -0.252296 -0.858291 0.068846 0.703447 -1.094369 0.036881 0.861618 -0.070721 -0.280418 -0.188042
124 -0.408681 -0.606443 0.090113 0.234514 -0.453275 -0.089712 -0.104138 0.069306 -0.527166 -0.468033 -0.362225 0.682112 0.014926 0.624172 -0.334941 1.098140 -0.240265 0.215496 0.205304 0.462238 0.251727 0.030013 -0.143892 0.215892 0.822554 -0.289521 0.087823 -0.271206 0.629088 -0.225703 -0.254911 -0.616471 0.396126 0.664957 0.156264 -0.161652 0.312536 0.100214 0.692663 -0.676185 0.651346 -0.695926 -0.037305 -0.209028 0.698875 -0.145152 0.078715 0.170105 0.107536 0.071049
56 -0.586925 0.011029 0.249710 -0.342802 0.361619 -0.521060 -0.402474 -0.302785 0.106823 -0.387593 -0.187962 0.067451 0.048824 -0.329766 0.026747 -0.219139 -0.939597 -0.057915 0.828007 0.345250 0.090849 -0.069546 0.378362 0.642116 0.024886 0.485196 0.447367 -0.177463 0.093155 0.038118 -0.093052 0.039716 0.622972 0.231446 0.116341 -0.793444 0.136281 0.971367 -1.080747 -1.021595 -0.322743 -0.201201 0.078760 -0.087375 -0.364304 0.016059 0.096064 0.159806 -0.070270 -0.068356
55 -0.598011 -1.489363 0.122307 -0.250443 0.025192 0.482802 0.351585 0.845585 -0.094849 0.435365 -0.393709 -0.200646 -0.270584 0.363222 -0.276960 0.640537 -0.077224 0.256845 -0.177526 -0.459468 -0.009713 -0.287006 0.472509 -0.810126 0.351327 0.053739 0.861288 0.367236 -0.712832 0.154424 -0.141313 0.327790 0.483541 0.732604 -0.258001 -0.127244 -0.183467 0.435826 -0.523484 0.186642 0.334711 -0.007939 0.676473 0.654863 -0.640863 -0.650932 0.042016 -0.295068 -0.077809 0.021414
94 -0.313561 -0.351814 -0.357279 -0.131873 0.216383 -0.408156 0.049137 0.484624 0.239026 0.088529 -0.331185 -0.333145 -0.396034 0.342569 0.608944 -0.056841 -0.412741 -0.338465 0.554277 -0.263839 0.511634 -1.048586 0.127365 -0.030489 0.159910 -0.527476 -0.275534 0.223799 0.136959 0.176158 -0.005667 -1.089689 -0.164819 0.289714 -0.234349 0.129604 -0.308723 0.074731 0.157857 -0.522993 0.155611 -1.163388 -0.314835 0.182969 -0.683557 -0.092501 0.416656 -0.571204 -0.802427 0.256917
120 -0.721716 -0.093923 -0.362434 -0.534282 0.676921 0.203498 0.209314 -0.416895 -0.110041 -0.244949 0.119411 -0.274587 0.617704 0.321404 -0.372809 0.222838 -0.736848 -0.492450 0.450723 -0.215788 -0.138311 0.032863 0.186376 -0.068017 0.416110 0.326868 0.034346 0.297896 0.459438 -0.266483 0.345695 -0.841889 0.263283 0.395825 0.378039 -0.505684 0.159418 0.581237 -0.175742 -0.394570 -0.322411 -0.339372 -0.570687 0.558503 -0.201567 0.546576 0.359860 -0.185228 -0.485888 0.197544
13 -0.348069 -0.583232 -0.640538 0.147591 0.205885 -0.271315 -0.498420 0.712200 -0.300807 -0.903713 -0.149082 0.094417 -0.594577 -0.322296 -0.634722 0.831226 -0.445366 0.588954 0.736403 -0.735187 -0.113125 0.072975 0.265506 -0.910977 -0.527692 0.140935 0.126028 0.440566 0.186801 0.160988 -0.398388 -0.137175 0.441364 0.595251 -0.225288 0.255441 -0.929813 0.391344 -0.502662 0.634385 -0.571418 0.134677 0.608225 0.110130 -0.490972 -0.713847 -0.427257 0.194169 0.298449 -0.580149
53 -0.153485 -0.967781 0.119283 0.127634 0.403119 -0.382255 -0.128962 0.275877 -0.396532 0.948099 -0.199888 0.377027 0.033683 -0.264805 -0.367516 0.508277 -0.190658 0.550349 0.558335 -0.711202 -0.178645 -0.424555 -0.003445 -0.313113 0.027452 0.413001 0.902379 0.212115 0.003667 0.221984 0.085258 0.151076 0.361094 0.751562 -0.642213 0.145705 0.173886 -0.462231 -1.070116 -0.420960 0.185633 -0.102078 0.203908 0.174790 -0.549477 -0.495357 0.320968 -0.378421 0.055816 -0.206855
150 -0.602057 0.182353 -0.123324 0.528343 -0.259611 -0.374608 -0.457046 -0.638176 0.155490 0.162955 0.307193 -0.473980 0.588153 0.261881 0.587561 -0.362430 -0.650869 -0.127374 0.026743 -0.430232 -0.421948 0.129507 -0.740631 0.002424 -0.178255 -0.035046 0.723469 -0.092667 0.178748 0.521439 -0.156201 -0.533042 -0.297519 0.266109 0.219521 -0.303249 -0.539622 -0.903828 -0.369672 -0.426110 0.050416 -1.236040 0.209580 0.356190 -0.054394 -0.296470 -0.232060 0.083372 0.047297 0.253625
102 -0.387568 0.494334 -0.126606 0.196046 -0.465201 -0.151991 -0.629356 -0.403472 -0.665925 0.642850 0.226167 -0.257628 -0.141570 0.569787 0.083787 0.376518 -0.105412 -0.259819 -0.154080 -0.321859 -0.238513 -0.300977 -0.088595 -0.419645 -0.367525 -0.006654 0.519949 -0.200451 0.379067 0.084238 0.197250 -0.706483 -0.446102 0.299140 0.517149 -0.603308 -0.561394 -0.309405 -0.371678 0.406552 -0.585930 -0.808342 0.598026 0.649337 -0.453236 0.540944 0.198894 -0.052720 -0.263690 -0.306996
66 -0.117039 -0.554871 -0.647680 -0.122316 -0.217457 -0.387541 -0.377779 -0.852099 0.473179 0.220604 -0.300610 0.063397 -0.276953 -0.303862 -0.222105 -0.264173 -0.099732 -0.080793 -0.020991 -0.491683 -0.209554 -0.545059 0.285088 0.364598 0.546737 0.406929 0.763925 0.778301 0.612309 -0.196098 -0.211891 -0.508762 -0.350480 0.690320 0.134280 -1.248957 -0.941978 -0.216555 0.359863 0.003481 1.016021 0.243349 0.351049 -0.112691 0.031626 0.468836 -0.068162 -0.580282 0.380221 -0.392891
65 0.529540 -1.041470 -0.627415 0.036783 -0.251740 -0.427758 -0.261979 -0.405677 0.150361 -0.223626 -0.831739 0.471548 0.117768 0.214822 -0.225421 -0.419825 0.241564 -0.006757 -0.040692 0.013964 -0.745077 -0.656468 0.566689 -0.162054 0.431457 0.701539 0.696020 -0.679097 0.521481 0.233404 0.113150 -0.955548 0.043452 -0.145175 -0.027538 -0.703308 -0.816873 -0.277110 0.115205 -0.421651 0.198372 0.285676 -0.014288 -0.184555 -0.166667 0.006861 0.527774 0.002715 0.186388 -0.314013
143 0.128160 -0.879828 0.580828 0.597332 0.590629 0.240186 -1.042817 0.013599 0.063246 -0.289027 -0.198322 -0.336812 -0.270489 0.269458 0.423441 -0.167477 -0.315110 0.084429 -0.833850 -0.070030 -0.472623 -0.786958 0.506296 0.487168 -0.046006 -0.082980 0.320966 0.407861 0.285676 0.069691 0.055133 0.405971 1.155629 0.350060 -0.234618 -0.293251 0.635087 0.464489 0.263157 0.025494 -0.139283 -0.860342 -0.039212 -0.374984 -0.344505 -0.735109 -0.472469 0.122325 -0.103583 0.617564
142 0.074190 0.137341 0.552954 0.467783 0.474211 0.046878 -0.471863 -0.254599 -0.075446 0.295049 0.035293 -1.287471 0.244459 0.203825 0.171770 -0.334155 -0.133905 -0.256462 -0.050848 -0.019329 -0.370572 -0.517495 0.719857 0.360608 -0.157154 -0.088061 0.087367 0.025810 0.700685 -0.211022 0.057637 -0.668184 0.293554 0.421811 -0.194992 0.125743 0.322714 0.554094 -0.412604 -0.495398 0.194093 -0.994319 0.376968 0.182315 -0.761777 -0.627698 -0.187328 0.079032 -0.001255 0.195838
112 -0.079609 -0.051417 0.387987 0.184821 0.533573 -0.301025 -0.093777 0.143109 -0.357969 0.063896 -0.595448 1.236553 0.032747 0.444152 -0.471779 -0.176603 -0.926903 -0.135172 0.464729 0.426196 0.304807 0.342760 0.214319 -0.575136 -0.213829 0.216072 -0.329409 -0.400537 1.217599 -0.531704 -0.090738 -0.222821 -0.098340 0.749746 0.527224 -0.525526 0.068576 0.431704 0.012829 0.556433 1.102572 -0.843758 0.266216 -0.407777 0.053105 0.276462 -0.265435 -0.735021 -0.848601 -0.343264
108 0.317366 -0.624611 0.852926 0.569332 -0.616514 -0.395299 -0.410636 0.175224 -0.258938 -0.317325 0.792243 0.037276 -0.183177 -0.180291 0.068427 0.536939 -0.650925 -0.026339 -0.265260 0.085780 0.577522 -0.257770 -0.489813 0.033999 -0.005600 -0.120938 1.067301 -0.633850 0.854551 0.204509 -0.231579 -0.093816 -0.255497 0.124876 0.401599 -0.296356 0.214726 0.443382 0.135209 0.424308 0.131896 -0.545550 -0.162729 0.034171 -0.011777 0.187956 0.270154 0.463045 -0.337035 -0.604717
131 -0.424774 -0.935771 0.324946 -0.101421 -0.233472 0.653651 -0.685887 0.134381 0.336330 -0.276517 -0.396791 -0.566513 -0.390010 0.342211 0.287788 0.286305 -0.311100 1.058655 -0.016370 -0.382033 -1.085345 0.036303 -0.416167 -0.115671 0.189453 0.091381 -0.363087 0.117984 0.883027 -0.315119 -0.882106 0.168336 0.257670 -0.149697 -0.173555 0.488999 0.001170 0.499329 -0.727198 -0.235653 0.187205 -0.658734 0.270747 0.013692 0.049701 -0.267189 -0.254182 0.109775 -0.518154 -0.287535
77 -0.415582 -0.856277 -0.225473 -0.102778 0.164376 -0.517640 -0.142203 0.019680 0.330222 -0.146394 -0.000549 -0.071792 -0.832255 0.473496 -0.539025 0.670625 -0.557216 -0.029516 0.526616 0.271115 -0.360978 -0.538270 0.541144 -0.787554 -0.370576 0.846118 0.050232 0.109757 -0.379487 0.147579 -0.236873 0.071853 0.229318 0.868812 0.223001 0.218532 -0.227362 -0.374918 -0.468425 0.587408 -0.526701 -0.244808 0.082658 0.137875 -0.313953 0.290396 0.191943 0.497205 0.030301 -0.273277
30 -0.286323 -0.409562 0.655628 -0.027442 0.733795 -0.409123 0.241432 0.369332 0.062931 -0.240734 0.126004 -0.736639 0.087646 0.609636 0.229984 -0.342982 -0.718137 0.018081 0.298379 -0.589490 0.256285 -0.587901 0.740524 0.523859 0.225219 -0.647402 -0.396978 0.096398 0.480603 0.098878 -0.335966 -0.801093 0.178747 -0.164546 0.204736 -0.183121 -0.962227 0.215104 0.109514 0.034907 0.059351 -0.506056 0.071442 -0.741697 -0.276350 0.006078 0.626222 0.044601 0.063689 0.206253
61 -0.304268 -0.924456 0.352204 0.307776 0.235163 0.205828 0.209211 0.249007 -0.740855 -0.133479 0.094477 0.529875 0.363525 0.513609 -0.925342 -0.484082 -0.378380 -0.187661 0.143352 -0.345474 -0.530889 -0.575186 -0.034170 -0.028083 -0.297656 0.410700 0.446723 0.256513 -0.389462 -0.644316 -0.042469 0.428186 0.188210 0.691017 -0.398523 -0.256962 0.242172 -0.190187 -0.902833 -0.245456 -0.703602 -0.118829 0.230051 0.041755 -0.218867 -0.280143 -0.850326 0.038232 0.312334 -0.119045
99 0.230305 0.135148 0.221868 0.309076 -0.372393 0.272098 -0.757066 0.525467 -0.953533 -0.481483 -0.161130 -0.377313 -0.304502 0.383109 0.381870 -0.421200 -0.332595 0.633001 -0.117041 -0.049994 -0.556152 -0.366999 0.189995 0.362605 0.862170 0.527186 0.025287 0.469150 0.852143 0.393807 0.795473 0.654086 -0.146492 0.219367 0.185646 -0.455967 -0.072000 0.295276 -0.174904 0.046892 -0.520008 -1.194970 -0.145333 0.585783 -0.007522 -0.407266 0.390637 0.037665 -0.344626 -0.038454
35 -0.350485 -0.139441 -0.391553 -0.274049 0.190009 0.012795 -0.756815 0.248342 -0.354032 -0.210160 -0.537180 -0.395139 0.016580 0.302232 0.224062 -0.152066 -0.479569 -0.020197 -0.494511 -0.107482 -0.567638 -0.317731 0.295020 0.541712 0.143049 0.729419 0.216278 0.836527 0.766756 -0.204532 0.011239 0.000447 0.004244 0.316880 -0.404499 0.609969 -0.227295 0.945115 -0.724135 0.059325 0.114594 -0.540093 0.078136 0.608334 0.786441 -0.948827 0.338413 -0.218539 0.049220 -0.105495
179 -0.860645 -0.113641 0.464540 0.321548 0.242185 0.282458 -0.720478 0.009911 0.024462 -0.485255 -0.047780 -0.181355 0.392170 -0.239686 0.144475 0.195138 -0.944224 0.076433 0.371810 0.787773 -0.746435 -0.889552 -0.349066 0.035609 0.160572 0.060742 0.321403 -0.017644 0.832669 0.779717 -0.393702 0.051314 -0.416706 -0.059685 -0.934775 0.087999 0.059916 0.058111 0.472165 0.387779 -0.112067 -0.004205 -0.177471 0.442559 -0.409642 -0.410465 -0.541852 -0.242773 -0.000517 -0.236710
83 -0.310777 -0.394557 -0.726796 0.577118 -0.069886 -0.933992 -0.577149 -0.192832 -0.686701 -0.292638 -0.674554 -0.427052 0.064508 0.636505 -0.226392 0.157238 -1.008872 -0.142557 0.030592 0.574012 -0.183885 -0.121954 -0.063787 0.037781 0.101880 0.564459 0.041921 -0.165033 0.610075 -0.267902 -0.020912 0.954975 -0.535804 0.261864 0.283694 -0.172145 0.421438 -0.419999 0.131976 0.471174 0.008669 -0.004303 0.034311 -0.035662 0.244139 -0.761100 1.078961 0.323565 0.292334 -0.244911
14 0.299956 0.195959 0.182747 0.786013 0.426589 -0.428318 -0.493502 0.428446 -0.452263 -0.021682 -0.246547 -0.750968 0.235207 -0.150184 -0.486168 0.258304 -0.293430 -0.504303 0.379409 -0.382400 0.085541 -0.064044 0.410931 -0.134207 0.088709 -0.125274 -0.426459 -0.094471 0.756705 -0.624103 0.047495 -0.599231 0.267011 0.178077 -0.818749 -0.877511 -0.328054 0.496458 -0.747963 -0.460719 0.417320 -0.051522 0.962097 0.189503 -0.463720 -0.709094 -0.099696 -0.376346 0.108609 -0.316988
141 -0.313960 -0.261743 0.186884 -0.029980 0.584167 -0.134371 -0.188801 -0.139780 -0.614310 0.029916 -0.064090 -0.459718 -0.441536 -0.191422 -0.101084 0.321811 -0.096245 0.759846 -0.255843 -0.045150 -1.031020 -0.393964 0.893267 -0.490105 -0.506485 0.330838 0.647515 0.639922 0.379359 0.485672 -0.486891 -0.083269 0.734887 0.998179 0.052684 0.509314 0.093476 0.056044 -0.054790 0.145959 -0.220470 -0.999398 -0.149420 -0.060639 -0.581368 -0.282184 -0.599028 0.491995 0.061215 -0.027253
79 0.002286 -1.156927 0.359089 0.408443 0.358801 -0.770892 -0.819360 0.096860 0.681307 -0.294748 -0.468324 -0.129895 -0.526104 0.886534 -0.105876 0.627415 -0.637891 -0.264962 -0.115763 0.860913 0.067379 -0.904324 0.001986 0.496672 -0.288708 0.339019 -0.153197 -0.244118 -0.601859 -0.219917 -0.173532 0.774508 0.751773 0.424312 -0.283501 -0.597867 0.003507 -0.530839 0.426785 0.206118 -0.170346 0.112006 0.576495 -0.075422 0.107028 -0.325082 0.383070 0.207637 -0.076107 -0.167778
163 -0.428907 -0.230107 -0.320107 -0.058084 -0.003715 0.281683 -0.606912 0.678891 -0.190622 0.101844 -0.412025 -0.400905 0.045809 0.724869 0.502362 -0.104493 -0.335974 0.320636 0.300561 0.379533 -0.916147 -0.124907 0.216744 0.786803 0.797273 -0.031022 0.004592 0.599334 0.688460 0.344385 0.050785 0.286500 0.440779 0.578671 -0.222769 0.061015 -0.441566 0.092142 -0.447528 0.623829 -0.184940 -0.453612 -0.672927 0.516483 0.015271 -0.919579 -0.433506 -0.258257 -0.132588 -0.427611
227 -0.993557 -0.486321 -0.025282 -0.043304 -0.169156 0.036385 -0.304596 0.409362 -0.147841 -0.352724 -0.760797 -0.887777 -0.150372 0.388863 -0.266091 -0.699708 -0.456096 0.315236 -0.191429 0.270265 -0.441539 0.075551 0.152359 0.123281 -0.164903 -0.178434 0.186724 0.256911 0.798801 0.249496 0.900876 0.206150 0.302422 0.778799 -0.540731 0.291676 -0.093674 0.715204 -0.025746 -0.358451 -0.071888 -0.140130 -0.302272 0.464304 -0.220507 -0.404539 0.302547 -0.221588 -0.262714 -0.176345
54 -0.836555 -0.042599 0.435698 -0.124684 -0.186441 -0.715199 0.028690 -0.157658 -0.109823 0.733744 0.034177 0.021233 0.429161 -0.151178 -0.104708 0.482167 -0.308081 0.092405 0.663897 -0.154883 0.315449 -0.220893 -0.235532 -0.838165 -0.032849 0.020919 0.353531 -0.029862 -0.320968 0.027272 0.132913 0.398814 0.645501 0.758786 -0.409789 -0.050698 0.333017 0.213942 -0.894517 0.343289 -0.132688 -0.611675 0.957120 0.464412 -0.055391 -0.523520 0.421537 0.109875 -0.077701 -0.400997
157 0.127764 -0.231307 0.221199 0.305496 0.878930 -0.263324 -0.276275 -0.747211 -0.377889 -0.077437 0.649079 -0.302126 -0.347035 0.495522 -0.493397 0.432800 -0.363138 -0.420256 -0.232009 -0.064927 -0.903186 -0.110557 0.184688 -1.813637 -0.365253 -0.696176 0.571519 0.176895 -0.272717 -0.228564 -1.345308 -0.616553 0.218425 0.024940 0.442232 -0.159309 0.013964 -0.941032 0.302480 -0.255123 0.369667 -0.383994 0.189727 0.494170 -0.073838 -0.118743 -0.424726 0.163183 -0.174533 0.145765
205 -0.603052 -0.519444 -0.314862 0.019013 0.292049 0.202232 -0.225148 -0.196037 -0.966240 -0.512937 -0.022159 0.201629 -0.126020 0.218428 -0.050103 -0.012369 -0.675219 0.304580 0.709387 0.067427 -0.029604 -0.528484 0.175475 -0.840897 -0.087154 0.548298 0.359649 0.064540 0.143228 0.989015 -0.400482 0.427872 0.198937 0.621862 -0.730142 0.835316 -0.516405 0.337572 -0.704263 0.394480 0.141247 -0.198436 -0.239025 -0.211360 -0.357766 0.171513 -0.354780 0.045904 0.101914 -0.270812
