256 25
255 -0.451909 -0.272983 0.717766 0.294578 0.217972 -0.434770 0.485330 0.335132 -0.246794 0.001718 -0.028572 0.202189 0.639157 -0.092320 -0.807010 0.121680 0.786049 0.361379 -0.153881 -0.316365 -0.541182 1.116683 -1.012938 0.548674 0.365592
0 1.097307 0.641563 0.983142 -0.490044 -0.146622 -0.744434 0.381166 0.966900 -0.458469 -0.271148 -0.093468 0.313798 0.298579 0.510550 -0.046296 0.579475 0.217826 -0.195527 -1.091881 -0.187154 -0.074802 0.343682 -0.390668 -0.214484 -0.590240
138 0.622140 0.247158 -0.230153 -0.074273 -0.136477 0.551554 -0.491597 -0.407929 0.365170 -0.136576 -0.261905 0.405939 0.685703 -0.319457 -0.739825 -0.713760 0.718767 -0.433659 -0.659511 -0.213287 0.249874 -0.068323 -0.341862 -0.143804 -0.219465
171 -0.004033 -0.341738 0.095283 0.302112 0.042269 0.030319 -0.098278 0.029184 -0.098188 0.258758 0.111731 -0.057037 0.681428 0.280852 -0.785861 -0.724256 0.381522 -0.705415 -0.523391 -0.982357 -0.268777 -0.297387 -0.277844 -0.583827 -0.340738
181 0.274218 -0.820657 -0.092547 0.431785 0.361669 0.020351 0.772426 0.027527 -0.802022 -0.098590 -0.044788 -0.304059 0.129188 -0.142559 -0.054254 -0.244387 -0.123182 -1.139745 -0.544923 0.343203 0.359535 -0.270465 -0.497395 -0.105865 0.012270
173 0.443812 -0.481181 -0.106048 0.169348 0.346230 0.333382 0.087375 -0.240867 -0.808441 0.193315 -0.337004 -0.185510 0.835219 0.005777 -0.193041 -0.965764 -0.103149 -0.434569 -0.542253 -0.443928 0.350108 -0.381724 -0.519390 -0.326012 0.097936
170 0.129083 -0.112302 0.008739 0.196899 0.120071 0.352304 -0.591566 -0.155418 -0.122252 0.008086 -0.408920 -0.055578 0.490140 0.564206 -0.671744 -0.617936 0.794572 -0.849304 -0.427187 -1.007668 0.116967 0.280029 -0.284612 -0.291923 -0.090771
162 0.292842 0.043280 0.083433 0.568442 0.146690 0.158257 -0.560629 -0.438050 0.502686 -0.253344 -0.302132 0.350427 0.560906 -0.019380 -0.157284 -0.665586 1.053620 -0.839707 -0.233646 0.212586 0.545995 0.356435 -0.219752 -0.160488 -0.473246
182 -0.082840 -0.558739 0.116637 0.376141 0.064177 0.010943 0.506062 0.007827 -0.070085 -0.365819 -0.170005 0.003038 0.414374 -0.283706 -0.773772 -0.460328 -0.005740 -0.334978 -0.761411 0.281511 1.012311 -0.168910 -0.214294 -0.670518 0.103331
93 0.342521 -0.161007 -0.305539 -0.041268 -0.197528 -0.183284 0.249493 0.026737 -1.085204 0.819323 -0.289600 0.178394 -0.157796 -0.101763 -0.480189 -0.116473 0.014924 -0.560191 0.136565 0.562851 0.520850 -0.462848 -1.090536 0.319953 0.019894
117 0.468271 -0.213768 0.156279 -0.018504 -0.456406 -0.001079 0.138454 0.500272 -0.653519 0.216141 -0.706767 0.169023 -0.144643 0.156012 0.164044 -0.204719 -0.146750 -0.967423 0.519999 0.753210 0.337665 -0.199343 -1.041746 -0.118107 0.512957
133 0.739099 -0.046672 -0.728760 0.300134 0.598603 -0.169844 0.679277 0.046334 -0.381584 -0.412331 -0.706808 0.042693 0.170761 -0.783001 -0.452887 -0.186851 0.363119 -0.676141 -0.319776 0.223843 0.311919 -0.810390 -0.283079 0.494341 -0.046668
161 0.725314 0.346297 -0.160418 0.551085 0.651566 -0.199940 -0.074613 -0.413562 -0.349496 -0.246919 -0.980698 0.027407 0.539563 -0.236726 0.257156 -0.897290 0.647699 -0.410091 -0.070592 -0.248316 0.372539 -0.421374 -0.035282 0.107683 0.129437
42 0.577759 0.018342 0.062041 -0.135083 -0.269027 0.191585 -0.426856 -0.245709 0.242273 -0.101455 -0.311799 -0.240914 0.767723 0.836222 -0.950663 -0.567444 0.314593 -0.604980 -0.969700 -0.750547 0.192426 -0.073328 -0.147149 0.322595 -0.003771
21 0.650784 0.094085 -0.620609 0.175351 -0.151276 -0.909479 0.506911 0.080516 -0.150217 0.065597 -0.488859 -0.104639 -0.016348 -0.160853 -0.384937 0.350897 0.380262 -0.741518 0.473083 -0.142515 -0.021130 -0.732709 -0.530746 0.463824 0.385363
187 -0.369727 -0.194081 0.186799 -0.075182 -0.476163 -0.154027 0.512668 -0.256619 -0.848417 -0.156445 0.896679 -0.464685 0.740924 -0.242748 -0.524209 -0.173395 0.576999 -0.463070 -0.443919 -0.265542 -0.048591 -0.265818 -0.061844 -0.640927 0.209487
85 0.693213 -0.331434 -0.471030 0.497076 -0.376821 -0.473914 0.499397 0.033907 -0.548334 0.081470 -0.492021 -0.174634 -0.531598 0.011489 -0.476075 0.385958 0.341503 -0.981550 0.293445 0.208227 -0.028769 0.081351 -0.773110 0.149308 0.263469
109 0.095781 -0.478221 -0.004914 0.138025 -0.390259 -0.625031 0.136455 0.037910 -0.747643 0.519763 -0.301700 -0.823299 0.618576 -0.339521 -0.379097 -0.632860 -0.174004 -0.311202 0.264880 0.499030 0.688440 0.126948 -0.373843 -0.212947 0.076547
87 0.451269 -0.190422 -0.249140 0.406351 -0.180078 -0.628251 0.133241 0.001942 -0.762809 0.249701 -0.413500 0.664126 -0.440387 -0.162085 -0.908423 0.429348 0.129211 -0.652838 0.508038 0.035068 -0.393577 -0.567393 -0.954725 0.058092 -0.032032
186 -0.578511 0.326120 0.270935 0.392342 0.018742 0.026237 -0.124804 -0.215039 -0.381801 -0.416170 0.037847 -0.353595 0.510668 0.255370 0.066266 -0.307619 1.115192 -0.917899 -0.285222 -0.139858 0.748783 -0.149962 0.110165 -0.521660 0.163018
214 -0.095538 -0.490730 -0.287624 0.329593 -0.188484 -0.378028 -0.096151 0.294161 0.088196 0.188121 -0.217253 0.519829 0.132849 -0.359681 0.461136 -0.094795 -0.196861 -1.210853 -0.129329 0.438671 0.641593 0.215963 -0.816965 -0.804580 0.935896
174 -0.316088 0.102302 0.058703 -0.310602 -0.067789 0.509007 -0.073229 -0.037606 -0.454513 0.130081 0.378299 -0.099572 0.759167 -0.154622 -0.483020 -0.370201 0.929840 -0.604605 -0.510807 -0.622787 0.765500 -0.348803 0.262176 -0.540600 0.095410
191 -0.561083 -0.442030 0.538894 0.185297 0.549864 -0.075223 0.669282 0.373319 -0.101880 0.157218 0.488683 -0.208712 0.753195 -0.695764 -0.861779 -0.402617 0.716720 -0.135390 -0.414109 -0.376399 -0.379149 0.686563 -0.513608 0.242907 0.062014
139 0.367340 -0.316289 0.370442 0.277760 -0.364942 0.125005 0.068116 -0.522555 0.721563 -0.001167 0.363414 0.267266 0.954347 -0.836204 -0.541446 -0.634234 0.773514 -0.481753 0.174771 0.286287 -0.225182 -0.145106 -0.144593 -0.434982 -0.376364
218 -0.479633 -0.375324 -0.100894 0.200670 -0.494873 0.005572 -0.385815 0.674266 -0.058159 -0.456461 -0.747784 0.238599 0.052117 0.289685 -0.155052 -0.963304 0.540688 -0.257844 -0.178945 0.000863 1.004027 -0.044504 -0.537691 -0.501514 -0.198772
213 0.092674 -0.647476 -0.056832 0.461267 -0.335393 -0.442183 0.301998 0.089074 -0.527098 -0.046761 -0.331802 -0.114946 -0.341813 -0.032574 0.493061 -0.102723 0.115001 -1.056387 -0.047359 0.380816 0.070261 0.225957 -1.218459 0.115594 0.280616
104 0.313181 -0.623191 -0.418558 0.040345 0.505818 -0.417511 -0.597563 0.242834 0.158379 -0.383646 -0.820212 0.219856 0.413909 0.352901 -0.020944 -0.467659 1.028657 -0.566552 0.268940 0.504219 0.815325 0.383031 0.168593 -0.583472 -0.022377
134 0.204590 0.312118 -0.193160 0.431289 0.244449 -0.468097 0.244808 -0.005468 0.349829 0.144656 -0.514161 0.172167 0.513483 -0.916550 -0.592127 -0.526699 0.372494 -0.540268 -0.559587 -0.124695 0.664262 -0.332124 0.541416 -0.289037 0.194412
97 0.587857 -0.158622 -0.474073 -0.205774 -0.064298 -0.778252 -0.328690 0.209234 -0.489754 0.124051 -1.118067 0.064535 0.372485 -1.039917 0.012827 -0.525335 0.030423 -0.261971 0.157801 0.370049 0.453581 -0.125980 -0.063371 0.087015 0.066436
106 0.115707 -0.419958 -0.376204 0.175424 0.212968 -0.089410 -0.947971 0.591382 -0.302113 0.094399 -0.668638 -0.058204 0.455139 0.449554 -0.411163 -0.407097 0.542130 -1.074749 0.093739 -0.200731 0.568800 0.450218 0.092877 -0.594690 -0.146548
215 -0.159123 -0.642653 0.263128 0.415779 -0.027494 -0.643628 0.097242 -0.082456 -0.518307 0.258521 0.149134 0.652603 -0.178891 -0.014657 -0.101517 -0.318805 -0.071368 -0.772039 0.007473 0.275506 -0.270083 -0.392348 -1.344504 0.255100 0.100271
221 -0.129388 -0.662124 0.887997 -0.130242 -0.380948 -0.102085 0.147339 0.410129 -0.765404 0.237472 -0.394015 0.327163 0.018436 -0.103571 0.067428 -0.567211 -0.342304 -0.317099 -0.119265 0.416176 0.360295 -0.252365 -0.984501 -0.081665 0.070392
119 -0.205411 0.265519 0.849663 -0.028215 -0.445461 -0.121086 0.078235 0.413778 -1.032751 0.618671 -0.245524 0.813281 -0.114947 0.148519 -0.526978 -0.394465 -0.209786 -0.391039 0.274567 0.287776 0.303526 -0.524197 -0.807910 0.251763 -0.067683
40 0.788632 0.222681 0.214125 -0.374228 0.227022 -0.510830 -0.209968 -0.433977 0.528910 -0.316992 -0.363291 0.237860 0.546253 0.682085 -0.237488 -0.723243 0.799646 -0.281598 -0.338028 -0.067407 0.381636 -0.145103 -0.237784 0.220469 -0.121233
34 0.957594 0.119883 0.278215 -0.228898 -0.569562 0.134246 -0.010564 -0.696885 0.355541 -0.412771 -0.247803 0.357512 0.715937 -0.042352 -0.819558 -0.422009 0.550389 -0.325937 -0.501068 0.315573 -0.209861 0.518548 0.123028 0.345615 -0.300843
183 -0.460071 -0.469656 0.777492 0.328852 0.250374 -0.089626 0.462925 0.262806 -0.744614 0.193771 0.541634 0.175760 0.049026 -0.362768 -0.415637 -0.793247 -0.176495 -0.749885 -0.605153 0.017670 0.249960 -0.486659 -0.587137 0.138884 -0.266307
88 0.371595 -0.205217 -0.719921 -0.824689 -0.498199 -0.535998 0.347533 0.094040 0.284303 -0.065867 -0.679051 0.563540 -0.212677 -0.623816 -0.124001 -0.334999 0.336710 -0.989305 0.189712 0.398731 0.081413 0.674097 -0.431581 -0.534074 0.254540
223 -0.675969 -0.058050 0.828875 0.259161 -0.410154 -0.311094 0.505755 0.571901 -0.610719 0.204390 -0.359582 0.611062 0.112088 0.132263 -0.681623 -0.421510 0.095252 0.150575 0.153166 -0.090384 0.069240 0.288047 -0.983399 0.375811 -0.212141
86 0.454182 -0.196094 -0.715164 0.660155 -0.461876 -0.235512 0.162489 0.195325 0.184354 0.087641 -0.490833 0.264669 -0.004438 -0.266290 -0.434293 0.280738 0.215571 -1.051865 0.383146 0.419566 0.528068 0.428379 -0.591057 -0.761140 0.951119
219 -0.409135 -0.682786 0.294598 0.359173 -0.674348 -0.724327 0.257392 0.465062 -0.153384 -0.431585 0.127077 -0.265388 0.290653 -0.097801 -0.687613 -0.543659 0.153403 0.143912 -0.205663 0.222601 0.295761 -0.341246 -0.701670 -0.703438 -0.169481
136 0.553218 0.367729 0.260464 -0.200941 0.058449 -0.521966 0.031128 -0.725666 0.547042 -0.347818 -0.366379 0.431243 0.340960 -0.509185 -0.233602 -0.325162 0.977668 -0.324124 -0.164953 0.082075 0.498382 0.418478 -0.016409 0.382361 -0.327554
29 0.247462 0.138029 0.670416 -0.358826 -0.325012 -0.223105 0.124942 0.750210 -0.104758 0.399105 -0.386801 0.055941 0.336362 0.025509 -0.009002 -0.369924 0.113281 -0.470401 0.579243 0.525381 0.787552 -1.279463 -0.430914 0.427094 0.290169
45 0.653437 -0.553265 0.784561 0.072596 -0.290584 0.114768 0.314564 -0.448493 -0.098839 -0.434268 -0.051595 -0.625062 1.018241 0.051380 -0.330013 -0.776297 -0.371532 -0.593511 -0.193188 0.485689 0.276296 -0.395170 -0.328405 0.405943 0.308625
107 -0.098798 -0.679342 -0.334388 0.459689 -0.078386 -0.465602 -0.694999 0.834493 -0.325121 0.035854 -0.141791 -0.144492 0.745948 0.124088 -0.353705 -0.413344 0.430804 -0.655047 0.164291 -0.269790 0.049860 -0.519286 0.280703 -0.803197 -0.059576
168 0.329540 0.149279 0.083530 -0.002674 0.751704 -0.287294 -0.271455 -0.333295 0.141603 -0.275646 -0.676175 0.432412 0.103763 0.619994 -0.080257 -0.578473 1.176601 -0.655015 -0.071164 -0.450146 0.399225 0.462442 -0.162838 -0.288347 -0.063567
8 1.154815 0.441872 0.438054 -0.860422 -0.298466 -0.629838 -0.190085 -0.133796 0.280110 -0.347450 -0.259590 0.423557 0.660839 0.015216 -0.413471 0.040636 0.104401 -0.527712 -0.471868 0.245290 -0.260146 0.538404 0.042531 0.319745 -0.131549
252 -0.152999 -0.134058 0.413044 0.093031 0.389428 -1.127706 0.380807 0.370420 -0.649638 -0.013729 0.306821 0.623236 0.171798 0.450703 -0.932561 -0.449924 0.788405 0.693222 -0.148009 -0.097534 -0.523855 1.188955 -0.208791 0.390758 0.708271
237 0.081481 -0.765316 0.639993 -0.172353 -0.242339 -0.084640 0.259749 -0.383987 -1.204767 -0.367169 -0.190299 -0.275345 0.663217 -0.701512 0.165320 -0.424326 -0.211656 -0.155747 -0.245416 -0.218884 -0.311903 -0.317246 -0.393828 -0.527736 0.730573
90 -0.021199 0.003789 -0.957733 -0.017834 -0.686961 0.284643 0.107698 0.548720 -0.012268 0.038067 -0.777915 0.203399 0.003302 0.042293 -0.308946 -0.490181 0.770634 -1.251132 0.474928 -0.291881 0.345278 0.670884 -0.588231 -0.758656 0.002925
253 0.038987 -0.863994 0.799022 0.198287 0.129160 0.057056 0.207091 0.534810 -0.247066 0.090887 -0.564049 -0.073536 0.502917 -0.497131 -0.051833 -0.470251 0.097941 0.199888 -0.045125 -0.101819 -0.353366 0.724101 -1.117316 0.426759 0.649783
43 0.224038 -0.257265 0.336935 -0.053429 -0.353255 -0.166662 -0.014109 -0.306687 0.293372 0.042806 0.219642 -0.114287 0.933083 0.413797 -0.909613 -0.709599 0.176908 -0.641244 -0.601279 -0.498791 -0.214410 -0.669373 0.107263 -0.062082 -0.105662
175 -0.204116 -0.191442 -0.119022 -0.062937 0.409207 0.465024 -0.338718 0.427382 -0.160258 0.503805 0.863146 -0.229845 0.863727 -0.181390 -0.530315 -0.736227 1.091777 -0.221476 -0.301830 -0.737095 -0.152448 0.019136 -1.037341 0.021618 0.107400
130 0.777593 0.550090 0.701778 -0.029491 0.285361 -0.136629 -0.047460 -0.252454 0.317269 -0.304789 -0.054628 0.043607 0.658251 -0.480384 -0.548888 0.143739 0.295577 -0.622732 -0.728418 0.318794 0.433110 0.492216 -0.207645 -0.479169 -0.379822
91 0.004525 -0.406145 -0.474788 0.376043 -0.903186 -0.656361 0.504440 0.287653 -0.258226 0.031837 -0.052125 -0.221074 0.260610 -0.496770 -0.608393 -0.241295 0.242428 -0.564581 0.665308 0.042087 -0.261080 -0.122348 -0.512526 -0.872716 0.110870
27 -0.296931 -0.078186 0.243644 0.042603 -0.474881 -1.428410 0.374913 0.259818 0.422098 0.473240 0.027729 -0.811644 0.952976 -0.292759 -0.593158 -0.510624 0.193486 -0.511671 0.318030 -0.271319 0.207830 -0.952197 0.285485 -0.062191 0.318798
251 -0.726129 -0.208253 0.577178 -0.025915 -0.634334 -0.136332 0.560658 0.582186 -0.787077 -0.882637 -0.320071 -0.159846 0.632615 -0.195818 -0.434255 0.071432 0.639328 0.125289 0.201469 -0.284610 -0.613119 0.166196 -0.459437 -0.372716 0.365816
192 0.612979 0.609422 0.438227 -0.313451 -0.515333 -1.236329 0.228257 1.005789 -0.633371 -0.637385 0.641240 0.441908 0.060022 0.160877 -0.034478 -0.057538 -0.082583 -0.085435 -1.301462 -0.205427 -0.176278 0.666186 -0.184345 0.069298 0.014724
127 -0.555300 0.188609 0.432191 0.559989 0.080667 -0.502785 -0.282476 0.655801 -0.933320 0.359739 -0.462282 0.281624 0.393459 -0.016505 -0.909608 0.358977 0.559793 0.242187 0.434521 0.321186 -0.334916 0.303118 -0.766947 0.568102 0.044438
184 -0.289948 0.211535 0.098911 -0.635631 0.275414 -0.679463 0.365362 -0.760450 -0.292015 -0.402244 0.068333 0.125020 0.347504 -0.234627 -0.378766 -0.268124 1.073747 0.095142 -0.498863 0.344760 0.710636 -0.284898 -0.026431 -0.821679 0.436172
2 0.948183 0.682202 0.728561 -0.158818 -0.358914 -0.208999 0.047765 0.061401 0.189508 0.264502 0.106195 0.261384 0.903691 0.442535 -0.394154 0.375602 -0.084829 -0.590367 -1.142541 0.182959 -0.147013 0.555493 -0.005257 -0.412342 0.098259
81 0.355962 -0.263023 -0.416936 0.652708 -0.467869 -0.194328 0.359670 0.385194 -0.842745 0.514350 -0.646775 -0.009467 -0.122181 -0.590814 0.669719 -0.108586 0.827808 -0.804217 0.055388 0.576617 -0.147835 -0.313274 0.154638 0.304278 0.380429
69 0.731173 -0.255276 -0.778049 -0.037224 -0.965282 0.016602 0.353851 0.438524 -0.466477 0.366066 -0.605696 -0.171619 0.043878 -0.637917 0.127275 -0.073597 0.761659 -0.161910 0.012572 0.377788 -0.171928 -0.535424 -0.296681 0.159957 0.720801
110 -0.810152 0.149395 -0.323297 -0.013681 -0.653995 -0.325554 0.029880 -0.069797 -0.707346 0.115199 0.270874 -0.662169 0.894093 -0.348593 -0.684126 0.165553 0.988467 -0.342809 0.420746 0.405260 1.217824 0.115724 -0.116139 -0.733706 -0.305740
10 1.176774 0.394402 0.078361 -0.811559 -0.123627 0.535126 -0.553341 0.355208 0.162282 -0.371175 -0.216878 0.229022 0.925789 0.233841 -0.655993 -0.124387 0.227899 -0.586592 -1.133182 -0.280750 -0.424398 0.058371 -0.361716 -0.330698 -0.088771
22 0.417510 0.041482 -0.814998 0.304798 -0.423250 -0.631760 0.323776 0.209104 0.706411 0.406539 -0.042981 0.186269 0.423915 -0.312592 -0.237729 0.152079 0.494695 -0.822588 0.271816 0.003759 0.362603 -0.198045 -0.010475 -0.261225 1.023947
160 0.363637 0.569429 0.686099 0.102124 0.739501 -0.808991 -0.370628 0.174056 0.593141 -0.208613 0.059863 -0.006045 0.134530 0.301024 0.399843 -0.121100 1.347669 -0.626009 -0.301347 -0.273805 0.695443 0.075394 -0.581389 -0.354645 -0.639423
216 -0.042626 -0.541409 0.011082 -0.751243 -0.184918 -1.029177 -0.037939 0.228592 0.076396 -0.546466 -0.639631 0.433376 -0.296048 -0.492860 -0.435330 -0.753324 0.004300 0.206792 -0.815537 0.448483 0.763286 0.254784 -0.493097 -0.440274 0.046503
33 1.487899 0.557562 0.260444 -0.154672 0.131074 -0.532931 0.279480 -0.646500 -0.309498 -0.362181 -0.767622 -0.048026 0.515485 -0.430263 -0.281564 -0.851457 0.277575 0.080555 0.091212 0.085595 -0.035263 -0.188909 0.209986 0.426472 0.289243
32 1.159587 0.480617 0.795484 -0.626931 -0.050565 -0.853259 -0.083733 -0.100305 0.526328 -0.277293 0.107202 0.000148 0.144793 -0.009027 -0.295601 0.063993 0.948771 -0.155247 -0.129881 0.301196 0.149605 0.345537 -0.251035 0.277271 -0.415598
95 -0.271558 0.102300 -0.439643 0.423149 -0.349738 -0.161836 0.705626 0.271582 -0.889796 0.490520 -0.391988 0.551823 -0.113761 -0.118593 -1.208552 0.071893 0.484401 -0.013990 0.482279 -0.014505 0.065485 0.289987 -1.261537 0.820469 -0.251128
128 0.890621 0.526097 0.595880 -0.317222 0.696357 -0.737167 0.601609 0.322242 -0.024460 -0.500510 -0.056543 0.016376 0.203971 -0.329410 -0.037118 0.499761 0.707997 -0.298551 -0.627814 -0.054245 0.699738 0.141312 -0.418534 -0.251974 -0.819835
11 0.848310 -0.117743 1.043939 -0.283982 -0.446382 -0.126580 0.004664 0.139539 0.336244 -0.143931 0.603714 -0.096841 1.031141 -0.330057 -0.514639 0.091256 0.172879 -0.698108 -0.195914 0.456168 -0.915747 -0.119288 -0.130170 -0.632620 -0.256231
26 -0.074779 0.156967 -0.541428 -0.295855 -0.376678 -0.356776 -0.120527 0.656485 0.313602 0.286517 -0.418905 -0.111433 0.665415 0.317714 -0.377290 -0.800243 0.468978 -0.959092 -0.071595 -0.712861 0.804794 -0.244431 0.528225 0.328309 0.197952
235 -0.326204 -0.258241 0.500286 0.228996 0.058909 0.023502 -0.165919 0.182586 -0.472327 -0.514167 0.027237 0.134282 0.693765 0.251061 -0.149259 -0.409784 0.677299 -0.483637 -0.095014 -0.614638 -0.401139 -0.722727 -0.133176 -0.892016 0.383381
247 -0.401493 -0.482054 1.152148 0.060552 -0.102997 -0.029322 -0.007206 0.753660 -0.076025 0.055692 0.158237 0.708588 -0.011748 -0.210225 -0.268099 -0.360723 0.109657 -0.093329 -0.300284 0.076402 -0.234252 -0.224319 -1.423511 0.212923 0.406417
209 -0.357391 -0.344008 0.087738 0.020361 -0.592538 -0.640045 -0.211428 0.491547 -0.378127 0.642613 -0.616895 -0.298123 -0.159880 -0.949579 0.793355 -0.803444 0.554242 -0.144533 -0.880681 0.607881 -0.028780 -0.118690 -0.327641 0.461327 0.513816
232 -0.136151 0.321230 0.451769 0.034518 0.693517 -0.407345 0.058698 -0.600147 -0.141771 -1.025011 -0.582044 0.408724 0.123048 0.513366 0.389451 -0.285314 1.468271 -0.435496 0.189782 0.108555 0.546312 -0.033271 -0.243711 -0.842555 0.525481
238 -0.712132 0.192836 0.421945 -0.243019 -0.541395 -0.030386 0.311905 -0.475527 -1.129667 -0.801790 0.137123 -0.114745 0.651387 -0.317238 -0.255128 0.334502 0.809555 -0.358360 -0.331790 -0.288741 0.042189 -0.202726 -0.042232 -0.638277 0.654968
98 0.174236 -0.163927 -0.585195 -0.278993 -0.437421 -0.277129 -0.611851 0.031713 0.243804 0.015842 -0.165006 0.223367 0.680348 -0.956310 -0.560340 -0.270536 0.638068 -0.678363 0.009952 0.916028 0.662033 0.689918 0.105939 -0.178416 -0.617162
46 0.015870 -0.032894 0.536289 -0.456544 -0.530250 0.260192 0.304128 -0.288267 0.108107 -0.535581 0.534440 -0.441190 0.974948 -0.129705 -0.499729 -0.053629 0.560181 -0.837462 -0.261823 0.263124 0.404184 -0.589234 0.344864 0.445073 0.324069
234 -0.217860 0.206886 0.427134 0.128547 0.277483 0.495084 -0.403869 -0.250785 -0.581629 -0.771386 -0.614394 0.273547 0.325310 0.552257 -0.180761 -0.146473 0.898094 -0.718520 -0.223964 -0.623718 -0.127399 0.017228 -0.441099 -0.592718 0.520959
125 0.073194 -0.441014 0.644363 0.250439 0.256262 -0.187819 -0.318646 0.534807 -0.615830 0.601776 -1.006511 0.058347 0.149437 -0.396554 -0.357475 -0.229919 0.010539 -0.147193 0.333030 0.612291 0.015575 0.388845 -0.821976 0.691712 0.348026
239 -0.729654 -0.269299 0.631797 -0.217988 -0.070062 -0.505243 -0.017502 0.017588 -0.846566 -0.093277 0.786072 -0.191079 0.765470 -0.615209 -0.173120 -0.068885 0.853018 0.068925 -0.043503 -0.491906 -0.729675 0.168598 -0.937021 -0.130412 0.473682
23 0.424616 0.042098 -0.036082 0.209332 -0.271111 -1.133701 0.181294 0.055754 -0.136683 0.378965 -0.225296 0.423062 0.006227 -0.337420 -0.593611 -0.003874 0.330961 -0.442116 0.693610 -0.027737 -0.620613 -1.287697 -0.505814 0.395315 0.104042
132 0.434417 -0.017315 0.383786 0.140972 0.639316 -0.293257 1.116102 -0.034519 -0.223519 -0.104270 -0.870271 0.153550 0.098577 -0.623259 0.050580 -0.186569 0.964434 -0.532057 -0.611956 -0.052589 0.537420 -0.467065 0.961310 0.697292 -0.419244
135 0.371812 0.067085 0.545403 0.282082 0.576583 -0.188834 0.369876 0.187848 -0.143917 0.151201 -0.538264 1.010459 0.103830 -0.960508 -0.423058 -0.567742 0.331497 -0.545158 0.078384 0.222053 -0.121537 -1.066943 -0.017037 0.166984 -0.612935
254 -0.662670 0.335652 0.675758 0.562201 0.032773 0.131886 0.275664 0.087665 -0.237649 -0.454392 -0.508321 0.345049 0.738937 -0.126083 -0.717937 0.563969 0.752812 0.181182 -0.233679 -0.007835 -0.259830 0.404202 -0.443148 0.065155 0.979033
245 0.264178 -0.893683 0.206457 0.237587 -0.173724 0.189360 0.224581 0.784354 0.028035 -0.313938 -0.330954 0.173344 -0.111634 -0.066748 0.085931 0.075781 0.207711 -0.561894 0.013519 0.378255 -0.427254 0.090234 -1.623798 -0.001960 0.839391
212 0.060918 -0.899906 -0.055402 -0.011912 0.070143 -0.477806 0.243561 0.051329 -0.426875 0.504223 -0.370437 0.033602 -0.215795 0.745545 1.062815 -0.481316 0.802334 -0.808328 -0.477263 0.711868 -0.235086 0.059289 -0.763257 -0.097048 0.546161
1 1.578789 1.000955 0.257469 -0.583111 -0.232736 -0.570761 0.380195 0.820963 -0.646441 0.136767 -0.238982 -0.282395 0.145372 -0.079430 0.168292 -0.005010 0.353917 0.363927 -0.349978 -0.555957 0.046984 -0.366764 -0.690455 -0.434849 0.154225
63 -0.076098 -0.868482 0.802152 -0.083758 -0.251554 -0.197806 0.503247 0.799419 0.264623 -0.532323 -0.280747 0.378644 1.066541 0.115216 -0.536403 0.847321 0.651779 0.174076 -0.024303 -0.554075 -0.199184 0.234018 -0.437955 1.211733 0.450851
24 0.232998 0.140306 -0.267357 -0.873432 -0.099380 -1.185013 0.066347 0.403409 0.615987 0.105215 -0.512571 0.323630 0.231742 -0.536719 -0.342315 -0.554139 0.347179 -0.470708 -0.101860 -0.293193 0.357292 0.095307 0.303390 0.375076 0.359567
84 0.690646 -0.676233 -0.219957 0.072272 -0.130939 -0.476507 0.659586 -0.307413 -0.607860 0.309595 -0.508293 -0.064728 -0.480860 0.678929 0.205075 0.258222 0.924234 -0.774116 -0.104868 0.858159 -0.312993 0.164007 -0.250257 -0.200447 0.535068
180 -0.151561 -0.982537 0.423224 -0.486151 0.405803 -0.318408 0.812101 -0.085845 -0.584518 0.814577 -0.056423 -0.400040 0.086183 -0.168912 -0.069528 -0.499093 0.640601 -0.208423 -1.039003 0.547802 0.199109 -0.216710 0.101295 -0.322990 0.157111
189 -0.049017 -1.106018 0.662999 0.260662 0.595218 0.540971 0.352849 0.392549 -0.378899 0.242176 -0.042442 -0.323357 0.668753 -0.995903 -0.243211 -0.957178 0.038524 -0.460276 -0.563809 0.104608 -0.258881 0.194715 -0.468771 0.253441 0.445158
118 -0.067525 0.170820 0.179112 0.194493 -0.799632 0.132260 -0.152398 0.658106 -0.224512 0.350708 -0.779786 0.506227 0.228676 -0.112292 -0.536419 -0.498070 -0.190185 -0.024618 0.156951 0.563313 1.156453 -0.314809 -0.604237 -0.881382 0.720235
3 0.892334 -0.535871 1.307838 -0.016744 -0.178471 -1.013877 0.317147 0.707483 0.063276 0.053986 -0.001095 0.488330 0.687276 -0.134740 0.037252 1.203872 0.423881 -0.129072 -0.145214 -0.619233 -0.524659 -0.074159 -0.046199 -0.473220 -0.502166
225 -0.033554 0.619332 0.084520 0.037760 -0.028084 -0.710710 -0.012170 -0.504915 -0.646535 -0.722143 -0.694895 -0.055932 0.336126 -1.246121 0.313601 -0.559005 0.550550 0.115502 -0.575641 -0.140891 0.099157 -0.534487 -0.072816 0.200350 0.602158
154 0.181591 -0.198960 0.074287 0.225391 -0.339556 0.229325 0.133480 0.030667 -0.342243 -0.247325 -0.889916 0.334347 -0.457901 0.275915 -1.000228 -0.517535 0.862505 -1.164594 0.025955 -0.714293 1.253508 0.558475 0.648161 -0.903243 -0.058626
172 0.395423 -0.226903 0.173272 -0.331607 0.302649 0.107351 0.168260 0.370392 -0.365382 -0.119926 0.953369 0.320407 0.241436 0.748057 -0.402429 -0.714884 1.277355 -0.378299 0.102300 -0.415694 0.446652 0.360266 0.477497 -0.710875 0.357333
17 0.538343 0.353278 0.035130 -0.013163 -0.298228 -0.608357 0.582649 0.523345 -0.327744 0.546407 -0.811295 -0.020358 0.134013 -0.474041 0.145565 -0.224746 1.032773 -0.128533 0.191601 -0.099158 -0.108704 -0.752271 0.640586 0.492159 0.369776
31 -0.143983 0.549587 0.770301 -0.170533 -0.248414 -0.019699 0.369984 1.020387 0.190763 0.285053 -0.412598 0.304026 0.221777 -0.140061 -0.739162 -0.040316 0.823303 0.131740 0.654425 0.091346 0.142990 -0.599643 -0.503199 1.170555 0.425318
129 1.358754 1.112688 0.272825 -0.256011 0.490338 -0.477767 0.253683 0.125397 -0.363894 0.034960 -0.341391 -0.261161 0.018268 -0.610993 0.062626 -0.136234 0.896618 0.155328 0.005948 -0.275372 0.722145 -0.450570 -0.514336 -0.141064 -0.180335
240 0.327854 0.410439 0.207983 0.211050 1.047998 -1.589380 1.110584 0.729843 -0.304433 -0.387244 0.331760 0.632034 1.244642 0.606651 0.278919 -0.795004 0.153664 -0.045595 -0.557716 -0.224125 -0.539014 0.746803 -1.208897 0.287043 -0.105407
177 0.825993 -0.013511 0.207629 0.554116 0.071348 0.050096 0.961362 0.417014 -1.027307 -0.496618 0.356211 -0.123071 0.565344 -0.516473 0.395841 -0.964966 0.518401 -0.477383 0.531197 -0.232690 0.195305 0.152274 0.749964 0.033883 0.524138
178 0.510983 0.513359 0.350860 0.785158 -0.213111 0.152146 0.411782 -0.230001 -0.388175 -0.634061 0.791540 0.352843 0.512331 0.193171 -0.655462 -0.385515 0.566204 -0.424872 -0.269709 0.309521 0.702968 0.413776 0.207298 -0.318387 0.005505
20 0.802358 -0.314474 -0.278382 0.117952 -0.208130 -0.957637 0.717244 -0.051639 0.200241 0.323303 -0.159654 -0.027995 -0.052773 0.330840 0.214577 0.071085 1.198450 -0.447191 0.070472 0.449900 -0.483644 -0.612243 0.081529 0.282308 0.596506
47 0.233907 -0.294669 0.686769 -0.411296 -0.203415 0.331710 0.035327 0.216748 0.657000 -0.227280 0.944570 -0.609670 1.083654 -0.291240 -0.692566 -0.257450 0.913212 -0.352867 0.003639 0.326541 -0.407350 -0.049770 -0.767195 1.035052 0.471668
236 0.001348 -0.092906 0.454173 -0.418617 0.031237 -0.630616 0.657818 -0.012087 -1.204672 -0.707541 0.896360 0.143650 -0.093737 0.563661 -0.601363 -0.208388 1.136108 0.119480 0.185957 -0.010266 -0.293928 0.343215 0.190592 -0.960336 0.729974
222 -0.892637 0.485319 1.050269 -0.148771 -0.606574 0.133402 0.389637 -0.177985 -0.544799 0.300107 -0.244849 1.012217 0.202936 0.095775 -0.342190 -0.314000 0.037208 -0.617746 -0.073653 0.145349 0.206004 -0.153094 -0.575303 -0.321736 0.197226
197 0.511812 -0.138039 -0.475330 0.505396 -0.943891 -0.411689 0.308633 1.223142 -0.361212 -0.724017 0.365073 0.008614 -0.364505 -0.441436 0.335856 -0.288343 0.655166 -0.442050 0.096146 0.156799 -0.361609 -0.124056 -0.290367 0.666738 0.841788
71 0.451973 0.057782 0.200579 0.200043 -0.802121 0.406890 0.063202 0.560222 -0.655309 0.819574 -0.536801 0.693546 0.027175 -0.588951 -0.201107 -0.526686 0.819833 0.206874 0.149238 0.177250 -0.583751 -1.360088 -0.105294 -0.177836 0.158959
203 0.268958 -0.268192 0.658279 0.753011 -0.798840 -0.085110 -0.269987 0.173223 -0.289579 -0.813490 0.721812 0.371960 0.622333 0.121859 -0.374217 -0.559821 0.527245 -0.117609 -0.182312 0.588608 -0.563536 -0.523395 -0.008908 0.016679 0.017340
5 1.293033 0.377932 -0.605248 -0.392730 0.013792 -0.172473 0.692426 1.165606 0.029525 -0.275347 -0.176655 -0.397414 -0.020499 -0.142627 -0.532313 0.526383 0.606807 -0.369042 -0.378206 0.166962 -0.098486 -0.855296 -0.785542 0.146494 0.452348
169 0.902265 0.009472 -0.032608 0.393696 0.044353 0.434480 -1.159307 -0.834401 -0.760537 0.354308 -0.707161 -0.439370 -0.144981 -0.122415 -0.614191 -0.655949 0.807708 -0.747510 -0.381260 -1.290378 0.302362 0.096533 -0.629848 0.078915 0.468207
244 -0.005911 -1.043947 0.579136 -0.758678 0.334782 -0.522259 0.126860 0.239421 -0.006189 0.915872 -0.541990 0.087682 -0.326849 0.231021 -0.176205 -0.534070 0.916822 0.601750 -0.948845 0.624910 -0.434871 0.547687 -0.764721 0.051981 0.984141
200 0.613851 0.528178 0.210934 0.357979 -0.560788 -0.900643 -0.351747 -0.063481 0.051167 -1.339732 0.137335 0.534489 0.078270 0.238814 -0.389670 -0.663463 0.540723 0.052941 -0.610448 0.307188 0.245111 0.409563 0.174357 0.736085 0.019361
246 -0.078847 -0.557204 0.403741 0.516175 -0.331197 0.074751 -0.095076 0.847075 0.518122 -0.228641 -0.500906 0.473633 0.090660 -0.297568 -0.806681 -0.124757 0.074724 0.392698 -0.402095 0.346195 0.526481 0.291314 -1.000085 -0.693440 0.927335
44 0.813706 -0.233027 0.638796 -0.512946 -0.321962 -0.156872 0.332377 0.153679 0.159875 -0.400690 1.082766 -0.104850 0.562492 0.486966 -0.370107 -0.289063 1.019089 -0.370506 0.274781 0.495598 0.269581 0.166542 0.409946 0.217193 0.372114
224 -0.323150 0.938437 0.491809 -0.453603 0.058155 -1.184263 -0.197894 0.055816 -0.112896 -1.002374 0.117774 0.023394 -0.108272 -0.519686 0.230245 0.308955 0.868738 -0.100364 -1.353601 0.064624 0.262121 -0.182750 -1.065095 -0.054124 -0.221860
243 -0.417613 -0.412787 0.329027 0.851823 0.294317 -1.251906 0.601149 0.506885 -0.387354 -0.057022 0.744261 1.021165 0.894790 -0.089540 0.396443 -0.459487 0.788488 0.408478 -0.453462 -0.353735 -0.280685 0.315366 -0.981368 0.646087 0.076166
176 0.636681 0.406589 0.212358 0.179040 0.610180 -0.688732 1.325358 0.652173 -0.810379 -0.791604 1.106292 0.199003 0.589107 0.126301 0.034685 -0.257392 0.346502 -0.754156 -0.331977 -0.197459 0.472302 0.558395 -0.120328 -0.449528 -0.543795
116 0.200079 -0.506618 0.405115 -1.018165 -0.032700 -0.391410 0.197138 -0.193598 -0.899676 1.194429 -0.649850 0.418860 -0.267290 0.429051 -0.042607 -0.751677 0.204270 -0.066621 -0.646967 0.948715 0.017832 0.121076 -0.453163 0.070855 0.517272
226 -0.429722 0.583728 0.323632 0.144124 -0.415212 -0.243804 -0.276662 -0.825269 -0.182403 -1.076355 -0.428706 0.445926 0.139466 -0.749466 -0.239979 -0.368985 0.755356 -0.112609 -1.068822 0.361263 0.366716 -0.019138 -0.428772 0.173662 -0.220059
111 -0.670717 -0.157675 -0.385397 0.178919 -0.146275 -0.707243 -0.335501 0.392839 -0.484021 0.475189 0.415805 -0.663027 0.929842 -0.736688 -0.801314 -0.271712 0.810403 0.160954 0.489693 0.248167 0.244476 0.272240 -0.793959 -0.035682 -0.052463
64 0.490543 0.205737 0.461729 -0.290121 -0.216569 -0.742948 -0.433628 0.637726 -0.747288 0.646535 -0.239975 -0.307955 0.620405 0.411832 0.310584 0.852538 0.526130 -0.734115 -0.802704 0.670367 -0.514376 0.504409 0.199215 0.021303 -0.439919
202 0.491596 0.295528 -0.019394 0.571041 -0.614507 0.212207 -0.747526 0.492679 -0.215154 -1.231482 0.059404 0.409892 0.262430 0.635624 -0.655716 -0.616891 0.596703 0.089443 -1.026173 0.041456 0.252539 -0.294566 -0.151514 0.152834 -0.017861
166 0.069564 -0.124738 0.063051 0.713114 -0.179393 -0.106324 -0.778951 0.049755 0.163345 -0.121219 -0.618106 -0.406581 -0.523170 -0.446030 -1.029904 -0.231018 0.837954 -0.913072 -0.969839 -0.902970 1.045824 0.129384 -0.137081 -0.242320 0.167503
241 0.590563 0.056864 0.257571 0.682603 0.212631 -0.673519 0.525109 0.632131 -0.628695 -0.074490 -0.198595 0.136243 0.724681 -0.357461 0.690777 -1.243672 0.426438 0.086225 0.529047 -0.430313 -0.721441 0.822464 -0.239410 0.775278 0.904514
250 -0.904258 0.544907 0.445989 0.428438 0.150716 0.192987 -0.075814 0.312786 -0.364834 -0.930554 -0.945636 0.018698 0.380900 0.344829 -0.109391 -0.023310 1.198385 -0.582439 -0.073916 -0.402470 -0.233796 0.400144 -0.494492 -0.078446 0.340059
16 0.342150 0.663982 0.418289 -0.621479 -0.209368 -0.754406 0.577866 0.523881 0.111384 0.686012 -0.480583 0.373020 0.393009 0.111972 0.476335 0.248997 0.807544 -1.029472 -0.362445 -0.399858 -0.650459 0.352229 0.583232 0.256497 0.190575
59 -0.334067 -0.791819 0.149106 -0.807719 -0.698858 -0.438040 0.188862 0.012066 -0.679773 -0.757366 0.202958 -0.079400 1.372005 -0.161547 -0.172590 0.696822 0.001740 -0.596506 -0.263645 -1.054545 -0.199362 -0.392695 -0.066334 0.499939 0.803880
15 1.055567 -0.275337 0.823989 -0.300352 0.172160 0.331794 -0.044371 1.432777 -0.110949 0.074651 0.387158 0.233012 0.783581 -0.512318 -0.087725 1.185469 0.979882 0.327086 -0.083894 -0.721794 -0.073488 0.685954 -0.706266 0.372040 0.272624
72 0.299642 0.137091 0.031630 -0.611146 -1.147828 -0.379972 0.045771 -0.407441 0.123218 -0.002548 -0.755130 -0.094819 0.504477 0.047306 -0.105299 -0.099273 1.013880 -0.298253 -0.189707 0.907999 -0.152268 0.611759 -0.098065 0.645036 -0.789006
7 0.805070 0.534241 1.162577 -0.176439 0.184704 -0.049534 0.408727 1.419384 0.092986 0.313341 -0.123443 0.471179 -0.114214 -0.398564 -0.339384 0.088698 0.668900 -0.208014 -0.006159 0.067864 -0.329149 -1.430230 -0.356969 -0.313390 -0.272811
220 0.092935 -0.593316 0.691704 -0.215936 -0.022816 -0.566980 0.079399 0.452019 -0.893441 0.298245 0.418569 1.395869 -0.327413 0.577434 -0.396872 -0.993511 -0.134566 -0.271529 -0.065762 0.366737 -0.025113 0.320437 -0.012956 0.026420 0.335053
113 0.715374 0.066126 0.195910 0.366569 -0.324713 -0.267917 -0.252034 0.763307 -1.180559 0.368381 -0.102441 0.456748 0.136911 -0.445849 0.325479 -0.837214 0.075108 -0.489998 0.594110 0.315643 0.020938 0.336380 0.351536 0.773948 0.486791
199 0.112848 0.243828 0.724878 0.475615 -0.637908 -0.229728 0.036167 1.167104 -0.259989 -0.034089 0.511014 0.921653 -0.188949 -0.608197 0.156098 -0.686952 0.680511 -0.103368 0.268712 -0.094114 -0.426504 -0.572292 -0.150100 0.180556 0.336645
92 0.581813 -0.463040 -0.436664 -0.182062 0.120446 -0.568314 0.205019 0.072108 -1.063058 0.253783 0.457244 1.480323 -0.510789 0.373706 -0.456547 -0.229540 0.182823 -0.749259 0.187530 0.452366 -0.054688 0.266396 -0.123048 0.548413 0.526535
190 -0.530237 0.047796 0.387899 0.230516 0.680428 0.410891 0.597279 0.181489 -0.184055 -0.395405 -0.076166 -0.221678 1.123784 -0.743540 -0.750807 0.041959 0.705276 -0.561606 -0.291114 -0.055968 -0.066794 0.215736 0.038938 -0.244083 0.720599
242 0.193904 0.607400 0.503535 1.782482 -0.103265 -0.441480 0.070605 -0.099875 -0.099597 -0.424744 -0.084974 0.768492 0.756054 0.861032 -0.683071 -0.309637 0.326140 0.413513 -0.673957 0.429496 0.183475 0.761429 -0.343285 0.203362 0.509318
207 0.567655 -0.650944 0.381348 0.366532 -0.562970 0.347501 -0.095356 1.137609 -0.331086 -0.646865 0.488931 0.978699 0.778356 -0.346794 -0.131857 0.285137 0.877241 0.762614 -0.016307 -0.424762 -0.311546 0.078664 -0.852804 0.387067 0.524206
123 -0.624699 0.168695 0.409046 -0.751328 -0.938518 -0.006753 -0.138872 0.471755 -1.417952 -0.494090 -0.041715 0.137903 0.600154 -0.283394 -0.316705 0.149519 0.265770 -0.527104 0.552233 0.347884 -0.376870 -0.396065 -0.377866 -0.186006 0.067814
188 -0.108624 -0.449309 0.255449 -0.032556 0.591802 -0.554295 0.700043 0.544618 -0.504634 0.031767 0.772659 0.218103 0.422897 -0.221171 -0.956682 -0.976583 0.657704 0.183946 -0.317424 -0.039974 -0.384966 0.595816 0.357712 0.102904 0.522332
204 0.566106 -0.112576 0.356387 0.079389 -0.499649 -0.942716 0.287477 0.403599 -0.556832 -0.219207 1.317908 1.064069 0.585722 0.472527 0.370310 -0.143023 1.002565 0.359164 -0.205597 -0.381547 -0.118539 0.111820 -0.327820 0.484222 0.467046
149 0.850406 -0.526442 -0.382178 0.805184 0.225129 0.012884 0.104996 -0.331219 -0.730883 0.206098 -0.266995 -0.554690 -0.942049 -0.634784 -1.287744 0.306785 0.555207 -1.440604 -0.528242 0.085781 0.081342 -0.280386 -0.591447 0.559257 0.280490
48 1.037211 -0.012124 0.169294 -0.827782 0.320901 -1.461435 0.915833 0.586974 -0.159220 -0.462613 0.509337 0.827202 1.578337 0.562787 0.830200 -0.395800 0.317322 0.258490 -0.721584 -0.012801 0.108079 -0.216125 -0.636422 0.226810 0.147425
248 -0.530246 0.291102 0.518898 -0.877107 0.532834 -0.703099 0.368581 -0.409155 -0.116847 -0.674565 -0.756304 0.453494 0.277183 -0.096829 -0.659280 -0.149259 1.293732 0.592503 -0.263795 0.310453 -0.310437 0.330074 -0.670570 -0.246354 0.541179
96 0.346309 0.133105 0.007204 -0.695989 0.164651 -1.151721 -0.809569 0.715777 0.134949 0.031030 -0.137850 -0.023794 0.320165 -0.785759 -0.247968 0.356039 0.432417 -0.525039 -0.024158 0.575412 0.662106 0.557436 -0.157102 -0.244305 -0.530587
208 -0.204811 0.040607 0.627547 -0.564401 -0.448720 -0.788894 0.033695 0.588861 -0.161658 0.696941 -0.186631 0.010824 -0.045425 0.040494 0.983121 -0.237761 0.142409 -0.848118 -1.623599 0.267785 -0.365867 0.519269 -0.749598 0.185931 -0.069512
60 0.428037 -0.707075 0.288403 -0.134441 0.236071 -0.745339 0.279072 0.883806 -0.057839 -0.407990 -0.178620 0.710983 0.852321 0.615781 -0.811484 0.213769 0.506858 0.414558 -0.419491 -0.240363 0.129513 0.587144 0.547646 0.872728 0.534522
89 0.287900 -0.737824 -0.370951 -0.159162 -1.084525 -0.436511 -0.490059 0.595277 -0.699652 -0.251902 -0.846995 -0.277741 -0.648386 -0.589620 -0.053111 -0.163570 0.207701 -1.556568 0.265653 0.030001 -0.085173 0.683945 -0.037454 -0.508722 0.704354
82 0.498255 0.329772 -0.352468 0.611151 -1.265959 0.288145 1.047806 -0.481348 0.138009 0.718852 -0.337213 0.134602 0.319426 0.336055 0.013448 0.013084 0.666984 -0.847726 -0.328634 0.865780 0.126524 0.595895 -0.550185 -0.303973 0.066374
195 0.471626 -0.414864 0.659628 0.338011 -0.505911 -1.436457 -0.036722 0.719558 -0.662959 -0.454145 0.522253 0.727348 0.412249 -0.497704 -0.118183 0.574620 -0.249160 -0.012923 -0.476915 -0.385242 -0.509324 0.378306 -0.002575 -0.185850 0.080313
70 0.164325 0.229766 -0.679445 0.333098 -1.070216 -0.281429 0.017742 0.491415 0.232650 1.309555 -0.715192 0.069812 0.606748 -0.671231 -0.004364 -0.334897 0.456814 0.040476 -0.443297 -0.049726 0.348627 -0.016118 0.133130 -0.386803 1.042276
28 0.558327 0.192861 0.516159 -0.453193 -0.029428 -0.259911 -0.113555 0.600249 0.007426 0.464567 0.361825 1.136374 0.067988 0.377365 -0.203144 -0.429611 0.651063 -0.356037 0.181164 0.521718 0.239629 -0.637295 0.366099 0.692826 0.746566
18 0.135357 0.945915 0.338825 0.046193 -1.150617 0.011223 0.885374 -0.302001 0.452841 0.899864 -0.487480 0.394544 0.427454 0.316085 -0.338725 -0.545581 1.008746 -0.248445 -0.432259 0.147650 -0.107934 0.389144 0.448213 0.153831 0.132961
194 0.550917 0.618583 0.561623 0.191987 -0.541460 -0.747127 -0.151017 0.156728 -0.023853 -0.233791 0.610056 0.710273 0.568248 0.054618 -0.630757 -0.262341 -0.423400 -0.220469 -1.321090 0.142253 0.024962 0.760814 0.250744 0.031940 0.515139
75 0.121709 -0.287441 0.460888 0.251646 -1.353696 -0.037513 0.365487 -0.152824 -0.342842 0.097951 -0.143005 -0.535844 0.837163 0.124739 -0.264482 -0.242314 0.933171 -0.178875 0.176376 0.963716 -0.594645 -0.171678 -0.073113 -0.347036 -0.843034
105 0.550611 -0.347747 -0.151331 0.415839 -0.136387 -0.067595 -1.499245 0.300615 -0.915298 0.513548 -1.106519 -0.662666 -0.230873 -0.155992 -0.487532 -0.565913 0.749280 -0.774202 0.316462 -0.268469 0.813369 0.033309 -0.305627 -0.314733 0.317974
122 -0.679288 0.527410 0.372116 -0.129422 -0.073612 0.452287 -0.871882 0.355723 -1.021117 -0.659484 -0.650355 0.281243 0.566728 0.600461 0.076549 -0.226656 0.847153 -1.370559 0.496583 0.371282 0.127725 -0.077932 -0.414119 0.004016 -0.366364
196 0.054944 0.432366 0.386124 0.270462 -0.878248 -0.763837 0.559334 0.934241 -0.348646 -0.093080 0.225713 0.063280 -0.358923 0.022280 0.837423 -0.707238 0.969518 -0.523288 -0.718058 -0.488047 -0.459365 0.519382 0.699055 0.956987 0.574782
4 0.863928 0.293943 0.574695 -0.539176 0.005252 -0.417017 1.144123 1.062538 0.095787 0.267070 -0.349567 -0.152444 0.007284 0.078940 -0.047297 0.283735 1.133247 0.009386 -0.930008 -0.136319 0.206938 -0.527921 0.503154 0.315183 -0.037999
12 1.145223 -0.119539 0.907412 -0.293858 0.052357 -0.674575 0.029726 0.693911 0.021376 0.407004 1.168423 0.298180 0.498995 0.047332 0.253295 0.892661 1.135143 -0.013007 0.062310 -0.516226 0.514519 0.347355 -0.105019 0.467104 0.268591
68 0.181514 -0.031462 0.076360 -0.362660 -0.871291 -0.165139 0.510527 0.339080 -0.593109 0.973914 -0.886433 0.095170 -0.109298 -0.073068 0.519171 -0.193474 1.140268 -0.295671 -0.660857 0.254329 -0.339198 0.122832 0.589869 0.556709 0.277853
51 0.474297 -0.916396 0.747615 -0.010960 -0.409664 -0.636168 0.405989 0.481474 -0.119375 -0.106380 0.775137 1.051830 1.265591 -0.186937 0.803530 0.491342 1.080611 0.570112 -0.273841 -0.545900 0.521706 -0.373172 -0.138141 0.373824 0.281189
80 0.477928 0.231680 -0.181619 -0.166563 -0.448742 -0.440493 0.420246 0.442356 -0.417401 0.661961 -0.295675 0.204793 0.036225 0.213639 0.995745 0.507133 0.409298 -1.812255 -0.546372 0.436960 -0.590498 0.875251 -0.183687 0.092919 0.065152
165 0.811125 -0.275200 -0.632907 0.309669 -0.234796 -0.232573 -0.700723 -0.439160 -0.408155 0.412863 0.289162 -0.508840 -0.767344 0.202403 -0.903908 0.266338 0.928882 -1.083227 -0.419834 -0.997599 0.891955 -0.601078 -1.078915 0.184593 0.266847
126 -0.922409 0.855254 0.677683 0.677833 0.087607 -0.330841 -0.430611 0.322143 -0.847692 0.063515 -0.727075 0.485263 0.684442 -0.332785 -0.763922 0.910318 0.436150 -0.065707 0.409351 0.498566 0.234916 0.138176 -0.470536 -0.232746 0.599705
210 -0.334539 0.129065 0.431822 0.359914 -1.226743 -0.110096 0.460392 -0.359382 0.286179 0.731335 -0.330652 0.145892 0.226102 0.170914 0.163941 -0.504053 0.547086 -0.028485 -1.234593 0.586634 0.363671 0.403760 -0.645303 0.153766 -0.155059
6 0.637757 0.660872 -0.063173 -0.013709 -0.188119 -0.576786 0.406441 1.084331 0.695531 0.877035 -0.208929 -0.183167 0.599066 -0.178756 -0.466040 -0.056425 0.146060 -0.296191 -0.841953 -0.179724 0.553917 -0.185642 0.205307 -0.677824 0.712391
198 -0.074452 0.333918 -0.053923 0.828812 -0.631979 -0.756364 -0.146958 1.031008 0.393972 0.160779 0.217081 0.544158 0.184580 -0.526584 0.048074 -0.639362 0.321079 -0.207627 -0.321119 -0.392868 0.560912 0.254891 0.535182 -0.054507 0.990818
114 0.443920 0.487135 0.218137 0.883248 -0.429281 0.061214 -0.991122 0.113557 -0.559162 0.379801 0.517868 0.939004 0.648763 0.183087 -0.480368 -0.210945 0.336834 -0.294440 -0.050735 1.224469 0.540005 -0.209868 0.247058 0.248070 0.413858
19 0.454068 -0.536741 0.359885 0.418054 -0.528835 -0.799195 0.742846 0.375675 -0.237546 0.498927 -0.945509 0.989629 0.291198 0.290105 -0.340252 0.398117 1.029901 0.265023 -0.377064 -0.986791 -0.497655 -0.826477 0.952661 -0.067262 -0.695628
211 -0.339512 -0.910040 0.408877 0.266939 -0.689880 -0.714446 0.033462 0.287983 -0.473126 0.492658 -0.422092 0.659534 0.109992 0.074074 0.345162 0.008169 0.387209 0.354574 -1.494491 -0.153577 -0.188749 -0.338316 -0.526458 0.103787 -0.151561
101 0.917713 -0.493556 -0.572507 -0.124796 -0.873357 -0.505952 -0.253250 -0.294105 -1.316446 0.592467 -0.037854 -0.596447 -0.585448 -0.503840 -0.925550 0.094049 0.324513 -0.825055 0.318559 -0.413680 0.810692 -0.283074 -0.325833 -0.108634 0.473779
74 0.297734 -0.042389 -0.364101 -0.419417 -1.178021 0.639542 -0.128211 0.180275 -0.175976 0.254499 -0.803328 -0.088662 0.607500 0.684318 -0.284654 -0.617487 1.109597 -0.345021 -0.587304 0.121514 0.014406 0.269616 -0.069571 0.018202 -0.954282
124 -0.048292 0.027275 0.413181 0.227314 0.256034 -1.185138 -0.427574 0.564979 -1.197118 0.365282 0.109525 0.685637 0.126449 0.322763 -1.037650 -0.131188 0.314420 0.456049 0.234821 0.680346 -0.321556 0.421850 -0.083666 0.419908 0.208941
56 0.120996 -0.317447 -0.012927 -1.292070 0.083203 -0.865731 -0.201702 -0.544402 -0.291767 -0.659025 -0.318272 0.714441 0.686725 -0.058690 -0.300755 0.723802 0.762733 0.172253 -0.591586 0.042733 0.233313 -0.309262 -0.114921 0.337388 0.618394
55 -0.223528 -0.503995 1.588016 -0.275363 -0.923208 -0.705069 0.397220 0.233034 -0.357033 0.090630 -0.328502 0.348526 0.430788 0.381693 0.133400 0.269246 -0.335296 -0.173862 0.524101 -0.976912 1.026020 -0.598290 -0.760299 0.945779 0.232943
94 -0.477131 0.851370 -0.235167 -0.087497 -0.636398 0.138043 0.663775 -0.644816 -0.795541 0.452925 -0.242823 0.974689 0.146919 -0.324425 -0.486798 0.341125 0.181752 -1.170836 0.454277 0.000312 0.341725 0.174987 -0.877708 -0.281321 0.598541
120 -0.274620 0.206101 0.355164 -1.433378 -0.103493 -0.315559 -0.446339 -0.582670 -0.981131 -0.326176 -0.513815 0.974848 0.257620 -0.384645 -0.427850 0.130052 0.657363 -0.201631 0.300248 0.888919 0.105866 -0.131264 -0.358862 -0.186431 0.039683
13 1.516692 -0.265089 1.315949 -0.069297 -0.345395 -0.616902 0.246904 0.335970 -0.680500 0.539399 -0.185866 -0.381428 0.610300 -0.346374 0.757708 0.627952 0.007519 0.561726 0.435605 -1.249669 0.839172 0.269477 -1.087787 -0.306490 0.198854
53 0.556690 -0.984717 0.318092 -0.243319 -0.886729 -0.821139 0.633904 0.040149 -0.126387 -0.242896 -0.572284 0.044591 0.392466 0.529931 0.388657 0.549312 -0.277909 -0.628205 0.701397 -0.449651 0.859764 -0.306656 -0.929715 0.875647 0.454210
150 0.467547 -0.515209 -0.545983 0.787704 -0.064984 0.046168 -0.251494 -0.321606 0.246363 -0.015349 -0.158875 0.047079 -0.317616 -0.789371 -1.127515 0.057978 0.479015 -1.452963 -0.544505 0.057598 0.562807 0.264564 -0.143620 -0.448536 1.051583
102 0.268291 -0.463041 -0.195870 0.147947 -0.775649 -0.251125 -0.161775 0.363279 -0.604458 0.086404 -0.662141 -0.382965 -0.190813 -0.682294 -0.987431 -0.272635 0.074574 -0.952334 -0.031327 -0.488767 0.854457 0.685529 0.405113 -0.666769 0.234494
66 0.601221 0.244898 0.556392 0.047562 -0.267373 -0.301900 -0.548567 -0.047348 -0.128392 0.885519 -0.318776 -0.247465 1.038111 0.231883 -0.018249 0.446725 0.269733 -0.844122 -0.835145 1.091769 -0.225348 0.616417 0.422288 -0.065995 0.062903
65 0.870206 0.735402 0.156972 0.068230 -0.273635 -0.593506 -0.046287 0.848845 -0.798356 1.011937 -0.548788 -0.750787 0.337129 -0.138692 0.475616 -0.011715 0.596734 -0.305181 -0.148118 0.148580 -0.326246 -0.179610 -0.153267 -0.237879 0.121226
143 0.295836 -0.579169 -0.170312 -0.318002 0.140826 0.540062 0.458721 0.398382 -0.186313 -0.229271 0.057683 0.983877 0.817502 -0.987161 -0.460975 0.300563 0.938620 0.205582 -0.289690 -0.817455 0.493998 0.720421 -0.614679 0.743866 -0.650509
142 -0.060415 -0.137009 -0.170547 -0.309294 -0.212417 0.258712 0.436834 -0.888937 -0.397416 -0.082269 -0.081304 1.001599 1.056298 -0.898260 -0.204425 0.513536 0.442316 -0.538168 -0.630486 -0.770477 0.602931 0.505671 -0.152755 -0.118883 0.034491
112 0.474999 0.214940 -0.053552 -0.395173 0.428759 -0.942481 -1.106829 1.087521 -1.353865 0.299736 0.306381 1.380452 0.845303 0.192470 -0.015398 0.478412 -0.407030 -1.019408 -0.222989 0.819742 -0.003878 0.442800 0.204672 0.334319 -0.142739
108 0.305613 -0.600062 -0.287764 -0.326618 -0.259843 -0.984137 0.098551 0.514419 -0.654962 -0.119322 0.812589 -0.183174 0.409773 0.191363 -0.548668 -0.313378 0.717070 0.045415 0.629111 0.679015 0.653521 0.466699 0.375378 -0.750450 0.257883
131 0.677095 -0.444173 1.579458 0.325150 0.555411 -1.151549 0.541848 0.014207 0.507508 -0.224276 -0.064033 0.324413 0.587591 -0.815681 0.179130 0.679080 0.810522 -0.102591 0.256045 -0.565025 0.373127 -0.024332 -0.078243 -0.562785 -0.901312
77 0.595131 -0.693686 0.188953 0.346251 -0.697468 -0.320785 0.042780 0.124658 -1.175797 0.817811 -0.978604 0.103389 0.397118 0.220800 0.430374 0.248344 0.321424 0.473562 -0.186887 -0.023030 0.895202 -0.203556 -0.329151 0.174521 -0.247710
30 -0.518159 1.141839 0.725998 -0.464977 -0.450189 0.041504 0.416230 0.115983 0.080780 0.401109 -0.154606 0.791183 0.629514 -0.159244 -0.105618 0.019781 0.356516 -1.061234 0.416389 0.090223 0.197662 -0.732836 -0.037327 0.195502 1.018536
61 0.445827 -1.471181 0.895316 -0.222098 -0.225171 0.157425 0.301977 0.883271 0.293541 -0.545665 -0.784000 0.265654 0.909922 -0.102653 0.062574 0.199404 -0.082373 -0.048925 0.148271 -0.014759 0.260603 -0.002855 -0.664599 1.162513 0.535999
99 0.072796 -0.990060 -0.638399 -0.281082 -0.399776 -1.035294 -0.675717 0.142834 0.120963 0.104322 -0.324479 1.103541 0.702360 -1.103014 -0.399415 0.098377 0.399011 -0.188509 0.032616 -0.533188 0.100831 0.267323 0.021432 -0.311441 -0.724475
35 0.894866 -0.856305 0.844193 -0.311667 -0.604577 -0.562284 0.120948 -0.916178 0.536057 -0.069490 -0.131453 1.223827 0.701546 -0.436225 -0.363507 0.068466 0.670060 -0.258480 0.194333 -0.785289 -0.618961 0.360463 -0.016920 0.004504 -0.969876
179 0.069651 -0.857910 0.516873 0.522726 -0.261746 -0.173844 0.981991 0.410818 -0.530351 -0.360784 1.569703 0.502490 0.583341 -0.540306 0.384681 -0.175519 0.879155 -0.241888 -0.282808 -0.606208 0.671724 0.211499 -0.068399 -0.067231 -0.627525
83 0.645148 -1.132321 -0.627929 0.867701 -0.798874 -0.344051 0.744330 0.113197 -0.831741 0.346843 -0.454071 0.987355 0.042382 0.336564 -0.045470 0.554020 0.742416 -0.194368 -0.554142 -0.148248 -0.564563 -0.464752 0.112720 0.080150 -0.548254
14 0.227647 0.508142 0.312570 -0.130173 -0.058789 -0.379342 -0.151945 0.067230 -0.293608 0.426108 0.153213 0.783267 1.428067 -0.335920 -0.061259 1.663551 -0.156410 -0.775769 -0.664438 -0.611723 0.088671 0.250044 -0.009888 -0.437935 1.274916
141 0.841439 -0.576530 0.347457 -0.133712 0.088683 -0.059045 0.407485 -0.645469 -0.828642 0.298814 -0.479798 0.606574 0.691201 -0.712287 0.524315 -0.282378 0.008683 0.135110 -0.042510 -0.845420 1.222355 0.382332 -0.893468 0.356319 -0.485653
79 -0.043706 -0.717189 -0.389411 0.863565 -0.402087 0.020972 -0.134853 0.912073 -0.939531 0.296466 -0.814846 0.272238 1.151049 0.394115 -0.424397 0.873582 1.285113 0.882934 -0.505583 0.199473 -0.037037 0.013088 0.001536 0.496059 -0.528314
163 0.126018 -0.888348 0.463454 0.143614 0.050621 -0.420091 -0.338113 -0.354679 0.588735 0.160670 -0.145747 1.251022 0.736523 -0.163802 0.191876 -0.305567 0.922648 -0.511452 0.022696 -1.304558 -0.040995 -0.092778 -0.335017 -0.366458 -0.916795
227 -0.558987 -0.211519 0.344967 -0.159953 -0.582578 -0.855549 -0.084231 -0.539362 -0.278154 -0.685751 0.021684 1.160465 0.569589 -1.013649 0.324568 -0.008956 0.627097 -0.006215 -0.502828 -0.671975 -0.192299 -0.203883 -0.721010 0.017923 -0.321641
54 0.159094 -0.736252 0.212424 0.259601 -0.717426 -0.872358 0.152184 0.239188 0.268842 0.238420 -0.646665 0.307183 0.629859 0.494060 -0.420133 0.305014 -0.479057 0.165851 -0.329628 -0.348137 1.613793 0.026104 -0.197218 -0.116892 0.752262
157 0.511011 -0.512322 1.028974 -0.141268 0.105458 0.916138 -0.433241 0.192785 -1.144308 0.996330 0.096851 -0.292793 -0.626945 -0.382639 -0.628023 -0.222849 0.258779 -1.180131 -0.495159 0.425057 1.342451 -0.547103 -0.618604 0.308618 -0.122540
205 1.185280 -0.952747 0.787003 0.326061 -1.068522 -0.208522 0.029138 0.152984 -0.823700 -0.078986 0.389271 0.404463 0.581964 -0.243098 0.874255 -0.573796 0.021533 0.755760 0.334965 -0.733638 0.208983 0.152994 -1.029972 -0.252788 0.518284
76 0.478656 -0.659481 -0.252138 0.045790 -0.540672 -0.746131 -0.298937 0.208989 -0.849932 0.658068 0.305748 0.507990 0.949637 0.833210 0.058058 0.926762 1.240367 0.186481 -0.521381 0.630566 0.239564 0.017484 0.577981 0.887776 -0.366170
206 -0.269871 0.332506 0.384419 0.852829 -0.787303 -0.146400 -0.216728 -0.185626 -0.425524 -0.206579 0.336383 1.711814 1.087013 0.097479 -0.155725 0.944708 0.286236 0.088195 -0.773323 -0.475171 -0.107728 -0.228177 -0.144365 -0.130621 1.450112
49 1.329388 -0.230777 0.459452 -0.319499 -0.302127 -0.726994 0.535094 0.406712 -0.490299 -0.147491 0.022557 0.286525 1.034415 -0.419848 1.097149 -0.594515 0.576275 0.674518 0.719370 -0.496821 0.179640 -0.109762 0.076106 0.375544 1.115169
193 1.070510 0.859735 0.056603 -0.336662 -0.654474 -1.045619 0.188068 0.918344 -0.780395 -0.061042 0.427367 -0.098951 -0.028079 -0.317934 0.344256 -0.774379 0.210276 0.441913 -0.598866 -0.607948 -0.207717 0.107652 -0.297294 -0.089880 0.554702
52 0.318677 -0.967794 0.850319 -0.762182 -0.469892 -0.868576 0.647327 -0.167968 -0.118605 0.814380 -0.412670 0.297410 0.400980 0.846119 0.368116 0.021006 0.404748 0.187106 -0.435052 -0.058530 0.612808 0.006847 -0.117485 0.357199 0.364430
140 0.568338 -0.330665 0.007342 -0.730203 0.018167 -0.222133 0.580462 0.011328 -0.096688 -0.045688 0.957208 1.112332 0.553532 -0.510894 0.166414 0.194524 1.314312 -0.176060 0.019499 -0.672049 1.177096 0.340515 0.096007 0.848269 -0.593510
137 1.307180 -0.017791 0.429836 0.745200 -0.382177 0.058514 -0.949308 -1.342610 0.040328 0.077006 -0.341436 0.047862 -0.235991 -1.089006 -0.261718 -0.497706 0.912685 -0.121257 0.063235 -0.093278 0.705977 0.455910 -0.714939 0.283583 0.060860
167 0.299430 -0.207763 0.943336 0.175402 0.030674 -0.050086 -1.384227 -0.005720 -0.111540 1.221358 -0.062085 0.471935 -0.676244 -0.238236 -1.113754 -0.607348 0.571947 -1.109053 0.002030 -0.871718 -0.015567 -0.725431 -0.664823 -0.291435 -0.288657
58 -0.361305 -0.162599 -0.083741 -0.657428 -0.143360 -0.099029 -0.645625 0.099658 -0.325819 -0.718687 -0.235301 0.365381 1.252548 0.660066 -0.015850 0.588285 0.585700 -0.940353 -0.622687 -1.338014 0.189156 -0.431538 0.103402 0.717226 0.620138
115 -0.246969 -0.449643 -0.016395 0.430942 -0.194878 -0.682619 -1.059335 0.777837 -1.277397 0.173211 0.610523 1.639229 0.476520 -0.340903 0.043331 0.448623 0.340306 -0.050776 -0.133850 0.623287 0.351264 -0.075343 -0.123776 0.709402 -0.063675
155 -0.145231 -0.581660 0.551493 0.826818 -0.812824 -0.648291 0.156725 -0.390983 -0.097004 0.504798 -0.115124 -0.669881 -0.025498 -0.397158 -1.515574 0.060894 0.308011 -0.687708 0.185688 -0.382622 0.323197 0.021011 -0.011028 -0.928968 -0.237957
50 0.919034 0.020112 0.411179 0.749257 -0.507015 -0.221004 -0.233669 -0.360685 0.234255 -0.069331 0.339544 1.058588 1.170374 0.911341 -0.161830 0.317955 0.493228 0.333098 -0.931870 0.621199 0.532597 0.240864 0.445344 0.111820 1.153066
185 -0.152339 -0.593887 0.565255 0.785243 -0.694490 0.182002 -0.678400 -1.037845 -0.780865 -0.124866 0.294468 -0.473712 -0.038919 -0.985444 0.389402 -0.759083 0.951524 -0.893356 -0.235250 -0.219271 0.384515 0.021343 0.304155 -0.027282 1.068142
62 -0.353019 -0.472070 0.830310 0.217614 -0.133310 0.267474 0.439558 0.378678 0.158994 -0.908899 -0.572546 0.557402 1.337065 0.060015 -0.571762 1.276425 0.439580 -0.127196 -0.484443 -0.301731 0.174281 -0.239601 0.135847 0.577808 1.060792
38 0.660051 -0.031347 0.793488 0.554555 -0.797659 -0.357982 0.156842 0.011266 0.276418 -0.478295 -0.795190 -0.872677 -0.058708 0.225837 -1.330476 -0.355555 -0.263870 -1.051172 -0.220492 -0.339251 0.895044 0.619084 0.120223 0.739687 -0.275578
37 1.196152 -0.251494 0.174484 -0.001538 -0.926896 -0.729714 -0.307868 -0.817880 0.229133 0.085730 0.164406 -0.839988 -0.384922 0.319353 -1.146733 0.281044 0.223203 -1.156700 0.384752 -0.157864 1.072273 -0.190340 -0.820175 1.345928 0.250591
67 0.356810 -0.803394 0.863075 0.447364 -0.158877 -1.292393 -0.469143 0.515406 -0.529011 0.567333 -0.511265 0.030834 1.006382 -0.110981 0.240361 1.429702 0.732950 -0.290064 -0.081255 0.342054 -1.033405 -0.200213 0.493716 -0.232744 -0.521436
152 0.239059 -0.120481 0.480321 -0.528056 0.253113 -0.551921 0.112048 -0.205994 0.125991 -0.484124 -0.744893 0.759622 -0.975657 -0.504295 -1.155900 -0.261669 0.859470 -0.520274 -0.096801 -0.173713 1.045335 0.680214 0.705254 -0.861202 0.364805
153 0.693159 -0.542411 0.448018 0.225339 -0.616290 -0.396106 -0.612994 -0.329085 -0.901399 -0.052320 -0.606483 -0.675776 -0.994422 -0.372276 -1.157311 -0.181320 0.386635 -1.306092 -0.170683 -0.495121 0.836075 -0.028726 0.445328 -0.357154 0.599646
217 -0.048870 -1.103694 0.335008 -0.118569 -1.160172 -0.521415 -0.895607 0.816977 -0.642294 -0.705109 -0.587788 -0.432532 -0.723053 -0.477148 -0.245629 -0.635380 -0.126026 -0.431003 -0.539735 0.250211 0.401480 0.330344 -0.288939 -0.274460 0.466381
41 1.498084 0.668792 0.150290 -0.097058 -0.483731 0.173785 -0.998266 -1.068134 -0.447702 0.111793 -0.260285 -0.990347 0.212471 0.076608 -1.269958 -0.672847 0.352033 -0.387167 -0.659014 -0.712197 0.594478 -0.465955 -0.339811 0.651058 0.652110
151 0.419977 -0.482255 0.057774 0.733353 0.095469 -0.209209 -0.290595 -0.409540 -1.113730 0.733839 0.111273 0.048164 -0.903562 -0.704249 -1.688347 -0.154284 0.309819 -0.987238 -0.349547 -0.001665 -0.500706 -0.969130 -0.517562 0.331759 -0.002178
78 -0.396672 -0.011399 -0.300608 0.465944 -0.536067 -0.385234 -0.086588 -0.357047 -0.921130 0.809947 -0.442931 0.534524 1.378745 0.301204 0.035954 1.433906 0.761373 0.138746 -1.128495 -0.019712 0.211614 -0.210882 0.306738 0.017238 0.607177
25 0.293120 -0.019372 -0.060562 -0.641974 -0.956713 -1.192573 -0.653984 0.303767 -0.113626 0.389423 -0.518068 -0.978905 0.072319 -0.297533 -0.775750 -0.172151 -0.101848 -1.188502 -0.030146 -0.529356 0.640767 -0.423387 0.690743 0.715538 0.725405
145 0.790626 -0.501733 0.422420 0.116739 0.258333 0.381799 0.051556 0.110427 -0.869944 0.309311 -0.687077 -0.174757 -0.796169 -0.831714 0.069084 0.184837 1.517448 -0.655431 -0.274292 0.718680 0.908896 -0.790218 0.974599 0.093463 0.298031
230 -0.618201 -0.031483 0.705711 0.706881 -0.749849 -0.014449 -0.292470 0.127190 -0.398539 -1.534038 -0.659787 -0.142908 -0.911453 -1.098284 0.160483 -0.164268 0.753361 -1.205617 -0.856491 -0.080786 0.818062 0.370117 0.124045 -0.321309 0.461053
229 0.035912 -0.511523 0.216395 0.278656 -0.973115 0.012053 -0.458144 -0.144251 -0.724865 -0.904860 0.296192 -0.261967 -1.137098 -0.518299 0.451545 0.610493 1.034698 -1.048585 -0.443980 -0.112465 0.213969 -0.266048 -1.055428 -0.039362 0.737616
103 0.336460 -0.522198 0.588397 -0.180358 -0.504725 -0.318836 -0.716297 -0.015937 -0.873961 0.763676 -0.066269 0.446814 -0.554008 -1.097956 -1.331055 -0.647672 0.011083 -0.656069 0.645732 -0.400093 -0.370177 -0.035315 -0.137718 -0.575069 0.238626
148 0.675685 -1.071353 -0.173254 0.168528 0.299990 -0.101376 0.308905 -0.530649 -0.752600 0.541665 -0.463213 -0.543748 -1.035634 -0.146022 -0.628731 0.228770 1.368721 -0.852982 -0.951756 0.679378 -0.212150 -0.190067 0.289482 0.031049 0.614617
100 0.771262 -1.247777 0.400716 -1.316883 -0.316197 -0.509010 -0.108301 -0.189626 -0.623049 0.534921 -0.706708 -0.256914 -0.715879 -0.323422 -0.232319 -0.048225 0.903820 -0.402715 -0.219736 0.573607 0.302204 0.545326 0.761538 -0.908794 0.812632
121 -0.220949 -0.351975 0.903431 0.386274 -0.774754 0.171044 -0.798846 -0.563890 -1.529243 -0.455930 -0.675114 -0.078264 -0.319581 -0.707785 0.330931 -0.351956 0.558013 -1.253315 0.606412 0.438163 0.412866 0.252943 0.022239 0.436253 0.418192
39 0.475037 -0.015828 2.389926 0.073980 -0.893959 -0.552315 -0.583631 -0.427221 0.549101 0.611830 -0.155550 -0.387168 -0.244643 0.053214 -1.002505 -0.475050 0.248678 -1.341566 0.786108 0.106407 -0.280137 -0.324931 -0.087312 0.720748 -0.270209
73 0.891832 0.028289 0.482112 0.502132 -1.732912 -0.019972 -0.455795 0.120765 -0.450847 0.890438 -0.847316 -0.892387 -0.250261 -0.215735 -0.170347 -0.856062 0.930391 -0.414286 0.240695 0.492575 -0.099227 0.839460 -0.019050 0.286065 -0.626641
233 0.487296 0.132587 0.594150 0.289068 -0.013418 0.632468 -0.941651 -0.829485 -1.051716 -0.607380 -0.920782 -0.287390 -0.267936 -0.526045 -0.036681 -0.363750 0.923357 -0.237217 -0.424648 -0.686910 0.384616 -0.130408 -0.482252 -0.700013 1.161453
146 0.505293 -0.223223 0.730509 0.150981 -0.885884 0.891991 0.540288 -0.715869 0.207642 0.296945 -0.630719 0.199893 -0.179094 -0.161711 -0.443307 0.105174 1.227079 -0.660133 -0.956891 0.296108 0.696600 0.508478 0.527772 -0.518787 0.053969
164 0.321380 -0.550413 0.616834 -0.302098 0.218535 -0.018204 -0.590399 -0.449469 0.290623 0.614141 -0.495518 -0.171816 -0.931533 0.157115 -0.162467 -0.045637 2.067219 -0.391250 -0.725506 -0.376038 0.355155 -0.085201 0.118557 -0.193958 0.487536
158 -0.328481 0.961916 0.969983 -0.349841 -0.189230 0.755444 0.192996 -0.283834 -0.564260 0.425247 0.167746 0.440031 -0.106984 -0.736409 -1.148972 -0.007830 0.341178 -1.732700 0.262228 -0.119927 1.127547 0.560374 -0.070624 -0.523818 0.517035
201 1.302927 0.201597 1.080319 1.283257 -1.200052 -0.423219 -0.872836 -0.015418 -0.619654 -0.958146 0.266433 -0.394301 -0.720197 -0.111965 -0.274106 -0.628154 0.435984 -0.032766 -0.078088 0.098097 0.114432 0.720077 -0.167282 0.310044 0.116036
9 2.040459 0.587759 1.176335 -0.085095 -0.631931 0.043325 -0.856912 -0.262853 -0.334028 0.239871 -0.049327 -0.502984 -0.168395 -0.301945 -0.446222 0.090001 0.137828 -0.510779 -0.219531 -0.325452 -0.170351 0.700088 -0.696836 -0.559458 -0.196556
159 -0.003404 -0.180103 1.195530 -0.075826 0.033662 0.813469 -0.052438 0.506739 -0.526369 0.680383 0.046025 -0.082505 -0.792289 -0.734664 -1.369841 0.222849 0.828585 -0.347287 -0.184528 -0.344066 0.484282 0.481199 -0.534731 1.104629 0.133703
156 0.771230 -0.363456 0.759656 -0.722140 0.308822 0.676231 -0.068246 0.524255 -0.874751 0.306386 0.648862 1.216771 -0.977462 -0.181349 -1.104451 -0.372572 0.832338 -0.917939 0.154537 0.172097 0.655193 0.470204 0.887621 0.672323 0.452226
231 -0.472802 -0.563508 1.364076 0.442388 -0.751695 -0.217253 -0.951864 -0.139779 -0.405691 -0.154888 0.647028 0.280834 -0.889553 -0.878266 -0.360062 -0.251672 0.676830 -0.753872 -0.149240 -0.220426 -0.040489 -0.365296 -0.470982 -0.238767 0.632202
144 0.722189 -0.375158 1.045972 -0.994636 0.005183 0.052676 0.002928 0.229686 -0.340840 0.693990 -0.340148 0.037750 -0.461579 -0.401210 0.147255 0.772172 1.018450 -1.342106 -0.728204 0.324218 0.538484 0.547587 1.006914 -0.525858 -0.115382
36 0.888318 -0.544562 1.152479 -0.108660 -0.340180 -0.561038 -0.304345 -0.554317 0.496285 0.113932 -0.364016 -0.173073 -0.629051 0.350864 -0.247176 0.132599 1.385708 -0.483206 -0.148706 0.289218 0.345977 -0.169751 0.608380 0.736181 0.417882
228 -0.266000 -0.557157 1.072013 -0.387830 -0.625905 -0.212549 -0.148021 -0.228794 -0.292098 -0.246281 -0.116328 -0.284857 -1.153502 -0.416447 0.452176 0.245119 1.810452 -0.407706 -0.706047 0.068585 -0.065424 -0.010117 0.270683 -0.240194 0.867652
249 -0.545561 -0.576526 0.886034 0.785836 -0.869349 0.126108 -0.511087 -0.280699 -0.670133 -0.833495 -0.935775 -0.252288 -0.323992 -1.082064 0.427939 -0.186105 1.089269 -0.394939 0.425693 -0.453296 -0.485012 0.957441 -0.236968 0.340753 1.332603
147 0.760669 -1.464083 1.031032 0.285563 -0.510715 0.154447 0.034878 -0.191365 -0.574594 0.259880 -0.600266 0.811946 -0.655514 -0.029670 -0.249575 0.893375 1.081586 -0.140775 -0.731308 -0.453012 0.439779 -0.385964 0.797357 -0.122971 -0.522606
57 0.272087 -0.923281 0.783107 -0.080074 -0.820504 -0.326766 -0.717612 -1.128300 -0.856924 -0.402307 -0.198424 -0.078838 0.263402 -0.443078 0.166232 0.631618 0.332394 -0.744037 0.105164 -1.400051 0.233794 0.442677 0.193671 1.208373 1.441796
